<?xml version="1.0" encoding="ISO-8859-1"?>
<smile version="1.0" id="BenchmarkNetwork" numsamples="10000" discsamples="10000">
    <nodes>
        <cpt id="L0_N0">
            <state id="State0"/>
            <state id="State1"/>
            <probabilities>0.403697 0.596303</probabilities>
        </cpt>
        <cpt id="L0_N1">
            <state id="State0"/>
            <state id="State1"/>
            <probabilities>0.831643 0.168357</probabilities>
        </cpt>
        <cpt id="L0_N2">
            <state id="State0"/>
            <state id="State1"/>
            <probabilities>0.633697 0.366303</probabilities>
        </cpt>
        <cpt id="L0_N3">
            <state id="State0"/>
            <state id="State1"/>
            <probabilities>0.723852 0.276148</probabilities>
        </cpt>
        <cpt id="L0_N4">
            <state id="State0"/>
            <state id="State1"/>
            <probabilities>0.598057 0.401943</probabilities>
        </cpt>
        <cpt id="L0_N5">
            <state id="State0"/>
            <state id="State1"/>
            <probabilities>0.446549 0.553451</probabilities>
        </cpt>
        <cpt id="L0_N6">
            <state id="State0"/>
            <state id="State1"/>
            <probabilities>0.192885 0.807115</probabilities>
        </cpt>
        <cpt id="L0_N7">
            <state id="State0"/>
            <state id="State1"/>
            <probabilities>0.381286 0.618714</probabilities>
        </cpt>
        <cpt id="L0_N8">
            <state id="State0"/>
            <state id="State1"/>
            <probabilities>0.194528 0.805472</probabilities>
        </cpt>
        <cpt id="L0_N9">
            <state id="State0"/>
            <state id="State1"/>
            <probabilities>0.328314 0.671686</probabilities>
        </cpt>
        <cpt id="L0_N10">
            <state id="State0"/>
            <state id="State1"/>
            <probabilities>0.106696 0.893304</probabilities>
        </cpt>
        <cpt id="L0_N11">
            <state id="State0"/>
            <state id="State1"/>
            <probabilities>0.788840 0.211160</probabilities>
        </cpt>
        <cpt id="L0_N12">
            <state id="State0"/>
            <state id="State1"/>
            <probabilities>0.346975 0.653025</probabilities>
        </cpt>
        <cpt id="L0_N13">
            <state id="State0"/>
            <state id="State1"/>
            <probabilities>0.731617 0.268383</probabilities>
        </cpt>
        <cpt id="L0_N14">
            <state id="State0"/>
            <state id="State1"/>
            <probabilities>0.199014 0.800986</probabilities>
        </cpt>
        <cpt id="L0_N15">
            <state id="State0"/>
            <state id="State1"/>
            <probabilities>0.676895 0.323105</probabilities>
        </cpt>
        <cpt id="L0_N16">
            <state id="State0"/>
            <state id="State1"/>
            <probabilities>0.131206 0.868794</probabilities>
        </cpt>
        <cpt id="L0_N17">
            <state id="State0"/>
            <state id="State1"/>
            <probabilities>0.722145 0.277855</probabilities>
        </cpt>
        <cpt id="L0_N18">
            <state id="State0"/>
            <state id="State1"/>
            <probabilities>0.581675 0.418325</probabilities>
        </cpt>
        <cpt id="L0_N19">
            <state id="State0"/>
            <state id="State1"/>
            <probabilities>0.704394 0.295606</probabilities>
        </cpt>
        <cpt id="L1_N0">
            <state id="State0"/>
            <state id="State1"/>
            <parents>L0_N2 L0_N13 L0_N14</parents>
            <probabilities>0.682964 0.317036 0.414988 0.585012 0.413773 0.586227 0.298972 0.701028 0.561617 0.438383 0.791770 0.208230 0.531076 0.468924 0.525054 0.474946</probabilities>
        </cpt>
        <cpt id="L1_N1">
            <state id="State0"/>
            <state id="State1"/>
            <parents>L0_N5 L0_N1 L0_N17</parents>
            <probabilities>0.472344 0.527656 0.795080 0.204920 0.782862 0.217138 0.271559 0.728441 0.386030 0.613970 0.782644 0.217356 0.587675 0.412325 0.178990 0.821010</probabilities>
        </cpt>
        <cpt id="L1_N2">
            <state id="State0"/>
            <state id="State1"/>
            <parents>L0_N7 L0_N14 L0_N18</parents>
            <probabilities>0.617808 0.382192 0.237587 0.762413 0.778011 0.221989 0.793517 0.206483 0.165571 0.834429 0.779815 0.220185 0.189817 0.810183 0.188269 0.811731</probabilities>
        </cpt>
        <cpt id="L1_N3">
            <state id="State0"/>
            <state id="State1"/>
            <parents>L0_N17 L0_N16</parents>
            <probabilities>0.661904 0.338096 0.842179 0.157821 0.714408 0.285592 0.719673 0.280327</probabilities>
        </cpt>
        <cpt id="L1_N4">
            <state id="State0"/>
            <state id="State1"/>
            <parents>L0_N14 L0_N15</parents>
            <probabilities>0.363918 0.636082 0.284324 0.715676 0.477433 0.522567 0.233508 0.766492</probabilities>
        </cpt>
        <cpt id="L1_N5">
            <state id="State0"/>
            <state id="State1"/>
            <parents>L0_N9 L0_N18 L0_N5</parents>
            <probabilities>0.428938 0.571062 0.840318 0.159682 0.380544 0.619456 0.501050 0.498950 0.598608 0.401392 0.733630 0.266370 0.204194 0.795806 0.704968 0.295032</probabilities>
        </cpt>
        <cpt id="L1_N6">
            <state id="State0"/>
            <state id="State1"/>
            <parents>L0_N9 L0_N12 L0_N2 L0_N3</parents>
            <probabilities>0.833260 0.166740 0.525156 0.474844 0.525682 0.474318 0.631790 0.368210 0.374818 0.625182 0.167816 0.832184 0.670902 0.329098 0.106085 0.893915 0.665896 0.334104 0.535041 0.464959 0.339421 0.660579 0.507601 0.492399 0.371473 0.628527 0.437534 0.562466 0.172224 0.827776 0.143040 0.856960</probabilities>
        </cpt>
        <cpt id="L1_N7">
            <state id="State0"/>
            <state id="State1"/>
            <parents>L0_N9 L0_N16 L0_N12</parents>
            <probabilities>0.462874 0.537126 0.172039 0.827961 0.600179 0.399821 0.692214 0.307786 0.485376 0.514624 0.607606 0.392394 0.436222 0.563778 0.403952 0.596048</probabilities>
        </cpt>
        <cpt id="L1_N8">
            <state id="State0"/>
            <state id="State1"/>
            <parents>L0_N3 L0_N0</parents>
            <probabilities>0.626146 0.373854 0.496865 0.503135 0.446961 0.553039 0.489030 0.510970</probabilities>
        </cpt>
        <cpt id="L1_N9">
            <state id="State0"/>
            <state id="State1"/>
            <parents>L0_N18 L0_N19 L0_N5</parents>
            <probabilities>0.214856 0.785144 0.535302 0.464698 0.719558 0.280442 0.381561 0.618439 0.422531 0.577469 0.752920 0.247080 0.631753 0.368247 0.875121 0.124879</probabilities>
        </cpt>
        <cpt id="L1_N10">
            <state id="State0"/>
            <state id="State1"/>
            <parents>L0_N0 L0_N10</parents>
            <probabilities>0.303924 0.696076 0.894197 0.105803 0.369445 0.630555 0.201142 0.798858</probabilities>
        </cpt>
        <cpt id="L1_N11">
            <state id="State0"/>
            <state id="State1"/>
            <parents>L0_N10 L0_N8 L0_N4 L0_N7</parents>
            <probabilities>0.277756 0.722244 0.760104 0.239896 0.666780 0.333220 0.348089 0.651911 0.660846 0.339154 0.608538 0.391462 0.348658 0.651342 0.379402 0.620598 0.520904 0.479096 0.782844 0.217156 0.631072 0.368928 0.790918 0.209082 0.779234 0.220766 0.395351 0.604649 0.531236 0.468764 0.547103 0.452897</probabilities>
        </cpt>
        <cpt id="L1_N12">
            <state id="State0"/>
            <state id="State1"/>
            <parents>L0_N1</parents>
            <probabilities>0.254016 0.745984 0.119965 0.880035</probabilities>
        </cpt>
        <cpt id="L1_N13">
            <state id="State0"/>
            <state id="State1"/>
            <parents>L0_N17 L0_N1 L0_N6 L0_N13</parents>
            <probabilities>0.243568 0.756432 0.639591 0.360409 0.336492 0.663508 0.311156 0.688844 0.815877 0.184123 0.714049 0.285951 0.887682 0.112318 0.592320 0.407680 0.150836 0.849164 0.127547 0.872453 0.702223 0.297777 0.702162 0.297838 0.230126 0.769874 0.187204 0.812796 0.299634 0.700366 0.376812 0.623188</probabilities>
        </cpt>
        <cpt id="L1_N14">
            <state id="State0"/>
            <state id="State1"/>
            <parents>L0_N9</parents>
            <probabilities>0.437496 0.562504 0.126384 0.873616</probabilities>
        </cpt>
        <cpt id="L1_N15">
            <state id="State0"/>
            <state id="State1"/>
            <parents>L0_N18 L0_N4</parents>
            <probabilities>0.209707 0.790293 0.573708 0.426292 0.122111 0.877889 0.725923 0.274077</probabilities>
        </cpt>
        <cpt id="L1_N16">
            <state id="State0"/>
            <state id="State1"/>
            <parents>L0_N0</parents>
            <probabilities>0.351817 0.648183 0.725512 0.274488</probabilities>
        </cpt>
        <cpt id="L1_N17">
            <state id="State0"/>
            <state id="State1"/>
            <parents>L0_N6</parents>
            <probabilities>0.353217 0.646783 0.486808 0.513192</probabilities>
        </cpt>
        <cpt id="L1_N18">
            <state id="State0"/>
            <state id="State1"/>
            <parents>L0_N18 L0_N12 L0_N0 L0_N9</parents>
            <probabilities>0.709164 0.290836 0.398700 0.601300 0.674951 0.325049 0.562344 0.437656 0.772520 0.227480 0.891113 0.108887 0.664061 0.335939 0.878436 0.121564 0.291591 0.708409 0.825177 0.174823 0.223255 0.776745 0.466333 0.533667 0.526992 0.473008 0.168200 0.831800 0.607486 0.392514 0.889433 0.110567</probabilities>
        </cpt>
        <cpt id="L1_N19">
            <state id="State0"/>
            <state id="State1"/>
            <parents>L0_N4 L0_N3 L0_N8</parents>
            <probabilities>0.514355 0.485645 0.499267 0.500733 0.831536 0.168464 0.524916 0.475084 0.272184 0.727816 0.827105 0.172895 0.500090 0.499910 0.739532 0.260468</probabilities>
        </cpt>
        <cpt id="L2_N0">
            <state id="State0"/>
            <state id="State1"/>
            <parents>L1_N14</parents>
            <probabilities>0.583641 0.416359 0.829606 0.170394</probabilities>
        </cpt>
        <cpt id="L2_N1">
            <state id="State0"/>
            <state id="State1"/>
            <parents>L1_N11 L1_N2</parents>
            <probabilities>0.820297 0.179703 0.511309 0.488691 0.663384 0.336616 0.663339 0.336661</probabilities>
        </cpt>
        <cpt id="L2_N2">
            <state id="State0"/>
            <state id="State1"/>
            <parents>L1_N7 L1_N4 L1_N6 L1_N15</parents>
            <probabilities>0.854890 0.145110 0.490082 0.509918 0.429036 0.570964 0.859769 0.140231 0.808112 0.191888 0.281362 0.718638 0.100195 0.899805 0.697543 0.302457 0.440280 0.559720 0.735892 0.264108 0.819352 0.180648 0.439407 0.560593 0.485640 0.514360 0.640160 0.359840 0.850029 0.149971 0.875194 0.124806</probabilities>
        </cpt>
        <cpt id="L2_N3">
            <state id="State0"/>
            <state id="State1"/>
            <parents>L1_N17 L1_N4 L1_N7 L1_N14</parents>
            <probabilities>0.500349 0.499651 0.466494 0.533506 0.510452 0.489548 0.699606 0.300394 0.452110 0.547890 0.815342 0.184658 0.697708 0.302292 0.476812 0.523188 0.296404 0.703596 0.390744 0.609256 0.561089 0.438911 0.555021 0.444979 0.349924 0.650076 0.300122 0.699878 0.611867 0.388133 0.270207 0.729793</probabilities>
        </cpt>
        <cpt id="L2_N4">
            <state id="State0"/>
            <state id="State1"/>
            <parents>L1_N0</parents>
            <probabilities>0.881997 0.118003 0.410397 0.589603</probabilities>
        </cpt>
        <cpt id="L2_N5">
            <state id="State0"/>
            <state id="State1"/>
            <parents>L1_N9</parents>
            <probabilities>0.544855 0.455145 0.322186 0.677814</probabilities>
        </cpt>
        <cpt id="L2_N6">
            <state id="State0"/>
            <state id="State1"/>
            <parents>L1_N4 L1_N14 L1_N18 L1_N12</parents>
            <probabilities>0.383372 0.616628 0.145281 0.854719 0.890686 0.109314 0.143255 0.856745 0.815548 0.184452 0.742743 0.257257 0.677539 0.322461 0.360547 0.639453 0.391660 0.608340 0.122529 0.877471 0.443963 0.556037 0.404263 0.595737 0.395658 0.604342 0.369697 0.630303 0.681472 0.318528 0.292116 0.707884</probabilities>
        </cpt>
        <cpt id="L2_N7">
            <state id="State0"/>
            <state id="State1"/>
            <parents>L1_N17 L1_N5 L1_N10</parents>
            <probabilities>0.113007 0.886993 0.732365 0.267635 0.872583 0.127417 0.259853 0.740147 0.351589 0.648411 0.715813 0.284187 0.528144 0.471856 0.248401 0.751599</probabilities>
        </cpt>
        <cpt id="L2_N8">
            <state id="State0"/>
            <state id="State1"/>
            <parents>L1_N2</parents>
            <probabilities>0.487952 0.512048 0.892592 0.107408</probabilities>
        </cpt>
        <cpt id="L2_N9">
            <state id="State0"/>
            <state id="State1"/>
            <parents>L1_N18 L1_N13</parents>
            <probabilities>0.131403 0.868597 0.215116 0.784884 0.661217 0.338783 0.676390 0.323610</probabilities>
        </cpt>
        <cpt id="L2_N10">
            <state id="State0"/>
            <state id="State1"/>
            <parents>L1_N2 L1_N11 L1_N0 L1_N6</parents>
            <probabilities>0.256262 0.743738 0.350922 0.649078 0.895325 0.104675 0.323965 0.676035 0.117010 0.882990 0.315350 0.684650 0.373310 0.626690 0.538149 0.461851 0.794544 0.205456 0.296801 0.703199 0.661798 0.338202 0.870658 0.129342 0.837871 0.162129 0.232527 0.767473 0.828542 0.171458 0.126521 0.873479</probabilities>
        </cpt>
        <cpt id="L2_N11">
            <state id="State0"/>
            <state id="State1"/>
            <parents>L1_N2 L1_N7 L1_N0 L1_N18</parents>
            <probabilities>0.343172 0.656828 0.795554 0.204446 0.545434 0.454566 0.742219 0.257781 0.488252 0.511748 0.347548 0.652452 0.612094 0.387906 0.267356 0.732644 0.856547 0.143453 0.390494 0.609506 0.674846 0.325154 0.322718 0.677282 0.353198 0.646802 0.315250 0.684750 0.393227 0.606773 0.165832 0.834168</probabilities>
        </cpt>
        <cpt id="L2_N12">
            <state id="State0"/>
            <state id="State1"/>
            <parents>L1_N18 L1_N4 L1_N16</parents>
            <probabilities>0.142969 0.857031 0.610111 0.389889 0.221834 0.778166 0.664759 0.335241 0.789206 0.210794 0.864662 0.135338 0.641470 0.358530 0.116021 0.883979</probabilities>
        </cpt>
        <cpt id="L2_N13">
            <state id="State0"/>
            <state id="State1"/>
            <parents>L1_N13 L1_N8 L1_N5</parents>
            <probabilities>0.276156 0.723844 0.269346 0.730654 0.279911 0.720089 0.394044 0.605956 0.778676 0.221324 0.254173 0.745827 0.719688 0.280312 0.175074 0.824926</probabilities>
        </cpt>
        <cpt id="L2_N14">
            <state id="State0"/>
            <state id="State1"/>
            <parents>L1_N9 L1_N5 L1_N11 L1_N2</parents>
            <probabilities>0.158430 0.841570 0.731085 0.268915 0.624636 0.375364 0.733709 0.266291 0.345337 0.654663 0.724450 0.275550 0.323358 0.676642 0.131563 0.868437 0.183504 0.816496 0.201012 0.798988 0.368305 0.631695 0.456642 0.543358 0.435476 0.564524 0.230332 0.769668 0.126136 0.873864 0.705946 0.294054</probabilities>
        </cpt>
        <cpt id="L2_N15">
            <state id="State0"/>
            <state id="State1"/>
            <parents>L1_N2 L1_N5 L1_N16</parents>
            <probabilities>0.235203 0.764797 0.626755 0.373245 0.121440 0.878560 0.200152 0.799848 0.569472 0.430528 0.743342 0.256658 0.139485 0.860515 0.894297 0.105703</probabilities>
        </cpt>
        <cpt id="L2_N16">
            <state id="State0"/>
            <state id="State1"/>
            <parents>L1_N19 L1_N15 L1_N5 L1_N8</parents>
            <probabilities>0.851641 0.148359 0.474015 0.525985 0.169954 0.830046 0.660790 0.339210 0.175935 0.824065 0.803035 0.196965 0.496823 0.503177 0.413681 0.586319 0.577939 0.422061 0.595448 0.404552 0.625895 0.374105 0.259586 0.740414 0.272547 0.727453 0.118971 0.881029 0.412518 0.587482 0.682812 0.317188</probabilities>
        </cpt>
        <cpt id="L2_N17">
            <state id="State0"/>
            <state id="State1"/>
            <parents>L1_N3 L1_N17 L1_N19</parents>
            <probabilities>0.845824 0.154176 0.122346 0.877654 0.646487 0.353513 0.855189 0.144811 0.476450 0.523550 0.391384 0.608616 0.844326 0.155674 0.741878 0.258122</probabilities>
        </cpt>
        <cpt id="L2_N18">
            <state id="State0"/>
            <state id="State1"/>
            <parents>L1_N15 L1_N17</parents>
            <probabilities>0.487733 0.512267 0.472977 0.527023 0.322147 0.677853 0.198221 0.801779</probabilities>
        </cpt>
        <cpt id="L2_N19">
            <state id="State0"/>
            <state id="State1"/>
            <parents>L1_N13</parents>
            <probabilities>0.221686 0.778314 0.663810 0.336190</probabilities>
        </cpt>
        <cpt id="L3_N0">
            <state id="State0"/>
            <state id="State1"/>
            <parents>L2_N1 L2_N9 L2_N16 L2_N13</parents>
            <probabilities>0.119108 0.880892 0.418541 0.581459 0.108628 0.891372 0.250267 0.749733 0.523527 0.476473 0.732662 0.267338 0.718975 0.281025 0.419043 0.580957 0.328635 0.671365 0.709434 0.290566 0.187966 0.812034 0.715872 0.284128 0.633448 0.366552 0.426220 0.573780 0.549220 0.450780 0.753007 0.246993</probabilities>
        </cpt>
        <cpt id="L3_N1">
            <state id="State0"/>
            <state id="State1"/>
            <parents>L2_N11 L2_N5 L2_N10</parents>
            <probabilities>0.182011 0.817989 0.209275 0.790725 0.159646 0.840354 0.262478 0.737522 0.543586 0.456414 0.572524 0.427476 0.748633 0.251367 0.679501 0.320499</probabilities>
        </cpt>
        <cpt id="L3_N2">
            <state id="State0"/>
            <state id="State1"/>
            <parents>L2_N16</parents>
            <probabilities>0.279669 0.720331 0.880163 0.119837</probabilities>
        </cpt>
        <cpt id="L3_N3">
            <state id="State0"/>
            <state id="State1"/>
            <parents>L2_N11</parents>
            <probabilities>0.878252 0.121748 0.567760 0.432240</probabilities>
        </cpt>
        <cpt id="L3_N4">
            <state id="State0"/>
            <state id="State1"/>
            <parents>L2_N7 L2_N10 L2_N2</parents>
            <probabilities>0.775479 0.224521 0.536455 0.463545 0.750113 0.249887 0.322351 0.677649 0.543433 0.456567 0.426054 0.573946 0.587032 0.412968 0.409859 0.590141</probabilities>
        </cpt>
        <cpt id="L3_N5">
            <state id="State0"/>
            <state id="State1"/>
            <parents>L2_N11</parents>
            <probabilities>0.181260 0.818740 0.305938 0.694062</probabilities>
        </cpt>
        <cpt id="L3_N6">
            <state id="State0"/>
            <state id="State1"/>
            <parents>L2_N5</parents>
            <probabilities>0.150282 0.849718 0.186132 0.813868</probabilities>
        </cpt>
        <cpt id="L3_N7">
            <state id="State0"/>
            <state id="State1"/>
            <parents>L2_N6 L2_N11</parents>
            <probabilities>0.244765 0.755235 0.242254 0.757746 0.363492 0.636508 0.120019 0.879981</probabilities>
        </cpt>
        <cpt id="L3_N8">
            <state id="State0"/>
            <state id="State1"/>
            <parents>L2_N18 L2_N1 L2_N7</parents>
            <probabilities>0.686830 0.313170 0.314054 0.685946 0.358331 0.641669 0.868631 0.131369 0.248074 0.751926 0.421089 0.578911 0.412623 0.587377 0.157282 0.842718</probabilities>
        </cpt>
        <cpt id="L3_N9">
            <state id="State0"/>
            <state id="State1"/>
            <parents>L2_N0 L2_N10</parents>
            <probabilities>0.760089 0.239911 0.175931 0.824069 0.458705 0.541295 0.868323 0.131677</probabilities>
        </cpt>
        <cpt id="L3_N10">
            <state id="State0"/>
            <state id="State1"/>
            <parents>L2_N6 L2_N10 L2_N19 L2_N5</parents>
            <probabilities>0.569479 0.430521 0.284462 0.715538 0.226351 0.773649 0.183611 0.816389 0.835278 0.164722 0.648981 0.351019 0.429894 0.570106 0.186490 0.813510 0.712013 0.287987 0.414616 0.585384 0.741477 0.258523 0.867319 0.132681 0.642778 0.357222 0.838011 0.161989 0.737513 0.262487 0.539798 0.460202</probabilities>
        </cpt>
        <cpt id="L3_N11">
            <state id="State0"/>
            <state id="State1"/>
            <parents>L2_N11 L2_N6 L2_N10</parents>
            <probabilities>0.236620 0.763380 0.736955 0.263045 0.263572 0.736428 0.588423 0.411577 0.672074 0.327926 0.584002 0.415998 0.523496 0.476504 0.302760 0.697240</probabilities>
        </cpt>
        <cpt id="L3_N12">
            <state id="State0"/>
            <state id="State1"/>
            <parents>L2_N15</parents>
            <probabilities>0.224995 0.775005 0.875673 0.124327</probabilities>
        </cpt>
        <cpt id="L3_N13">
            <state id="State0"/>
            <state id="State1"/>
            <parents>L2_N12 L2_N5 L2_N10 L2_N17</parents>
            <probabilities>0.586674 0.413326 0.237607 0.762393 0.173632 0.826368 0.466614 0.533386 0.771713 0.228287 0.886986 0.113014 0.801062 0.198938 0.160636 0.839364 0.230215 0.769785 0.423244 0.576756 0.303260 0.696740 0.768435 0.231565 0.161707 0.838293 0.578100 0.421900 0.287595 0.712405 0.134770 0.865230</probabilities>
        </cpt>
        <cpt id="L3_N14">
            <state id="State0"/>
            <state id="State1"/>
            <parents>L2_N18 L2_N10</parents>
            <probabilities>0.717885 0.282115 0.863964 0.136036 0.626924 0.373076 0.418913 0.581087</probabilities>
        </cpt>
        <cpt id="L3_N15">
            <state id="State0"/>
            <state id="State1"/>
            <parents>L2_N8</parents>
            <probabilities>0.137396 0.862604 0.636387 0.363613</probabilities>
        </cpt>
        <cpt id="L3_N16">
            <state id="State0"/>
            <state id="State1"/>
            <parents>L2_N5 L2_N14</parents>
            <probabilities>0.225991 0.774009 0.132517 0.867483 0.107935 0.892065 0.244909 0.755091</probabilities>
        </cpt>
        <cpt id="L3_N17">
            <state id="State0"/>
            <state id="State1"/>
            <parents>L2_N16</parents>
            <probabilities>0.517016 0.482984 0.594148 0.405852</probabilities>
        </cpt>
        <cpt id="L3_N18">
            <state id="State0"/>
            <state id="State1"/>
            <parents>L2_N14</parents>
            <probabilities>0.319083 0.680917 0.454975 0.545025</probabilities>
        </cpt>
        <cpt id="L3_N19">
            <state id="State0"/>
            <state id="State1"/>
            <parents>L2_N12 L2_N0</parents>
            <probabilities>0.770879 0.229121 0.720468 0.279532 0.435745 0.564255 0.466960 0.533040</probabilities>
        </cpt>
        <cpt id="L4_N0">
            <state id="State0"/>
            <state id="State1"/>
            <parents>L3_N18 L3_N7 L3_N10</parents>
            <probabilities>0.820890 0.179110 0.767856 0.232144 0.116140 0.883860 0.691969 0.308031 0.737116 0.262884 0.506416 0.493584 0.309812 0.690188 0.476820 0.523180</probabilities>
        </cpt>
        <cpt id="L4_N1">
            <state id="State0"/>
            <state id="State1"/>
            <parents>L3_N12</parents>
            <probabilities>0.296883 0.703117 0.228014 0.771986</probabilities>
        </cpt>
        <cpt id="L4_N2">
            <state id="State0"/>
            <state id="State1"/>
            <parents>L3_N10 L3_N4 L3_N14 L3_N11</parents>
            <probabilities>0.851636 0.148364 0.873003 0.126997 0.750357 0.249643 0.375393 0.624607 0.428330 0.571670 0.215503 0.784497 0.262037 0.737963 0.335359 0.664641 0.220141 0.779859 0.376494 0.623506 0.210095 0.789905 0.578339 0.421661 0.676632 0.323368 0.882171 0.117829 0.725399 0.274601 0.804365 0.195635</probabilities>
        </cpt>
        <cpt id="L4_N3">
            <state id="State0"/>
            <state id="State1"/>
            <parents>L3_N8 L3_N17</parents>
            <probabilities>0.181953 0.818047 0.610927 0.389073 0.719210 0.280790 0.738085 0.261915</probabilities>
        </cpt>
        <cpt id="L4_N4">
            <state id="State0"/>
            <state id="State1"/>
            <parents>L3_N6</parents>
            <probabilities>0.372721 0.627279 0.580118 0.419882</probabilities>
        </cpt>
        <cpt id="L4_N5">
            <state id="State0"/>
            <state id="State1"/>
            <parents>L3_N2</parents>
            <probabilities>0.519668 0.480332 0.853655 0.146345</probabilities>
        </cpt>
        <cpt id="L4_N6">
            <state id="State0"/>
            <state id="State1"/>
            <parents>L3_N19 L3_N13</parents>
            <probabilities>0.803974 0.196026 0.614448 0.385552 0.437971 0.562029 0.734998 0.265002</probabilities>
        </cpt>
        <cpt id="L4_N7">
            <state id="State0"/>
            <state id="State1"/>
            <parents>L3_N16 L3_N6 L3_N13</parents>
            <probabilities>0.345960 0.654040 0.245863 0.754137 0.713760 0.286240 0.789927 0.210073 0.370716 0.629284 0.375691 0.624309 0.873487 0.126513 0.877575 0.122425</probabilities>
        </cpt>
        <cpt id="L4_N8">
            <state id="State0"/>
            <state id="State1"/>
            <parents>L3_N1 L3_N19 L3_N8 L3_N15</parents>
            <probabilities>0.438391 0.561609 0.433607 0.566393 0.434314 0.565686 0.501840 0.498160 0.425692 0.574308 0.825448 0.174552 0.657726 0.342274 0.769615 0.230385 0.586028 0.413972 0.608398 0.391602 0.590095 0.409905 0.679043 0.320957 0.747114 0.252886 0.820116 0.179884 0.378209 0.621791 0.421241 0.578759</probabilities>
        </cpt>
        <cpt id="L4_N9">
            <state id="State0"/>
            <state id="State1"/>
            <parents>L3_N15 L3_N19</parents>
            <probabilities>0.564105 0.435895 0.460232 0.539768 0.838927 0.161073 0.672728 0.327272</probabilities>
        </cpt>
        <cpt id="L4_N10">
            <state id="State0"/>
            <state id="State1"/>
            <parents>L3_N12 L3_N11 L3_N16 L3_N19</parents>
            <probabilities>0.457428 0.542572 0.614522 0.385478 0.789041 0.210959 0.366084 0.633916 0.587261 0.412739 0.820620 0.179380 0.694190 0.305810 0.338658 0.661342 0.295535 0.704465 0.293793 0.706207 0.530280 0.469720 0.112494 0.887506 0.215870 0.784130 0.572311 0.427689 0.519008 0.480992 0.258753 0.741247</probabilities>
        </cpt>
        <cpt id="L4_N11">
            <state id="State0"/>
            <state id="State1"/>
            <parents>L3_N11 L3_N10 L3_N1</parents>
            <probabilities>0.156027 0.843973 0.853312 0.146688 0.233895 0.766105 0.725300 0.274700 0.260432 0.739568 0.245684 0.754316 0.429408 0.570592 0.187446 0.812554</probabilities>
        </cpt>
        <cpt id="L4_N12">
            <state id="State0"/>
            <state id="State1"/>
            <parents>L3_N6 L3_N7 L3_N3</parents>
            <probabilities>0.205513 0.794487 0.191349 0.808651 0.645891 0.354109 0.761929 0.238071 0.264759 0.735241 0.362785 0.637215 0.518992 0.481008 0.891313 0.108687</probabilities>
        </cpt>
        <cpt id="L4_N13">
            <state id="State0"/>
            <state id="State1"/>
            <parents>L3_N4</parents>
            <probabilities>0.730223 0.269777 0.800321 0.199679</probabilities>
        </cpt>
        <cpt id="L4_N14">
            <state id="State0"/>
            <state id="State1"/>
            <parents>L3_N5 L3_N6</parents>
            <probabilities>0.833013 0.166987 0.244632 0.755368 0.676089 0.323911 0.855307 0.144693</probabilities>
        </cpt>
        <cpt id="L4_N15">
            <state id="State0"/>
            <state id="State1"/>
            <parents>L3_N14 L3_N15 L3_N16</parents>
            <probabilities>0.557388 0.442612 0.503777 0.496223 0.574973 0.425027 0.625352 0.374648 0.754581 0.245419 0.242371 0.757629 0.140275 0.859725 0.894227 0.105773</probabilities>
        </cpt>
        <cpt id="L4_N16">
            <state id="State0"/>
            <state id="State1"/>
            <parents>L3_N2 L3_N6</parents>
            <probabilities>0.204015 0.795985 0.316322 0.683678 0.498491 0.501509 0.524831 0.475169</probabilities>
        </cpt>
        <cpt id="L4_N17">
            <state id="State0"/>
            <state id="State1"/>
            <parents>L3_N16 L3_N3 L3_N11 L3_N14</parents>
            <probabilities>0.586086 0.413914 0.396278 0.603722 0.134658 0.865342 0.168705 0.831295 0.501948 0.498052 0.773182 0.226818 0.353609 0.646391 0.729875 0.270125 0.152626 0.847374 0.256536 0.743464 0.778142 0.221858 0.462896 0.537104 0.373287 0.626713 0.245391 0.754609 0.216360 0.783640 0.235588 0.764412</probabilities>
        </cpt>
        <cpt id="L4_N18">
            <state id="State0"/>
            <state id="State1"/>
            <parents>L3_N14</parents>
            <probabilities>0.441562 0.558438 0.657188 0.342812</probabilities>
        </cpt>
        <cpt id="L4_N19">
            <state id="State0"/>
            <state id="State1"/>
            <parents>L3_N12 L3_N9</parents>
            <probabilities>0.153375 0.846625 0.498780 0.501220 0.160859 0.839141 0.884392 0.115608</probabilities>
        </cpt>
        <cpt id="L5_N0">
            <state id="State0"/>
            <state id="State1"/>
            <parents>L4_N6</parents>
            <probabilities>0.354438 0.645562 0.217010 0.782990</probabilities>
        </cpt>
        <cpt id="L5_N1">
            <state id="State0"/>
            <state id="State1"/>
            <parents>L4_N14 L4_N16 L4_N0 L4_N5</parents>
            <probabilities>0.340688 0.659312 0.267308 0.732692 0.740181 0.259819 0.502228 0.497772 0.167525 0.832475 0.340698 0.659302 0.223100 0.776900 0.200872 0.799128 0.843439 0.156561 0.286393 0.713607 0.182372 0.817628 0.118826 0.881174 0.213080 0.786920 0.403066 0.596934 0.539126 0.460874 0.704713 0.295287</probabilities>
        </cpt>
        <cpt id="L5_N2">
            <state id="State0"/>
            <state id="State1"/>
            <parents>L4_N6 L4_N5 L4_N17</parents>
            <probabilities>0.548144 0.451856 0.289456 0.710544 0.853090 0.146910 0.399791 0.600209 0.477367 0.522633 0.444686 0.555314 0.558709 0.441291 0.393480 0.606520</probabilities>
        </cpt>
        <cpt id="L5_N3">
            <state id="State0"/>
            <state id="State1"/>
            <parents>L4_N1 L4_N14 L4_N3 L4_N18</parents>
            <probabilities>0.381524 0.618476 0.715551 0.284449 0.324536 0.675464 0.252112 0.747888 0.796470 0.203530 0.602732 0.397268 0.420474 0.579526 0.145564 0.854436 0.215321 0.784679 0.190304 0.809696 0.870273 0.129727 0.303702 0.696298 0.799919 0.200081 0.815541 0.184459 0.784073 0.215927 0.881931 0.118069</probabilities>
        </cpt>
        <cpt id="L5_N4">
            <state id="State0"/>
            <state id="State1"/>
            <parents>L4_N3 L4_N7 L4_N5 L4_N16</parents>
            <probabilities>0.697552 0.302448 0.638837 0.361163 0.289801 0.710199 0.569103 0.430897 0.451954 0.548046 0.362880 0.637120 0.522221 0.477779 0.191030 0.808970 0.386254 0.613746 0.791918 0.208082 0.256684 0.743316 0.789861 0.210139 0.736307 0.263693 0.605402 0.394598 0.708036 0.291964 0.565033 0.434967</probabilities>
        </cpt>
        <cpt id="L5_N5">
            <state id="State0"/>
            <state id="State1"/>
            <parents>L4_N6 L4_N14</parents>
            <probabilities>0.499226 0.500774 0.861980 0.138020 0.160549 0.839451 0.460401 0.539599</probabilities>
        </cpt>
        <cpt id="L5_N6">
            <state id="State0"/>
            <state id="State1"/>
            <parents>L4_N15</parents>
            <probabilities>0.667043 0.332957 0.265161 0.734839</probabilities>
        </cpt>
        <cpt id="L5_N7">
            <state id="State0"/>
            <state id="State1"/>
            <parents>L4_N10</parents>
            <probabilities>0.275983 0.724017 0.869053 0.130947</probabilities>
        </cpt>
        <cpt id="L5_N8">
            <state id="State0"/>
            <state id="State1"/>
            <parents>L4_N15 L4_N17 L4_N6 L4_N11</parents>
            <probabilities>0.188261 0.811739 0.262805 0.737195 0.703121 0.296879 0.736584 0.263416 0.362277 0.637723 0.526145 0.473855 0.669026 0.330974 0.410309 0.589691 0.463705 0.536295 0.746278 0.253722 0.103946 0.896054 0.210241 0.789759 0.787514 0.212486 0.737147 0.262853 0.564129 0.435871 0.658167 0.341833</probabilities>
        </cpt>
        <cpt id="L5_N9">
            <state id="State0"/>
            <state id="State1"/>
            <parents>L4_N3 L4_N8 L4_N15 L4_N9</parents>
            <probabilities>0.388946 0.611054 0.257748 0.742252 0.483620 0.516380 0.508779 0.491221 0.543128 0.456872 0.702313 0.297687 0.305799 0.694201 0.204232 0.795768 0.136688 0.863312 0.576472 0.423528 0.370858 0.629142 0.618775 0.381225 0.516739 0.483261 0.610612 0.389388 0.535579 0.464421 0.503598 0.496402</probabilities>
        </cpt>
        <cpt id="L5_N10">
            <state id="State0"/>
            <state id="State1"/>
            <parents>L4_N12 L4_N6 L4_N15</parents>
            <probabilities>0.827315 0.172685 0.177995 0.822005 0.667959 0.332041 0.539617 0.460383 0.734549 0.265451 0.564418 0.435582 0.637425 0.362575 0.229301 0.770699</probabilities>
        </cpt>
        <cpt id="L5_N11">
            <state id="State0"/>
            <state id="State1"/>
            <parents>L4_N11 L4_N16 L4_N0 L4_N6</parents>
            <probabilities>0.894954 0.105046 0.544201 0.455799 0.112516 0.887484 0.659067 0.340933 0.814112 0.185888 0.431774 0.568226 0.327395 0.672605 0.785607 0.214393 0.482610 0.517390 0.342915 0.657085 0.488216 0.511784 0.360076 0.639924 0.204652 0.795348 0.807239 0.192761 0.458547 0.541453 0.402983 0.597017</probabilities>
        </cpt>
        <cpt id="L5_N12">
            <state id="State0"/>
            <state id="State1"/>
            <parents>L4_N18</parents>
            <probabilities>0.227888 0.772112 0.258092 0.741908</probabilities>
        </cpt>
        <cpt id="L5_N13">
            <state id="State0"/>
            <state id="State1"/>
            <parents>L4_N15 L4_N6 L4_N16 L4_N12</parents>
            <probabilities>0.797109 0.202891 0.317112 0.682888 0.658811 0.341189 0.389376 0.610624 0.836322 0.163678 0.278332 0.721668 0.471279 0.528721 0.504967 0.495033 0.410031 0.589969 0.627595 0.372405 0.801905 0.198095 0.176329 0.823671 0.416392 0.583608 0.726048 0.273952 0.822884 0.177116 0.559602 0.440398</probabilities>
        </cpt>
        <cpt id="L5_N14">
            <state id="State0"/>
            <state id="State1"/>
            <parents>L4_N6 L4_N10 L4_N14</parents>
            <probabilities>0.465483 0.534517 0.525267 0.474733 0.170827 0.829173 0.368516 0.631484 0.670476 0.329524 0.629415 0.370585 0.766785 0.233215 0.830418 0.169582</probabilities>
        </cpt>
        <cpt id="L5_N15">
            <state id="State0"/>
            <state id="State1"/>
            <parents>L4_N10 L4_N11 L4_N18 L4_N2</parents>
            <probabilities>0.641154 0.358846 0.593254 0.406746 0.254083 0.745917 0.819632 0.180368 0.210165 0.789835 0.172455 0.827545 0.539468 0.460532 0.116642 0.883358 0.368071 0.631929 0.447027 0.552973 0.840008 0.159992 0.840278 0.159722 0.371902 0.628098 0.253822 0.746178 0.198794 0.801206 0.734820 0.265180</probabilities>
        </cpt>
        <cpt id="L5_N16">
            <state id="State0"/>
            <state id="State1"/>
            <parents>L4_N8 L4_N11 L4_N2</parents>
            <probabilities>0.521104 0.478896 0.679694 0.320306 0.244380 0.755620 0.412818 0.587182 0.835641 0.164359 0.575259 0.424741 0.407955 0.592045 0.821498 0.178502</probabilities>
        </cpt>
        <cpt id="L5_N17">
            <state id="State0"/>
            <state id="State1"/>
            <parents>L4_N16 L4_N10</parents>
            <probabilities>0.114516 0.885484 0.340836 0.659164 0.831877 0.168123 0.104516 0.895484</probabilities>
        </cpt>
        <cpt id="L5_N18">
            <state id="State0"/>
            <state id="State1"/>
            <parents>L4_N15</parents>
            <probabilities>0.417208 0.582792 0.314581 0.685419</probabilities>
        </cpt>
        <cpt id="L5_N19">
            <state id="State0"/>
            <state id="State1"/>
            <parents>L4_N18 L4_N4 L4_N15 L4_N19</parents>
            <probabilities>0.387671 0.612329 0.413491 0.586509 0.108027 0.891973 0.176653 0.823347 0.198745 0.801255 0.318925 0.681075 0.226526 0.773474 0.108700 0.891300 0.755784 0.244216 0.658126 0.341874 0.588092 0.411908 0.724726 0.275274 0.500637 0.499363 0.715497 0.284503 0.839951 0.160049 0.761684 0.238316</probabilities>
        </cpt>
        <cpt id="L6_N0">
            <state id="State0"/>
            <state id="State1"/>
            <parents>L5_N12 L5_N10</parents>
            <probabilities>0.351979 0.648021 0.429921 0.570079 0.177469 0.822531 0.167974 0.832026</probabilities>
        </cpt>
        <cpt id="L6_N1">
            <state id="State0"/>
            <state id="State1"/>
            <parents>L5_N12 L5_N18</parents>
            <probabilities>0.113347 0.886653 0.512647 0.487353 0.498974 0.501026 0.832623 0.167377</probabilities>
        </cpt>
        <cpt id="L6_N2">
            <state id="State0"/>
            <state id="State1"/>
            <parents>L5_N1 L5_N5 L5_N4 L5_N16</parents>
            <probabilities>0.683200 0.316800 0.589856 0.410144 0.554321 0.445679 0.804992 0.195008 0.424139 0.575861 0.866503 0.133497 0.146082 0.853918 0.427494 0.572506 0.285457 0.714543 0.142863 0.857137 0.313078 0.686922 0.839513 0.160487 0.797535 0.202465 0.799063 0.200937 0.758355 0.241645 0.277658 0.722342</probabilities>
        </cpt>
        <cpt id="L6_N3">
            <state id="State0"/>
            <state id="State1"/>
            <parents>L5_N8 L5_N16 L5_N4 L5_N10</parents>
            <probabilities>0.246524 0.753476 0.317755 0.682245 0.452457 0.547543 0.789943 0.210057 0.494952 0.505048 0.704080 0.295920 0.303163 0.696837 0.194073 0.805927 0.566526 0.433474 0.791587 0.208413 0.737135 0.262865 0.396584 0.603416 0.799662 0.200338 0.644683 0.355317 0.745185 0.254815 0.498122 0.501878</probabilities>
        </cpt>
        <cpt id="L6_N4">
            <state id="State0"/>
            <state id="State1"/>
            <parents>L5_N2</parents>
            <probabilities>0.387250 0.612750 0.247597 0.752403</probabilities>
        </cpt>
        <cpt id="L6_N5">
            <state id="State0"/>
            <state id="State1"/>
            <parents>L5_N9</parents>
            <probabilities>0.547136 0.452864 0.539555 0.460445</probabilities>
        </cpt>
        <cpt id="L6_N6">
            <state id="State0"/>
            <state id="State1"/>
            <parents>L5_N4</parents>
            <probabilities>0.778585 0.221415 0.848148 0.151852</probabilities>
        </cpt>
        <cpt id="L6_N7">
            <state id="State0"/>
            <state id="State1"/>
            <parents>L5_N6 L5_N10 L5_N4</parents>
            <probabilities>0.741589 0.258411 0.578224 0.421776 0.765889 0.234111 0.631246 0.368754 0.604311 0.395689 0.336681 0.663319 0.763862 0.236138 0.817348 0.182652</probabilities>
        </cpt>
        <cpt id="L6_N8">
            <state id="State0"/>
            <state id="State1"/>
            <parents>L5_N7 L5_N14 L5_N2 L5_N1</parents>
            <probabilities>0.318219 0.681781 0.566408 0.433592 0.359502 0.640498 0.436362 0.563638 0.332883 0.667117 0.228076 0.771924 0.123979 0.876021 0.205995 0.794005 0.307798 0.692202 0.259725 0.740275 0.547725 0.452275 0.886983 0.113017 0.832073 0.167927 0.839119 0.160881 0.365093 0.634907 0.211168 0.788832</probabilities>
        </cpt>
        <cpt id="L6_N9">
            <state id="State0"/>
            <state id="State1"/>
            <parents>L5_N18</parents>
            <probabilities>0.583024 0.416976 0.109859 0.890141</probabilities>
        </cpt>
        <cpt id="L6_N10">
            <state id="State0"/>
            <state id="State1"/>
            <parents>L5_N12 L5_N5 L5_N2</parents>
            <probabilities>0.112917 0.887083 0.760167 0.239833 0.419595 0.580405 0.812442 0.187558 0.654628 0.345372 0.205226 0.794774 0.742224 0.257776 0.274200 0.725800</probabilities>
        </cpt>
        <cpt id="L6_N11">
            <state id="State0"/>
            <state id="State1"/>
            <parents>L5_N1</parents>
            <probabilities>0.494202 0.505798 0.572842 0.427158</probabilities>
        </cpt>
        <cpt id="L6_N12">
            <state id="State0"/>
            <state id="State1"/>
            <parents>L5_N12</parents>
            <probabilities>0.622928 0.377072 0.736550 0.263450</probabilities>
        </cpt>
        <cpt id="L6_N13">
            <state id="State0"/>
            <state id="State1"/>
            <parents>L5_N18 L5_N3 L5_N19 L5_N15</parents>
            <probabilities>0.462201 0.537799 0.497531 0.502469 0.136510 0.863490 0.785283 0.214717 0.402396 0.597604 0.602085 0.397915 0.740912 0.259088 0.805735 0.194265 0.883696 0.116304 0.576622 0.423378 0.222918 0.777082 0.144507 0.855493 0.126402 0.873598 0.794434 0.205566 0.106275 0.893725 0.481552 0.518448</probabilities>
        </cpt>
        <cpt id="L6_N14">
            <state id="State0"/>
            <state id="State1"/>
            <parents>L5_N18 L5_N8 L5_N0 L5_N14</parents>
            <probabilities>0.647435 0.352565 0.392936 0.607064 0.390641 0.609359 0.180686 0.819314 0.480130 0.519870 0.616761 0.383239 0.737508 0.262492 0.813558 0.186442 0.892652 0.107348 0.354244 0.645756 0.823847 0.176153 0.472883 0.527117 0.729702 0.270298 0.767182 0.232818 0.600979 0.399021 0.598546 0.401454</probabilities>
        </cpt>
        <cpt id="L6_N15">
            <state id="State0"/>
            <state id="State1"/>
            <parents>L5_N2 L5_N17 L5_N12</parents>
            <probabilities>0.166638 0.833362 0.524657 0.475343 0.651065 0.348935 0.649946 0.350054 0.401423 0.598577 0.883537 0.116463 0.317773 0.682227 0.638891 0.361109</probabilities>
        </cpt>
        <cpt id="L6_N16">
            <state id="State0"/>
            <state id="State1"/>
            <parents>L5_N12 L5_N13 L5_N18</parents>
            <probabilities>0.326283 0.673717 0.499182 0.500818 0.296840 0.703160 0.656749 0.343251 0.598332 0.401668 0.242755 0.757245 0.143071 0.856929 0.156609 0.843391</probabilities>
        </cpt>
        <cpt id="L6_N17">
            <state id="State0"/>
            <state id="State1"/>
            <parents>L5_N3 L5_N19</parents>
            <probabilities>0.194121 0.805879 0.800958 0.199042 0.471406 0.528594 0.320014 0.679986</probabilities>
        </cpt>
        <cpt id="L6_N18">
            <state id="State0"/>
            <state id="State1"/>
            <parents>L5_N4</parents>
            <probabilities>0.423629 0.576371 0.538503 0.461497</probabilities>
        </cpt>
        <cpt id="L6_N19">
            <state id="State0"/>
            <state id="State1"/>
            <parents>L5_N17 L5_N4</parents>
            <probabilities>0.803594 0.196406 0.414067 0.585933 0.702458 0.297542 0.124635 0.875365</probabilities>
        </cpt>
        <cpt id="L7_N0">
            <state id="State0"/>
            <state id="State1"/>
            <parents>L6_N0 L6_N10</parents>
            <probabilities>0.662482 0.337518 0.266297 0.733703 0.375231 0.624769 0.479668 0.520332</probabilities>
        </cpt>
        <cpt id="L7_N1">
            <state id="State0"/>
            <state id="State1"/>
            <parents>L6_N19</parents>
            <probabilities>0.624057 0.375943 0.888171 0.111829</probabilities>
        </cpt>
        <cpt id="L7_N2">
            <state id="State0"/>
            <state id="State1"/>
            <parents>L6_N2 L6_N18</parents>
            <probabilities>0.157140 0.842860 0.680638 0.319362 0.794292 0.205708 0.789547 0.210453</probabilities>
        </cpt>
        <cpt id="L7_N3">
            <state id="State0"/>
            <state id="State1"/>
            <parents>L6_N19 L6_N17</parents>
            <probabilities>0.763819 0.236181 0.744315 0.255685 0.482045 0.517955 0.546559 0.453441</probabilities>
        </cpt>
        <cpt id="L7_N4">
            <state id="State0"/>
            <state id="State1"/>
            <parents>L6_N15 L6_N6 L6_N10</parents>
            <probabilities>0.790531 0.209469 0.527415 0.472585 0.554701 0.445299 0.302185 0.697815 0.491360 0.508640 0.203340 0.796660 0.227226 0.772774 0.401398 0.598602</probabilities>
        </cpt>
        <cpt id="L7_N5">
            <state id="State0"/>
            <state id="State1"/>
            <parents>L6_N17 L6_N2 L6_N6</parents>
            <probabilities>0.125489 0.874511 0.387920 0.612080 0.277366 0.722634 0.488830 0.511170 0.180799 0.819201 0.751685 0.248315 0.741433 0.258567 0.524454 0.475546</probabilities>
        </cpt>
        <cpt id="L7_N6">
            <state id="State0"/>
            <state id="State1"/>
            <parents>L6_N16 L6_N9 L6_N15 L6_N17</parents>
            <probabilities>0.796763 0.203237 0.217475 0.782525 0.480099 0.519901 0.190560 0.809440 0.146186 0.853814 0.693087 0.306913 0.897685 0.102315 0.504404 0.495596 0.829155 0.170845 0.157449 0.842551 0.319926 0.680074 0.703539 0.296461 0.469504 0.530496 0.777892 0.222108 0.481120 0.518880 0.466008 0.533992</probabilities>
        </cpt>
        <cpt id="L7_N7">
            <state id="State0"/>
            <state id="State1"/>
            <parents>L6_N2 L6_N12 L6_N8 L6_N16</parents>
            <probabilities>0.617001 0.382999 0.176613 0.823387 0.589628 0.410372 0.302689 0.697311 0.624135 0.375865 0.190403 0.809597 0.157780 0.842220 0.406648 0.593352 0.772293 0.227707 0.157389 0.842611 0.350971 0.649029 0.624261 0.375739 0.669940 0.330060 0.749280 0.250720 0.546855 0.453145 0.215670 0.784330</probabilities>
        </cpt>
        <cpt id="L7_N8">
            <state id="State0"/>
            <state id="State1"/>
            <parents>L6_N4</parents>
            <probabilities>0.561102 0.438898 0.797754 0.202246</probabilities>
        </cpt>
        <cpt id="L7_N9">
            <state id="State0"/>
            <state id="State1"/>
            <parents>L6_N0 L6_N14 L6_N12</parents>
            <probabilities>0.753197 0.246803 0.344245 0.655755 0.482865 0.517135 0.527297 0.472703 0.447935 0.552065 0.686933 0.313067 0.755281 0.244719 0.777965 0.222035</probabilities>
        </cpt>
        <cpt id="L7_N10">
            <state id="State0"/>
            <state id="State1"/>
            <parents>L6_N14 L6_N19 L6_N13 L6_N3</parents>
            <probabilities>0.215590 0.784410 0.859701 0.140299 0.431648 0.568352 0.802167 0.197833 0.431352 0.568648 0.737815 0.262185 0.479034 0.520966 0.717412 0.282588 0.330295 0.669705 0.479869 0.520131 0.202039 0.797961 0.668899 0.331101 0.433452 0.566548 0.724413 0.275587 0.677056 0.322944 0.776940 0.223060</probabilities>
        </cpt>
        <cpt id="L7_N11">
            <state id="State0"/>
            <state id="State1"/>
            <parents>L6_N1 L6_N3 L6_N14 L6_N17</parents>
            <probabilities>0.673641 0.326359 0.480980 0.519020 0.688494 0.311506 0.396640 0.603360 0.135102 0.864898 0.275277 0.724723 0.432994 0.567006 0.784768 0.215232 0.127077 0.872923 0.764664 0.235336 0.339062 0.660938 0.694493 0.305507 0.609412 0.390588 0.231065 0.768935 0.774693 0.225307 0.617164 0.382836</probabilities>
        </cpt>
        <cpt id="L7_N12">
            <state id="State0"/>
            <state id="State1"/>
            <parents>L6_N3 L6_N17 L6_N6 L6_N7</parents>
            <probabilities>0.517159 0.482841 0.147381 0.852619 0.283751 0.716249 0.551513 0.448487 0.377676 0.622324 0.288565 0.711435 0.726391 0.273609 0.736477 0.263523 0.619007 0.380993 0.515453 0.484547 0.783320 0.216680 0.307588 0.692412 0.855382 0.144618 0.677274 0.322726 0.266879 0.733121 0.155213 0.844787</probabilities>
        </cpt>
        <cpt id="L7_N13">
            <state id="State0"/>
            <state id="State1"/>
            <parents>L6_N13 L6_N18 L6_N0 L6_N4</parents>
            <probabilities>0.774659 0.225341 0.596269 0.403731 0.710220 0.289780 0.386234 0.613766 0.435734 0.564266 0.207515 0.792485 0.558194 0.441806 0.215321 0.784679 0.182547 0.817453 0.314998 0.685002 0.649648 0.350352 0.395138 0.604862 0.327612 0.672388 0.472651 0.527349 0.652602 0.347398 0.664371 0.335629</probabilities>
        </cpt>
        <cpt id="L7_N14">
            <state id="State0"/>
            <state id="State1"/>
            <parents>L6_N13 L6_N12 L6_N1 L6_N19</parents>
            <probabilities>0.197425 0.802575 0.536580 0.463420 0.883114 0.116886 0.225106 0.774894 0.788374 0.211626 0.865941 0.134059 0.154300 0.845700 0.683297 0.316703 0.166927 0.833073 0.871673 0.128327 0.887131 0.112869 0.498196 0.501804 0.704046 0.295954 0.623171 0.376829 0.541145 0.458855 0.824100 0.175900</probabilities>
        </cpt>
        <cpt id="L7_N15">
            <state id="State0"/>
            <state id="State1"/>
            <parents>L6_N2</parents>
            <probabilities>0.205331 0.794669 0.711999 0.288001</probabilities>
        </cpt>
        <cpt id="L7_N16">
            <state id="State0"/>
            <state id="State1"/>
            <parents>L6_N6</parents>
            <probabilities>0.871877 0.128123 0.818484 0.181516</probabilities>
        </cpt>
        <cpt id="L7_N17">
            <state id="State0"/>
            <state id="State1"/>
            <parents>L6_N6 L6_N15 L6_N4</parents>
            <probabilities>0.739521 0.260479 0.157888 0.842112 0.750306 0.249694 0.631649 0.368351 0.398314 0.601686 0.519625 0.480375 0.807346 0.192654 0.441085 0.558915</probabilities>
        </cpt>
        <cpt id="L7_N18">
            <state id="State0"/>
            <state id="State1"/>
            <parents>L6_N5</parents>
            <probabilities>0.715129 0.284871 0.748717 0.251283</probabilities>
        </cpt>
        <cpt id="L7_N19">
            <state id="State0"/>
            <state id="State1"/>
            <parents>L6_N7 L6_N6 L6_N5</parents>
            <probabilities>0.330650 0.669350 0.842004 0.157996 0.481163 0.518837 0.212267 0.787733 0.419382 0.580618 0.461147 0.538853 0.876300 0.123700 0.886732 0.113268</probabilities>
        </cpt>
        <cpt id="L8_N0">
            <state id="State0"/>
            <state id="State1"/>
            <parents>L7_N3 L7_N17</parents>
            <probabilities>0.805539 0.194461 0.452098 0.547902 0.831576 0.168424 0.857357 0.142643</probabilities>
        </cpt>
        <cpt id="L8_N1">
            <state id="State0"/>
            <state id="State1"/>
            <parents>L7_N3 L7_N10 L7_N19 L7_N8</parents>
            <probabilities>0.426863 0.573137 0.843983 0.156017 0.132818 0.867182 0.597864 0.402136 0.212353 0.787647 0.824162 0.175838 0.587053 0.412947 0.346323 0.653677 0.225919 0.774081 0.669298 0.330702 0.425557 0.574443 0.295349 0.704651 0.529291 0.470709 0.111742 0.888258 0.565139 0.434861 0.140440 0.859560</probabilities>
        </cpt>
        <cpt id="L8_N2">
            <state id="State0"/>
            <state id="State1"/>
            <parents>L7_N3 L7_N10 L7_N18</parents>
            <probabilities>0.628036 0.371964 0.191164 0.808836 0.417586 0.582414 0.746699 0.253301 0.207388 0.792612 0.402464 0.597536 0.352915 0.647085 0.465798 0.534202</probabilities>
        </cpt>
        <cpt id="L8_N3">
            <state id="State0"/>
            <state id="State1"/>
            <parents>L7_N3</parents>
            <probabilities>0.711124 0.288876 0.486800 0.513200</probabilities>
        </cpt>
        <cpt id="L8_N4">
            <state id="State0"/>
            <state id="State1"/>
            <parents>L7_N3 L7_N2 L7_N4</parents>
            <probabilities>0.651801 0.348199 0.676870 0.323130 0.209720 0.790280 0.475996 0.524004 0.335140 0.664860 0.544792 0.455208 0.489054 0.510946 0.261242 0.738758</probabilities>
        </cpt>
        <cpt id="L8_N5">
            <state id="State0"/>
            <state id="State1"/>
            <parents>L7_N6 L7_N17 L7_N0</parents>
            <probabilities>0.304179 0.695821 0.253080 0.746920 0.363789 0.636211 0.396159 0.603841 0.804133 0.195867 0.874133 0.125867 0.762279 0.237721 0.123026 0.876974</probabilities>
        </cpt>
        <cpt id="L8_N6">
            <state id="State0"/>
            <state id="State1"/>
            <parents>L7_N18 L7_N9</parents>
            <probabilities>0.555743 0.444257 0.696895 0.303105 0.630348 0.369652 0.855876 0.144124</probabilities>
        </cpt>
        <cpt id="L8_N7">
            <state id="State0"/>
            <state id="State1"/>
            <parents>L7_N14 L7_N13 L7_N11</parents>
            <probabilities>0.192232 0.807768 0.803117 0.196883 0.696252 0.303748 0.247390 0.752610 0.589671 0.410329 0.278616 0.721384 0.189012 0.810988 0.644196 0.355804</probabilities>
        </cpt>
        <cpt id="L8_N8">
            <state id="State0"/>
            <state id="State1"/>
            <parents>L7_N11 L7_N15</parents>
            <probabilities>0.773461 0.226539 0.851722 0.148278 0.558332 0.441668 0.899603 0.100397</probabilities>
        </cpt>
        <cpt id="L8_N9">
            <state id="State0"/>
            <state id="State1"/>
            <parents>L7_N7 L7_N0 L7_N4</parents>
            <probabilities>0.605020 0.394980 0.743057 0.256943 0.312424 0.687576 0.166010 0.833990 0.646660 0.353340 0.256697 0.743303 0.562946 0.437054 0.351353 0.648647</probabilities>
        </cpt>
        <cpt id="L8_N10">
            <state id="State0"/>
            <state id="State1"/>
            <parents>L7_N12</parents>
            <probabilities>0.508314 0.491686 0.718463 0.281537</probabilities>
        </cpt>
        <cpt id="L8_N11">
            <state id="State0"/>
            <state id="State1"/>
            <parents>L7_N2 L7_N17 L7_N18 L7_N14</parents>
            <probabilities>0.520278 0.479722 0.556507 0.443493 0.861749 0.138251 0.107885 0.892115 0.223955 0.776045 0.296960 0.703040 0.658460 0.341540 0.185403 0.814597 0.640885 0.359115 0.100345 0.899655 0.790128 0.209872 0.622277 0.377723 0.162755 0.837245 0.690531 0.309469 0.746056 0.253944 0.417225 0.582775</probabilities>
        </cpt>
        <cpt id="L8_N12">
            <state id="State0"/>
            <state id="State1"/>
            <parents>L7_N2</parents>
            <probabilities>0.103718 0.896282 0.320320 0.679680</probabilities>
        </cpt>
        <cpt id="L8_N13">
            <state id="State0"/>
            <state id="State1"/>
            <parents>L7_N6 L7_N11 L7_N12 L7_N19</parents>
            <probabilities>0.744434 0.255566 0.110510 0.889490 0.703181 0.296819 0.506508 0.493492 0.242434 0.757566 0.519447 0.480553 0.231841 0.768159 0.741365 0.258635 0.414626 0.585374 0.832409 0.167591 0.607696 0.392304 0.837908 0.162092 0.456610 0.543390 0.590149 0.409851 0.127027 0.872973 0.802699 0.197301</probabilities>
        </cpt>
        <cpt id="L8_N14">
            <state id="State0"/>
            <state id="State1"/>
            <parents>L7_N16</parents>
            <probabilities>0.119128 0.880872 0.386069 0.613931</probabilities>
        </cpt>
        <cpt id="L8_N15">
            <state id="State0"/>
            <state id="State1"/>
            <parents>L7_N15</parents>
            <probabilities>0.753540 0.246460 0.313042 0.686958</probabilities>
        </cpt>
        <cpt id="L8_N16">
            <state id="State0"/>
            <state id="State1"/>
            <parents>L7_N4 L7_N18</parents>
            <probabilities>0.681382 0.318618 0.398214 0.601786 0.620471 0.379529 0.848075 0.151925</probabilities>
        </cpt>
        <cpt id="L8_N17">
            <state id="State0"/>
            <state id="State1"/>
            <parents>L7_N2 L7_N12</parents>
            <probabilities>0.600740 0.399260 0.320244 0.679756 0.652763 0.347237 0.374282 0.625718</probabilities>
        </cpt>
        <cpt id="L8_N18">
            <state id="State0"/>
            <state id="State1"/>
            <parents>L7_N10</parents>
            <probabilities>0.527151 0.472849 0.823720 0.176280</probabilities>
        </cpt>
        <cpt id="L8_N19">
            <state id="State0"/>
            <state id="State1"/>
            <parents>L7_N18 L7_N4 L7_N13 L7_N6</parents>
            <probabilities>0.522608 0.477392 0.536582 0.463418 0.565878 0.434122 0.466979 0.533021 0.481305 0.518695 0.769633 0.230367 0.855720 0.144280 0.683396 0.316604 0.356311 0.643689 0.468069 0.531931 0.355002 0.644998 0.510368 0.489632 0.571190 0.428810 0.704136 0.295864 0.186671 0.813329 0.726668 0.273332</probabilities>
        </cpt>
        <cpt id="L9_N0">
            <state id="State0"/>
            <state id="State1"/>
            <parents>L8_N1</parents>
            <probabilities>0.610067 0.389933 0.178352 0.821648</probabilities>
        </cpt>
        <cpt id="L9_N1">
            <state id="State0"/>
            <state id="State1"/>
            <parents>L8_N2</parents>
            <probabilities>0.450179 0.549821 0.171876 0.828124</probabilities>
        </cpt>
        <cpt id="L9_N2">
            <state id="State0"/>
            <state id="State1"/>
            <parents>L8_N6 L8_N16</parents>
            <probabilities>0.430610 0.569390 0.641589 0.358411 0.217441 0.782559 0.830632 0.169368</probabilities>
        </cpt>
        <cpt id="L9_N3">
            <state id="State0"/>
            <state id="State1"/>
            <parents>L8_N2 L8_N19</parents>
            <probabilities>0.519414 0.480586 0.210182 0.789818 0.202507 0.797493 0.391223 0.608777</probabilities>
        </cpt>
        <cpt id="L9_N4">
            <state id="State0"/>
            <state id="State1"/>
            <parents>L8_N14 L8_N9</parents>
            <probabilities>0.769462 0.230538 0.169436 0.830564 0.828473 0.171527 0.611030 0.388970</probabilities>
        </cpt>
        <cpt id="L9_N5">
            <state id="State0"/>
            <state id="State1"/>
            <parents>L8_N14</parents>
            <probabilities>0.550420 0.449580 0.381822 0.618178</probabilities>
        </cpt>
        <cpt id="L9_N6">
            <state id="State0"/>
            <state id="State1"/>
            <parents>L8_N5</parents>
            <probabilities>0.486369 0.513631 0.796683 0.203317</probabilities>
        </cpt>
        <cpt id="L9_N7">
            <state id="State0"/>
            <state id="State1"/>
            <parents>L8_N9 L8_N1</parents>
            <probabilities>0.158841 0.841159 0.465370 0.534630 0.592306 0.407694 0.570807 0.429193</probabilities>
        </cpt>
        <cpt id="L9_N8">
            <state id="State0"/>
            <state id="State1"/>
            <parents>L8_N1</parents>
            <probabilities>0.670426 0.329574 0.609480 0.390520</probabilities>
        </cpt>
        <cpt id="L9_N9">
            <state id="State0"/>
            <state id="State1"/>
            <parents>L8_N4 L8_N18 L8_N7</parents>
            <probabilities>0.685807 0.314193 0.580909 0.419091 0.601526 0.398474 0.669605 0.330395 0.515802 0.484198 0.199913 0.800087 0.492735 0.507265 0.552144 0.447856</probabilities>
        </cpt>
        <cpt id="L9_N10">
            <state id="State0"/>
            <state id="State1"/>
            <parents>L8_N1</parents>
            <probabilities>0.870187 0.129813 0.872267 0.127733</probabilities>
        </cpt>
        <cpt id="L9_N11">
            <state id="State0"/>
            <state id="State1"/>
            <parents>L8_N15</parents>
            <probabilities>0.825782 0.174218 0.402382 0.597618</probabilities>
        </cpt>
        <cpt id="L9_N12">
            <state id="State0"/>
            <state id="State1"/>
            <parents>L8_N2 L8_N0 L8_N12</parents>
            <probabilities>0.139785 0.860215 0.567195 0.432805 0.287774 0.712226 0.602108 0.397892 0.455434 0.544566 0.811908 0.188092 0.679168 0.320832 0.433309 0.566691</probabilities>
        </cpt>
        <cpt id="L9_N13">
            <state id="State0"/>
            <state id="State1"/>
            <parents>L8_N6 L8_N3 L8_N12 L8_N19</parents>
            <probabilities>0.250129 0.749871 0.354272 0.645728 0.453073 0.546927 0.653771 0.346229 0.471216 0.528784 0.297470 0.702530 0.573325 0.426675 0.209980 0.790020 0.259822 0.740178 0.580614 0.419386 0.469174 0.530826 0.768847 0.231153 0.495689 0.504311 0.848601 0.151399 0.190667 0.809333 0.471126 0.528874</probabilities>
        </cpt>
        <cpt id="L9_N14">
            <state id="State0"/>
            <state id="State1"/>
            <parents>L8_N3</parents>
            <probabilities>0.409896 0.590104 0.844855 0.155145</probabilities>
        </cpt>
        <cpt id="L9_N15">
            <state id="State0"/>
            <state id="State1"/>
            <parents>L8_N16 L8_N9 L8_N2</parents>
            <probabilities>0.664483 0.335517 0.743600 0.256400 0.477109 0.522891 0.861784 0.138216 0.513508 0.486492 0.615471 0.384529 0.219525 0.780475 0.671134 0.328866</probabilities>
        </cpt>
        <cpt id="L9_N16">
            <state id="State0"/>
            <state id="State1"/>
            <parents>L8_N1 L8_N8</parents>
            <probabilities>0.357743 0.642257 0.704561 0.295439 0.795465 0.204535 0.398592 0.601408</probabilities>
        </cpt>
        <cpt id="L9_N17">
            <state id="State0"/>
            <state id="State1"/>
            <parents>L8_N3 L8_N5 L8_N12 L8_N6</parents>
            <probabilities>0.892872 0.107128 0.524091 0.475909 0.100556 0.899444 0.281954 0.718046 0.158875 0.841125 0.487666 0.512334 0.689454 0.310546 0.899917 0.100083 0.351561 0.648439 0.245579 0.754421 0.492721 0.507279 0.330606 0.669394 0.666157 0.333843 0.651111 0.348889 0.398424 0.601576 0.178703 0.821297</probabilities>
        </cpt>
        <cpt id="L9_N18">
            <state id="State0"/>
            <state id="State1"/>
            <parents>L8_N7 L8_N4 L8_N6</parents>
            <probabilities>0.448303 0.551697 0.642477 0.357523 0.824058 0.175942 0.304412 0.695588 0.588210 0.411790 0.273197 0.726803 0.152660 0.847340 0.847917 0.152083</probabilities>
        </cpt>
        <cpt id="L9_N19">
            <state id="State0"/>
            <state id="State1"/>
            <parents>L8_N6</parents>
            <probabilities>0.895883 0.104117 0.788079 0.211921</probabilities>
        </cpt>
        <cpt id="L10_N0">
            <state id="State0"/>
            <state id="State1"/>
            <parents>L9_N0 L9_N3</parents>
            <probabilities>0.503659 0.496341 0.105027 0.894973 0.692968 0.307032 0.795824 0.204176</probabilities>
        </cpt>
        <cpt id="L10_N1">
            <state id="State0"/>
            <state id="State1"/>
            <parents>L9_N11</parents>
            <probabilities>0.296910 0.703090 0.526575 0.473425</probabilities>
        </cpt>
        <cpt id="L10_N2">
            <state id="State0"/>
            <state id="State1"/>
            <parents>L9_N10 L9_N7 L9_N12</parents>
            <probabilities>0.498991 0.501009 0.462050 0.537950 0.186863 0.813137 0.627445 0.372555 0.680553 0.319447 0.459246 0.540754 0.566290 0.433710 0.863885 0.136115</probabilities>
        </cpt>
        <cpt id="L10_N3">
            <state id="State0"/>
            <state id="State1"/>
            <parents>L9_N15 L9_N19 L9_N3</parents>
            <probabilities>0.171908 0.828092 0.732605 0.267395 0.307345 0.692655 0.768195 0.231805 0.694098 0.305902 0.502916 0.497084 0.205220 0.794780 0.291395 0.708605</probabilities>
        </cpt>
        <cpt id="L10_N4">
            <state id="State0"/>
            <state id="State1"/>
            <parents>L9_N13</parents>
            <probabilities>0.509411 0.490589 0.826071 0.173929</probabilities>
        </cpt>
        <cpt id="L10_N5">
            <state id="State0"/>
            <state id="State1"/>
            <parents>L9_N17 L9_N4 L9_N0 L9_N6</parents>
            <probabilities>0.218107 0.781893 0.219779 0.780221 0.102711 0.897289 0.822260 0.177740 0.856554 0.143446 0.193832 0.806168 0.320509 0.679491 0.581805 0.418195 0.255074 0.744926 0.105697 0.894303 0.613143 0.386857 0.440307 0.559693 0.744084 0.255916 0.629468 0.370532 0.555105 0.444895 0.565200 0.434800</probabilities>
        </cpt>
        <cpt id="L10_N6">
            <state id="State0"/>
            <state id="State1"/>
            <parents>L9_N12 L9_N19</parents>
            <probabilities>0.873887 0.126113 0.648532 0.351468 0.405125 0.594875 0.377850 0.622150</probabilities>
        </cpt>
        <cpt id="L10_N7">
            <state id="State0"/>
            <state id="State1"/>
            <parents>L9_N0 L9_N9</parents>
            <probabilities>0.415772 0.584228 0.418301 0.581699 0.768417 0.231583 0.560412 0.439588</probabilities>
        </cpt>
        <cpt id="L10_N8">
            <state id="State0"/>
            <state id="State1"/>
            <parents>L9_N11 L9_N1 L9_N5</parents>
            <probabilities>0.187532 0.812468 0.464023 0.535977 0.810264 0.189736 0.845759 0.154241 0.291788 0.708212 0.547698 0.452302 0.714918 0.285082 0.340286 0.659714</probabilities>
        </cpt>
        <cpt id="L10_N9">
            <state id="State0"/>
            <state id="State1"/>
            <parents>L9_N6 L9_N14 L9_N0 L9_N18</parents>
            <probabilities>0.328504 0.671496 0.266994 0.733006 0.367527 0.632473 0.674026 0.325974 0.206620 0.793380 0.864830 0.135170 0.556130 0.443870 0.668319 0.331681 0.696253 0.303747 0.348498 0.651502 0.872289 0.127711 0.850090 0.149910 0.872036 0.127964 0.272916 0.727084 0.322045 0.677955 0.137989 0.862011</probabilities>
        </cpt>
        <cpt id="L10_N10">
            <state id="State0"/>
            <state id="State1"/>
            <parents>L9_N17 L9_N1</parents>
            <probabilities>0.243330 0.756670 0.620867 0.379133 0.373253 0.626747 0.460934 0.539066</probabilities>
        </cpt>
        <cpt id="L10_N11">
            <state id="State0"/>
            <state id="State1"/>
            <parents>L9_N5</parents>
            <probabilities>0.517444 0.482556 0.154949 0.845051</probabilities>
        </cpt>
        <cpt id="L10_N12">
            <state id="State0"/>
            <state id="State1"/>
            <parents>L9_N14</parents>
            <probabilities>0.498724 0.501276 0.305788 0.694212</probabilities>
        </cpt>
        <cpt id="L10_N13">
            <state id="State0"/>
            <state id="State1"/>
            <parents>L9_N10</parents>
            <probabilities>0.156008 0.843992 0.845817 0.154183</probabilities>
        </cpt>
        <cpt id="L10_N14">
            <state id="State0"/>
            <state id="State1"/>
            <parents>L9_N17 L9_N2 L9_N4</parents>
            <probabilities>0.856802 0.143198 0.761238 0.238762 0.200398 0.799602 0.435406 0.564594 0.886908 0.113092 0.426721 0.573279 0.352674 0.647326 0.216632 0.783368</probabilities>
        </cpt>
        <cpt id="L10_N15">
            <state id="State0"/>
            <state id="State1"/>
            <parents>L9_N13</parents>
            <probabilities>0.624534 0.375466 0.778028 0.221972</probabilities>
        </cpt>
        <cpt id="L10_N16">
            <state id="State0"/>
            <state id="State1"/>
            <parents>L9_N17</parents>
            <probabilities>0.410005 0.589995 0.594744 0.405256</probabilities>
        </cpt>
        <cpt id="L10_N17">
            <state id="State0"/>
            <state id="State1"/>
            <parents>L9_N12</parents>
            <probabilities>0.297695 0.702305 0.277593 0.722407</probabilities>
        </cpt>
        <cpt id="L10_N18">
            <state id="State0"/>
            <state id="State1"/>
            <parents>L9_N1 L9_N15</parents>
            <probabilities>0.129677 0.870323 0.217242 0.782758 0.125886 0.874114 0.473480 0.526520</probabilities>
        </cpt>
        <cpt id="L10_N19">
            <state id="State0"/>
            <state id="State1"/>
            <parents>L9_N3</parents>
            <probabilities>0.605799 0.394201 0.805759 0.194241</probabilities>
        </cpt>
        <cpt id="L11_N0">
            <state id="State0"/>
            <state id="State1"/>
            <parents>L10_N14 L10_N7</parents>
            <probabilities>0.313975 0.686025 0.837838 0.162162 0.276410 0.723590 0.545669 0.454331</probabilities>
        </cpt>
        <cpt id="L11_N1">
            <state id="State0"/>
            <state id="State1"/>
            <parents>L10_N15 L10_N7 L10_N14</parents>
            <probabilities>0.868473 0.131527 0.386192 0.613808 0.727963 0.272037 0.794903 0.205097 0.535953 0.464047 0.248933 0.751067 0.322694 0.677306 0.366272 0.633728</probabilities>
        </cpt>
        <cpt id="L11_N2">
            <state id="State0"/>
            <state id="State1"/>
            <parents>L10_N10 L10_N2 L10_N0</parents>
            <probabilities>0.372142 0.627858 0.675748 0.324252 0.601899 0.398101 0.561062 0.438938 0.813086 0.186914 0.247478 0.752522 0.392536 0.607464 0.220830 0.779170</probabilities>
        </cpt>
        <cpt id="L11_N3">
            <state id="State0"/>
            <state id="State1"/>
            <parents>L10_N13</parents>
            <probabilities>0.525630 0.474370 0.251268 0.748732</probabilities>
        </cpt>
        <cpt id="L11_N4">
            <state id="State0"/>
            <state id="State1"/>
            <parents>L10_N2</parents>
            <probabilities>0.895778 0.104222 0.709351 0.290649</probabilities>
        </cpt>
        <cpt id="L11_N5">
            <state id="State0"/>
            <state id="State1"/>
            <parents>L10_N18 L10_N8 L10_N11 L10_N10</parents>
            <probabilities>0.270544 0.729456 0.310252 0.689748 0.624854 0.375146 0.233479 0.766521 0.497821 0.502179 0.487578 0.512422 0.162693 0.837307 0.402393 0.597607 0.546751 0.453249 0.309244 0.690756 0.840630 0.159370 0.352297 0.647703 0.526223 0.473777 0.869275 0.130725 0.861823 0.138177 0.120273 0.879727</probabilities>
        </cpt>
        <cpt id="L11_N6">
            <state id="State0"/>
            <state id="State1"/>
            <parents>L10_N9 L10_N4 L10_N6</parents>
            <probabilities>0.218990 0.781010 0.296304 0.703696 0.700651 0.299349 0.620496 0.379504 0.399839 0.600161 0.116770 0.883230 0.299650 0.700350 0.276537 0.723463</probabilities>
        </cpt>
        <cpt id="L11_N7">
            <state id="State0"/>
            <state id="State1"/>
            <parents>L10_N2 L10_N9</parents>
            <probabilities>0.593309 0.406691 0.844067 0.155933 0.796670 0.203330 0.774113 0.225887</probabilities>
        </cpt>
        <cpt id="L11_N8">
            <state id="State0"/>
            <state id="State1"/>
            <parents>L10_N10</parents>
            <probabilities>0.332688 0.667312 0.546415 0.453585</probabilities>
        </cpt>
        <cpt id="L11_N9">
            <state id="State0"/>
            <state id="State1"/>
            <parents>L10_N5 L10_N3</parents>
            <probabilities>0.594569 0.405431 0.214761 0.785239 0.876642 0.123358 0.268141 0.731859</probabilities>
        </cpt>
        <cpt id="L11_N10">
            <state id="State0"/>
            <state id="State1"/>
            <parents>L10_N10</parents>
            <probabilities>0.725241 0.274759 0.250483 0.749517</probabilities>
        </cpt>
        <cpt id="L11_N11">
            <state id="State0"/>
            <state id="State1"/>
            <parents>L10_N16 L10_N3 L10_N10 L10_N15</parents>
            <probabilities>0.440768 0.559232 0.123620 0.876380 0.493930 0.506070 0.228595 0.771405 0.826620 0.173380 0.885547 0.114453 0.213538 0.786462 0.235474 0.764526 0.111747 0.888253 0.434893 0.565107 0.386076 0.613924 0.567620 0.432380 0.106899 0.893101 0.638746 0.361254 0.704667 0.295333 0.382587 0.617413</probabilities>
        </cpt>
        <cpt id="L11_N12">
            <state id="State0"/>
            <state id="State1"/>
            <parents>L10_N5</parents>
            <probabilities>0.775700 0.224300 0.660680 0.339320</probabilities>
        </cpt>
        <cpt id="L11_N13">
            <state id="State0"/>
            <state id="State1"/>
            <parents>L10_N14</parents>
            <probabilities>0.165187 0.834813 0.251776 0.748224</probabilities>
        </cpt>
        <cpt id="L11_N14">
            <state id="State0"/>
            <state id="State1"/>
            <parents>L10_N2 L10_N5 L10_N16 L10_N14</parents>
            <probabilities>0.759576 0.240424 0.246786 0.753214 0.410216 0.589784 0.199420 0.800580 0.772245 0.227755 0.703593 0.296407 0.180965 0.819035 0.351563 0.648437 0.270967 0.729033 0.249989 0.750011 0.561852 0.438148 0.229861 0.770139 0.858976 0.141024 0.371731 0.628269 0.385351 0.614649 0.525716 0.474284</probabilities>
        </cpt>
        <cpt id="L11_N15">
            <state id="State0"/>
            <state id="State1"/>
            <parents>L10_N15 L10_N17 L10_N8 L10_N12</parents>
            <probabilities>0.833795 0.166205 0.427641 0.572359 0.800053 0.199947 0.604460 0.395540 0.170348 0.829652 0.154886 0.845114 0.274367 0.725633 0.444188 0.555812 0.672148 0.327852 0.435887 0.564113 0.563172 0.436828 0.416488 0.583512 0.298887 0.701113 0.889151 0.110849 0.677513 0.322487 0.720044 0.279956</probabilities>
        </cpt>
        <cpt id="L11_N16">
            <state id="State0"/>
            <state id="State1"/>
            <parents>L10_N3 L10_N16 L10_N11 L10_N8</parents>
            <probabilities>0.379695 0.620305 0.622114 0.377886 0.549039 0.450961 0.623545 0.376455 0.165142 0.834858 0.704330 0.295670 0.248265 0.751735 0.854304 0.145696 0.424608 0.575392 0.438527 0.561473 0.753649 0.246351 0.720264 0.279736 0.723462 0.276538 0.600525 0.399475 0.321371 0.678629 0.554505 0.445495</probabilities>
        </cpt>
        <cpt id="L11_N17">
            <state id="State0"/>
            <state id="State1"/>
            <parents>L10_N6</parents>
            <probabilities>0.504709 0.495291 0.465895 0.534105</probabilities>
        </cpt>
        <cpt id="L11_N18">
            <state id="State0"/>
            <state id="State1"/>
            <parents>L10_N7</parents>
            <probabilities>0.886842 0.113158 0.508692 0.491308</probabilities>
        </cpt>
        <cpt id="L11_N19">
            <state id="State0"/>
            <state id="State1"/>
            <parents>L10_N2 L10_N16 L10_N8 L10_N3</parents>
            <probabilities>0.507047 0.492953 0.702157 0.297843 0.198863 0.801137 0.457053 0.542947 0.745234 0.254766 0.116326 0.883674 0.679002 0.320998 0.780002 0.219998 0.727065 0.272935 0.430888 0.569112 0.209524 0.790476 0.285813 0.714187 0.353596 0.646404 0.716599 0.283401 0.883565 0.116435 0.146380 0.853620</probabilities>
        </cpt>
        <cpt id="L12_N0">
            <state id="State0"/>
            <state id="State1"/>
            <parents>L11_N12 L11_N0</parents>
            <probabilities>0.279383 0.720617 0.539034 0.460966 0.336849 0.663151 0.340459 0.659541</probabilities>
        </cpt>
        <cpt id="L12_N1">
            <state id="State0"/>
            <state id="State1"/>
            <parents>L11_N0 L11_N11 L11_N16 L11_N17</parents>
            <probabilities>0.296604 0.703396 0.272874 0.727126 0.127659 0.872341 0.625534 0.374466 0.311121 0.688879 0.891062 0.108938 0.506372 0.493628 0.425346 0.574654 0.167457 0.832543 0.615395 0.384605 0.656940 0.343060 0.304710 0.695290 0.600799 0.399201 0.382937 0.617063 0.349236 0.650764 0.379951 0.620049</probabilities>
        </cpt>
        <cpt id="L12_N2">
            <state id="State0"/>
            <state id="State1"/>
            <parents>L11_N16 L11_N9 L11_N2</parents>
            <probabilities>0.528847 0.471153 0.882482 0.117518 0.282499 0.717501 0.756010 0.243990 0.224084 0.775916 0.509621 0.490379 0.741556 0.258444 0.762511 0.237489</probabilities>
        </cpt>
        <cpt id="L12_N3">
            <state id="State0"/>
            <state id="State1"/>
            <parents>L11_N12 L11_N16 L11_N6</parents>
            <probabilities>0.143884 0.856116 0.448758 0.551242 0.274173 0.725827 0.343993 0.656007 0.544342 0.455658 0.555756 0.444244 0.873198 0.126802 0.731625 0.268375</probabilities>
        </cpt>
        <cpt id="L12_N4">
            <state id="State0"/>
            <state id="State1"/>
            <parents>L11_N14 L11_N11 L11_N1</parents>
            <probabilities>0.541560 0.458440 0.829172 0.170828 0.576798 0.423202 0.596690 0.403310 0.553228 0.446772 0.781403 0.218597 0.399844 0.600156 0.520580 0.479420</probabilities>
        </cpt>
        <cpt id="L12_N5">
            <state id="State0"/>
            <state id="State1"/>
            <parents>L11_N8</parents>
            <probabilities>0.643233 0.356767 0.394254 0.605746</probabilities>
        </cpt>
        <cpt id="L12_N6">
            <state id="State0"/>
            <state id="State1"/>
            <parents>L11_N2</parents>
            <probabilities>0.636604 0.363396 0.195952 0.804048</probabilities>
        </cpt>
        <cpt id="L12_N7">
            <state id="State0"/>
            <state id="State1"/>
            <parents>L11_N9 L11_N8 L11_N6 L11_N10</parents>
            <probabilities>0.519723 0.480277 0.502244 0.497756 0.864795 0.135205 0.742125 0.257875 0.215510 0.784490 0.760014 0.239986 0.393655 0.606345 0.364943 0.635057 0.400828 0.599172 0.218447 0.781553 0.496385 0.503615 0.476412 0.523588 0.700886 0.299114 0.724173 0.275827 0.851124 0.148876 0.202692 0.797308</probabilities>
        </cpt>
        <cpt id="L12_N8">
            <state id="State0"/>
            <state id="State1"/>
            <parents>L11_N7 L11_N12 L11_N13 L11_N3</parents>
            <probabilities>0.185766 0.814234 0.270349 0.729651 0.892625 0.107375 0.501369 0.498631 0.260219 0.739781 0.159651 0.840349 0.706970 0.293030 0.266209 0.733791 0.363738 0.636262 0.885590 0.114410 0.561371 0.438629 0.613516 0.386484 0.808863 0.191137 0.519115 0.480885 0.379963 0.620037 0.113188 0.886812</probabilities>
        </cpt>
        <cpt id="L12_N9">
            <state id="State0"/>
            <state id="State1"/>
            <parents>L11_N16 L11_N19 L11_N13 L11_N17</parents>
            <probabilities>0.379112 0.620888 0.529208 0.470792 0.317131 0.682869 0.294396 0.705604 0.731564 0.268436 0.282675 0.717325 0.249451 0.750549 0.335800 0.664200 0.846816 0.153184 0.400132 0.599868 0.646730 0.353270 0.436384 0.563616 0.659478 0.340522 0.819670 0.180330 0.440558 0.559442 0.238756 0.761244</probabilities>
        </cpt>
        <cpt id="L12_N10">
            <state id="State0"/>
            <state id="State1"/>
            <parents>L11_N5 L11_N8 L11_N2 L11_N16</parents>
            <probabilities>0.731935 0.268065 0.571459 0.428541 0.431238 0.568762 0.195539 0.804461 0.127837 0.872163 0.494616 0.505384 0.645052 0.354948 0.682650 0.317350 0.304297 0.695703 0.576346 0.423654 0.771587 0.228413 0.574661 0.425339 0.383370 0.616630 0.180194 0.819806 0.611577 0.388423 0.807237 0.192763</probabilities>
        </cpt>
        <cpt id="L12_N11">
            <state id="State0"/>
            <state id="State1"/>
            <parents>L11_N17 L11_N10</parents>
            <probabilities>0.752685 0.247315 0.394632 0.605368 0.132308 0.867692 0.148727 0.851273</probabilities>
        </cpt>
        <cpt id="L12_N12">
            <state id="State0"/>
            <state id="State1"/>
            <parents>L11_N2 L11_N1</parents>
            <probabilities>0.144524 0.855476 0.715282 0.284718 0.841903 0.158097 0.798711 0.201289</probabilities>
        </cpt>
        <cpt id="L12_N13">
            <state id="State0"/>
            <state id="State1"/>
            <parents>L11_N4 L11_N19</parents>
            <probabilities>0.202306 0.797694 0.225200 0.774800 0.663928 0.336072 0.538860 0.461140</probabilities>
        </cpt>
        <cpt id="L12_N14">
            <state id="State0"/>
            <state id="State1"/>
            <parents>L11_N14 L11_N4 L11_N1 L11_N17</parents>
            <probabilities>0.817102 0.182898 0.414666 0.585334 0.569669 0.430331 0.228860 0.771140 0.455986 0.544014 0.764750 0.235250 0.260612 0.739388 0.730230 0.269770 0.352668 0.647332 0.411541 0.588459 0.763682 0.236318 0.340158 0.659842 0.108049 0.891951 0.731214 0.268786 0.289087 0.710913 0.326256 0.673744</probabilities>
        </cpt>
        <cpt id="L12_N15">
            <state id="State0"/>
            <state id="State1"/>
            <parents>L11_N0</parents>
            <probabilities>0.530648 0.469352 0.711135 0.288865</probabilities>
        </cpt>
        <cpt id="L12_N16">
            <state id="State0"/>
            <state id="State1"/>
            <parents>L11_N18 L11_N11</parents>
            <probabilities>0.495158 0.504842 0.431267 0.568733 0.871655 0.128345 0.838780 0.161220</probabilities>
        </cpt>
        <cpt id="L12_N17">
            <state id="State0"/>
            <state id="State1"/>
            <parents>L11_N3 L11_N13 L11_N15</parents>
            <probabilities>0.632366 0.367634 0.281201 0.718799 0.668914 0.331086 0.487410 0.512590 0.598785 0.401215 0.652551 0.347449 0.889586 0.110414 0.208722 0.791278</probabilities>
        </cpt>
        <cpt id="L12_N18">
            <state id="State0"/>
            <state id="State1"/>
            <parents>L11_N3 L11_N16 L11_N17 L11_N4</parents>
            <probabilities>0.567435 0.432565 0.789200 0.210800 0.215688 0.784312 0.643761 0.356239 0.764496 0.235504 0.284886 0.715114 0.228364 0.771636 0.813386 0.186614 0.266074 0.733926 0.716661 0.283339 0.544739 0.455261 0.586477 0.413523 0.190536 0.809464 0.791327 0.208673 0.456026 0.543974 0.436089 0.563911</probabilities>
        </cpt>
        <cpt id="L12_N19">
            <state id="State0"/>
            <state id="State1"/>
            <parents>L11_N10 L11_N17 L11_N12 L11_N2</parents>
            <probabilities>0.442407 0.557593 0.159086 0.840914 0.793834 0.206166 0.653978 0.346022 0.228938 0.771062 0.575573 0.424427 0.204448 0.795552 0.210867 0.789133 0.708684 0.291316 0.582342 0.417658 0.872282 0.127718 0.276009 0.723991 0.548541 0.451459 0.523285 0.476715 0.889819 0.110181 0.190695 0.809305</probabilities>
        </cpt>
        <cpt id="L13_N0">
            <state id="State0"/>
            <state id="State1"/>
            <parents>L12_N8 L12_N17 L12_N19 L12_N2</parents>
            <probabilities>0.491543 0.508457 0.268886 0.731114 0.769132 0.230868 0.160800 0.839200 0.396539 0.603461 0.350648 0.649352 0.434662 0.565338 0.707480 0.292520 0.667473 0.332527 0.848769 0.151231 0.357657 0.642343 0.513595 0.486405 0.551704 0.448296 0.622401 0.377599 0.728219 0.271781 0.504838 0.495162</probabilities>
        </cpt>
        <cpt id="L13_N1">
            <state id="State0"/>
            <state id="State1"/>
            <parents>L12_N10 L12_N5 L12_N7</parents>
            <probabilities>0.626095 0.373905 0.161184 0.838816 0.729413 0.270587 0.188796 0.811204 0.536110 0.463890 0.665752 0.334248 0.245048 0.754952 0.507181 0.492819</probabilities>
        </cpt>
        <cpt id="L13_N2">
            <state id="State0"/>
            <state id="State1"/>
            <parents>L12_N19 L12_N11 L12_N18 L12_N1</parents>
            <probabilities>0.656983 0.343017 0.785434 0.214566 0.826018 0.173982 0.371671 0.628329 0.769587 0.230413 0.737980 0.262020 0.608946 0.391054 0.290138 0.709862 0.183971 0.816029 0.216779 0.783221 0.372681 0.627319 0.548559 0.451441 0.747141 0.252859 0.409917 0.590083 0.875816 0.124184 0.639139 0.360861</probabilities>
        </cpt>
        <cpt id="L13_N3">
            <state id="State0"/>
            <state id="State1"/>
            <parents>L12_N11</parents>
            <probabilities>0.875144 0.124856 0.341859 0.658141</probabilities>
        </cpt>
        <cpt id="L13_N4">
            <state id="State0"/>
            <state id="State1"/>
            <parents>L12_N10 L12_N8</parents>
            <probabilities>0.133219 0.866781 0.782736 0.217264 0.264230 0.735770 0.116443 0.883557</probabilities>
        </cpt>
        <cpt id="L13_N5">
            <state id="State0"/>
            <state id="State1"/>
            <parents>L12_N5</parents>
            <probabilities>0.248229 0.751771 0.840176 0.159824</probabilities>
        </cpt>
        <cpt id="L13_N6">
            <state id="State0"/>
            <state id="State1"/>
            <parents>L12_N19 L12_N0</parents>
            <probabilities>0.155391 0.844609 0.413586 0.586414 0.674053 0.325947 0.213272 0.786728</probabilities>
        </cpt>
        <cpt id="L13_N7">
            <state id="State0"/>
            <state id="State1"/>
            <parents>L12_N9 L12_N3 L12_N18</parents>
            <probabilities>0.341184 0.658816 0.777593 0.222407 0.858433 0.141567 0.337374 0.662626 0.155482 0.844518 0.711778 0.288222 0.126721 0.873279 0.341924 0.658076</probabilities>
        </cpt>
        <cpt id="L13_N8">
            <state id="State0"/>
            <state id="State1"/>
            <parents>L12_N18 L12_N2 L12_N3</parents>
            <probabilities>0.454577 0.545423 0.112222 0.887778 0.776987 0.223013 0.322636 0.677364 0.267074 0.732926 0.769973 0.230027 0.488751 0.511249 0.381008 0.618992</probabilities>
        </cpt>
        <cpt id="L13_N9">
            <state id="State0"/>
            <state id="State1"/>
            <parents>L12_N14</parents>
            <probabilities>0.737638 0.262362 0.567161 0.432839</probabilities>
        </cpt>
        <cpt id="L13_N10">
            <state id="State0"/>
            <state id="State1"/>
            <parents>L12_N18 L12_N4</parents>
            <probabilities>0.877605 0.122395 0.623045 0.376955 0.351705 0.648295 0.823879 0.176121</probabilities>
        </cpt>
        <cpt id="L13_N11">
            <state id="State0"/>
            <state id="State1"/>
            <parents>L12_N2 L12_N15 L12_N4 L12_N10</parents>
            <probabilities>0.469418 0.530582 0.220624 0.779376 0.674066 0.325934 0.384203 0.615797 0.610799 0.389201 0.526882 0.473118 0.546294 0.453706 0.386462 0.613538 0.583061 0.416939 0.111894 0.888106 0.655462 0.344538 0.629596 0.370404 0.510720 0.489280 0.517042 0.482958 0.633863 0.366137 0.318920 0.681080</probabilities>
        </cpt>
        <cpt id="L13_N12">
            <state id="State0"/>
            <state id="State1"/>
            <parents>L12_N2 L12_N19 L12_N11 L12_N18</parents>
            <probabilities>0.643696 0.356304 0.594626 0.405374 0.521491 0.478509 0.113909 0.886091 0.230538 0.769462 0.333615 0.666385 0.819048 0.180952 0.115650 0.884350 0.392229 0.607771 0.123160 0.876840 0.803234 0.196766 0.800219 0.199781 0.665380 0.334620 0.414142 0.585858 0.121764 0.878236 0.665749 0.334251</probabilities>
        </cpt>
        <cpt id="L13_N13">
            <state id="State0"/>
            <state id="State1"/>
            <parents>L12_N12</parents>
            <probabilities>0.558192 0.441808 0.600790 0.399210</probabilities>
        </cpt>
        <cpt id="L13_N14">
            <state id="State0"/>
            <state id="State1"/>
            <parents>L12_N3 L12_N8 L12_N15</parents>
            <probabilities>0.809578 0.190422 0.893991 0.106009 0.109561 0.890439 0.274829 0.725171 0.763453 0.236547 0.245891 0.754109 0.165337 0.834663 0.538044 0.461956</probabilities>
        </cpt>
        <cpt id="L13_N15">
            <state id="State0"/>
            <state id="State1"/>
            <parents>L12_N18 L12_N4</parents>
            <probabilities>0.386307 0.613693 0.747929 0.252071 0.845706 0.154294 0.510078 0.489922</probabilities>
        </cpt>
        <cpt id="L13_N16">
            <state id="State0"/>
            <state id="State1"/>
            <parents>L12_N17 L12_N6 L12_N10 L12_N15</parents>
            <probabilities>0.215632 0.784368 0.388619 0.611381 0.626750 0.373250 0.777720 0.222280 0.709764 0.290236 0.429354 0.570646 0.542120 0.457880 0.330150 0.669850 0.500779 0.499221 0.208508 0.791492 0.364622 0.635378 0.374218 0.625782 0.753070 0.246930 0.832128 0.167872 0.225933 0.774067 0.222797 0.777203</probabilities>
        </cpt>
        <cpt id="L13_N17">
            <state id="State0"/>
            <state id="State1"/>
            <parents>L12_N12</parents>
            <probabilities>0.458471 0.541529 0.430533 0.569467</probabilities>
        </cpt>
        <cpt id="L13_N18">
            <state id="State0"/>
            <state id="State1"/>
            <parents>L12_N7</parents>
            <probabilities>0.234408 0.765592 0.189890 0.810110</probabilities>
        </cpt>
        <cpt id="L13_N19">
            <state id="State0"/>
            <state id="State1"/>
            <parents>L12_N14 L12_N8</parents>
            <probabilities>0.150154 0.849846 0.828728 0.171272 0.191954 0.808046 0.726522 0.273478</probabilities>
        </cpt>
        <cpt id="L14_N0">
            <state id="State0"/>
            <state id="State1"/>
            <parents>L13_N0 L13_N7 L13_N6 L13_N9</parents>
            <probabilities>0.832037 0.167963 0.234844 0.765156 0.498945 0.501055 0.307968 0.692032 0.351984 0.648016 0.796975 0.203025 0.193826 0.806174 0.324740 0.675260 0.309152 0.690848 0.680180 0.319820 0.654685 0.345315 0.621776 0.378224 0.137568 0.862432 0.702873 0.297127 0.726019 0.273981 0.503413 0.496587</probabilities>
        </cpt>
        <cpt id="L14_N1">
            <state id="State0"/>
            <state id="State1"/>
            <parents>L13_N15 L13_N16 L13_N1</parents>
            <probabilities>0.482072 0.517928 0.726990 0.273010 0.433319 0.566681 0.434008 0.565992 0.899459 0.100541 0.643285 0.356715 0.291049 0.708951 0.778574 0.221426</probabilities>
        </cpt>
        <cpt id="L14_N2">
            <state id="State0"/>
            <state id="State1"/>
            <parents>L13_N13 L13_N7</parents>
            <probabilities>0.256086 0.743914 0.303478 0.696522 0.127812 0.872188 0.799223 0.200777</probabilities>
        </cpt>
        <cpt id="L14_N3">
            <state id="State0"/>
            <state id="State1"/>
            <parents>L13_N17 L13_N7 L13_N15</parents>
            <probabilities>0.862673 0.137327 0.195320 0.804680 0.648227 0.351773 0.846461 0.153539 0.385391 0.614609 0.168825 0.831175 0.742028 0.257972 0.334161 0.665839</probabilities>
        </cpt>
        <cpt id="L14_N4">
            <state id="State0"/>
            <state id="State1"/>
            <parents>L13_N15 L13_N2 L13_N8</parents>
            <probabilities>0.320470 0.679530 0.800497 0.199503 0.755228 0.244772 0.251273 0.748727 0.419986 0.580014 0.581945 0.418055 0.301626 0.698374 0.501342 0.498658</probabilities>
        </cpt>
        <cpt id="L14_N5">
            <state id="State0"/>
            <state id="State1"/>
            <parents>L13_N5 L13_N17 L13_N18</parents>
            <probabilities>0.778559 0.221441 0.835756 0.164244 0.354408 0.645592 0.740159 0.259841 0.571827 0.428173 0.794833 0.205167 0.104461 0.895539 0.279266 0.720734</probabilities>
        </cpt>
        <cpt id="L14_N6">
            <state id="State0"/>
            <state id="State1"/>
            <parents>L13_N4 L13_N18</parents>
            <probabilities>0.109668 0.890332 0.787456 0.212544 0.118389 0.881611 0.256400 0.743600</probabilities>
        </cpt>
        <cpt id="L14_N7">
            <state id="State0"/>
            <state id="State1"/>
            <parents>L13_N7 L13_N0 L13_N1</parents>
            <probabilities>0.538797 0.461203 0.844571 0.155429 0.450994 0.549006 0.870329 0.129671 0.492544 0.507456 0.784904 0.215096 0.814706 0.185294 0.249429 0.750571</probabilities>
        </cpt>
        <cpt id="L14_N8">
            <state id="State0"/>
            <state id="State1"/>
            <parents>L13_N9 L13_N15 L13_N16</parents>
            <probabilities>0.416590 0.583410 0.201907 0.798093 0.255396 0.744604 0.411590 0.588410 0.511432 0.488568 0.318576 0.681424 0.583298 0.416702 0.853678 0.146322</probabilities>
        </cpt>
        <cpt id="L14_N9">
            <state id="State0"/>
            <state id="State1"/>
            <parents>L13_N0 L13_N2</parents>
            <probabilities>0.757260 0.242740 0.805582 0.194418 0.312757 0.687243 0.508445 0.491555</probabilities>
        </cpt>
        <cpt id="L14_N10">
            <state id="State0"/>
            <state id="State1"/>
            <parents>L13_N17 L13_N15</parents>
            <probabilities>0.128467 0.871533 0.796216 0.203784 0.415067 0.584933 0.233459 0.766541</probabilities>
        </cpt>
        <cpt id="L14_N11">
            <state id="State0"/>
            <state id="State1"/>
            <parents>L13_N18 L13_N14</parents>
            <probabilities>0.896777 0.103223 0.866595 0.133405 0.673102 0.326898 0.405614 0.594386</probabilities>
        </cpt>
        <cpt id="L14_N12">
            <state id="State0"/>
            <state id="State1"/>
            <parents>L13_N5 L13_N9</parents>
            <probabilities>0.415430 0.584570 0.258191 0.741809 0.156264 0.843736 0.627112 0.372888</probabilities>
        </cpt>
        <cpt id="L14_N13">
            <state id="State0"/>
            <state id="State1"/>
            <parents>L13_N9 L13_N11 L13_N7 L13_N5</parents>
            <probabilities>0.372513 0.627487 0.787715 0.212285 0.360179 0.639821 0.416601 0.583399 0.236725 0.763275 0.702559 0.297441 0.184093 0.815907 0.641375 0.358625 0.831233 0.168767 0.810182 0.189818 0.636488 0.363512 0.548637 0.451363 0.337585 0.662415 0.339209 0.660791 0.423601 0.576399 0.650956 0.349044</probabilities>
        </cpt>
        <cpt id="L14_N14">
            <state id="State0"/>
            <state id="State1"/>
            <parents>L13_N9 L13_N4</parents>
            <probabilities>0.202752 0.797248 0.256175 0.743825 0.260564 0.739436 0.479587 0.520413</probabilities>
        </cpt>
        <cpt id="L14_N15">
            <state id="State0"/>
            <state id="State1"/>
            <parents>L13_N16</parents>
            <probabilities>0.150736 0.849264 0.448278 0.551722</probabilities>
        </cpt>
        <cpt id="L14_N16">
            <state id="State0"/>
            <state id="State1"/>
            <parents>L13_N8 L13_N2 L13_N14 L13_N15</parents>
            <probabilities>0.851615 0.148385 0.110453 0.889547 0.327115 0.672885 0.455936 0.544064 0.830956 0.169044 0.666305 0.333695 0.483113 0.516887 0.244843 0.755157 0.355710 0.644290 0.553787 0.446213 0.518913 0.481087 0.730214 0.269786 0.337164 0.662836 0.227170 0.772830 0.892430 0.107570 0.645250 0.354750</probabilities>
        </cpt>
        <cpt id="L14_N17">
            <state id="State0"/>
            <state id="State1"/>
            <parents>L13_N9 L13_N10 L13_N19</parents>
            <probabilities>0.821088 0.178912 0.396540 0.603460 0.440572 0.559428 0.850336 0.149664 0.537148 0.462852 0.382169 0.617831 0.452529 0.547471 0.150052 0.849948</probabilities>
        </cpt>
        <cpt id="L14_N18">
            <state id="State0"/>
            <state id="State1"/>
            <parents>L13_N10</parents>
            <probabilities>0.417137 0.582863 0.286482 0.713518</probabilities>
        </cpt>
        <cpt id="L14_N19">
            <state id="State0"/>
            <state id="State1"/>
            <parents>L13_N10 L13_N1</parents>
            <probabilities>0.414798 0.585202 0.108654 0.891346 0.639553 0.360447 0.511202 0.488798</probabilities>
        </cpt>
        <cpt id="L15_N0">
            <state id="State0"/>
            <state id="State1"/>
            <parents>L14_N9 L14_N5 L14_N7 L14_N4</parents>
            <probabilities>0.855764 0.144236 0.159456 0.840544 0.797869 0.202131 0.495186 0.504814 0.832819 0.167181 0.450700 0.549300 0.831406 0.168594 0.799985 0.200015 0.400550 0.599450 0.208170 0.791830 0.808730 0.191270 0.803541 0.196459 0.259793 0.740207 0.533533 0.466467 0.578540 0.421460 0.262338 0.737662</probabilities>
        </cpt>
        <cpt id="L15_N1">
            <state id="State0"/>
            <state id="State1"/>
            <parents>L14_N15 L14_N1</parents>
            <probabilities>0.421995 0.578005 0.664602 0.335398 0.398239 0.601761 0.714280 0.285720</probabilities>
        </cpt>
        <cpt id="L15_N2">
            <state id="State0"/>
            <state id="State1"/>
            <parents>L14_N8 L14_N13 L14_N9 L14_N18</parents>
            <probabilities>0.196200 0.803800 0.756564 0.243436 0.622332 0.377668 0.464415 0.535585 0.392918 0.607082 0.188406 0.811594 0.240533 0.759467 0.363469 0.636531 0.469022 0.530978 0.828408 0.171592 0.636167 0.363833 0.195445 0.804555 0.817174 0.182826 0.898857 0.101143 0.253749 0.746251 0.540526 0.459474</probabilities>
        </cpt>
        <cpt id="L15_N3">
            <state id="State0"/>
            <state id="State1"/>
            <parents>L14_N14 L14_N19 L14_N3 L14_N8</parents>
            <probabilities>0.677126 0.322874 0.891174 0.108826 0.337091 0.662909 0.766977 0.233023 0.567163 0.432837 0.177315 0.822685 0.274281 0.725719 0.475509 0.524491 0.336556 0.663444 0.664508 0.335492 0.377008 0.622992 0.222888 0.777112 0.611668 0.388332 0.135387 0.864613 0.727051 0.272949 0.503952 0.496048</probabilities>
        </cpt>
        <cpt id="L15_N4">
            <state id="State0"/>
            <state id="State1"/>
            <parents>L14_N15 L14_N9 L14_N19 L14_N3</parents>
            <probabilities>0.185569 0.814431 0.176047 0.823953 0.752299 0.247701 0.483965 0.516035 0.209536 0.790464 0.714037 0.285963 0.396654 0.603346 0.438066 0.561934 0.523710 0.476290 0.544759 0.455241 0.467315 0.532685 0.615151 0.384849 0.818597 0.181403 0.786553 0.213447 0.139845 0.860155 0.259073 0.740927</probabilities>
        </cpt>
        <cpt id="L15_N5">
            <state id="State0"/>
            <state id="State1"/>
            <parents>L14_N4 L14_N1 L14_N0 L14_N3</parents>
            <probabilities>0.386915 0.613085 0.277662 0.722338 0.230730 0.769270 0.603562 0.396438 0.190728 0.809272 0.533456 0.466544 0.116935 0.883065 0.865552 0.134448 0.551660 0.448340 0.753305 0.246695 0.499359 0.500641 0.207783 0.792217 0.232577 0.767423 0.817544 0.182456 0.257874 0.742126 0.729701 0.270299</probabilities>
        </cpt>
        <cpt id="L15_N6">
            <state id="State0"/>
            <state id="State1"/>
            <parents>L14_N9 L14_N7 L14_N16</parents>
            <probabilities>0.187397 0.812603 0.423320 0.576680 0.883354 0.116646 0.754014 0.245986 0.472324 0.527676 0.595330 0.404670 0.427240 0.572760 0.893460 0.106540</probabilities>
        </cpt>
        <cpt id="L15_N7">
            <state id="State0"/>
            <state id="State1"/>
            <parents>L14_N11 L14_N17</parents>
            <probabilities>0.468497 0.531503 0.553788 0.446212 0.264716 0.735284 0.235459 0.764541</probabilities>
        </cpt>
        <cpt id="L15_N8">
            <state id="State0"/>
            <state id="State1"/>
            <parents>L14_N19</parents>
            <probabilities>0.387496 0.612504 0.563044 0.436956</probabilities>
        </cpt>
        <cpt id="L15_N9">
            <state id="State0"/>
            <state id="State1"/>
            <parents>L14_N3 L14_N13 L14_N0 L14_N16</parents>
            <probabilities>0.106966 0.893034 0.319950 0.680050 0.387615 0.612385 0.703489 0.296511 0.603823 0.396177 0.355213 0.644787 0.893962 0.106038 0.422405 0.577595 0.768938 0.231062 0.433263 0.566737 0.168774 0.831226 0.231933 0.768067 0.875334 0.124666 0.617445 0.382555 0.279914 0.720086 0.766331 0.233669</probabilities>
        </cpt>
        <cpt id="L15_N10">
            <state id="State0"/>
            <state id="State1"/>
            <parents>L14_N8 L14_N10</parents>
            <probabilities>0.827044 0.172956 0.826952 0.173048 0.276943 0.723057 0.677749 0.322251</probabilities>
        </cpt>
        <cpt id="L15_N11">
            <state id="State0"/>
