<?xml version="1.0" encoding="ISO-8859-1"?>
<smile version="1.0" id="BenchmarkNetwork" numsamples="10000" discsamples="10000">
    <nodes>
        <cpt id="L0_N0">
            <state id="State0"/>
            <state id="State1"/>
            <probabilities>0.707275 0.292725</probabilities>
        </cpt>
        <cpt id="L0_N1">
            <state id="State0"/>
            <state id="State1"/>
            <probabilities>0.308382 0.691618</probabilities>
        </cpt>
        <cpt id="L0_N2">
            <state id="State0"/>
            <state id="State1"/>
            <probabilities>0.167997 0.832003</probabilities>
        </cpt>
        <cpt id="L0_N3">
            <state id="State0"/>
            <state id="State1"/>
            <probabilities>0.241800 0.758200</probabilities>
        </cpt>
        <cpt id="L0_N4">
            <state id="State0"/>
            <state id="State1"/>
            <probabilities>0.527125 0.472875</probabilities>
        </cpt>
        <cpt id="L0_N5">
            <state id="State0"/>
            <state id="State1"/>
            <probabilities>0.793901 0.206099</probabilities>
        </cpt>
        <cpt id="L0_N6">
            <state id="State0"/>
            <state id="State1"/>
            <probabilities>0.464399 0.535601</probabilities>
        </cpt>
        <cpt id="L0_N7">
            <state id="State0"/>
            <state id="State1"/>
            <probabilities>0.508359 0.491641</probabilities>
        </cpt>
        <cpt id="L0_N8">
            <state id="State0"/>
            <state id="State1"/>
            <probabilities>0.116003 0.883997</probabilities>
        </cpt>
        <cpt id="L0_N9">
            <state id="State0"/>
            <state id="State1"/>
            <probabilities>0.671492 0.328508</probabilities>
        </cpt>
        <cpt id="L0_N10">
            <state id="State0"/>
            <state id="State1"/>
            <probabilities>0.333737 0.666263</probabilities>
        </cpt>
        <cpt id="L0_N11">
            <state id="State0"/>
            <state id="State1"/>
            <probabilities>0.324443 0.675557</probabilities>
        </cpt>
        <cpt id="L0_N12">
            <state id="State0"/>
            <state id="State1"/>
            <probabilities>0.685000 0.315000</probabilities>
        </cpt>
        <cpt id="L0_N13">
            <state id="State0"/>
            <state id="State1"/>
            <probabilities>0.815336 0.184664</probabilities>
        </cpt>
        <cpt id="L0_N14">
            <state id="State0"/>
            <state id="State1"/>
            <probabilities>0.372143 0.627857</probabilities>
        </cpt>
        <cpt id="L0_N15">
            <state id="State0"/>
            <state id="State1"/>
            <probabilities>0.104041 0.895959</probabilities>
        </cpt>
        <cpt id="L0_N16">
            <state id="State0"/>
            <state id="State1"/>
            <probabilities>0.773219 0.226781</probabilities>
        </cpt>
        <cpt id="L0_N17">
            <state id="State0"/>
            <state id="State1"/>
            <probabilities>0.279192 0.720808</probabilities>
        </cpt>
        <cpt id="L0_N18">
            <state id="State0"/>
            <state id="State1"/>
            <probabilities>0.150980 0.849020</probabilities>
        </cpt>
        <cpt id="L0_N19">
            <state id="State0"/>
            <state id="State1"/>
            <probabilities>0.444764 0.555236</probabilities>
        </cpt>
        <cpt id="L1_N0">
            <state id="State0"/>
            <state id="State1"/>
            <parents>L0_N1 L0_N8</parents>
            <probabilities>0.598161 0.401839 0.641880 0.358120 0.280594 0.719406 0.399059 0.600941</probabilities>
        </cpt>
        <cpt id="L1_N1">
            <state id="State0"/>
            <state id="State1"/>
            <parents>L0_N6</parents>
            <probabilities>0.107226 0.892774 0.178532 0.821468</probabilities>
        </cpt>
        <cpt id="L1_N2">
            <state id="State0"/>
            <state id="State1"/>
            <parents>L0_N13</parents>
            <probabilities>0.427887 0.572113 0.308110 0.691890</probabilities>
        </cpt>
        <cpt id="L1_N3">
            <state id="State0"/>
            <state id="State1"/>
            <parents>L0_N1 L0_N7 L0_N3 L0_N4</parents>
            <probabilities>0.695294 0.304706 0.228620 0.771380 0.122693 0.877307 0.846460 0.153540 0.200811 0.799189 0.757920 0.242080 0.814696 0.185304 0.866041 0.133959 0.523213 0.476787 0.835176 0.164824 0.425566 0.574434 0.235338 0.764662 0.897982 0.102018 0.599304 0.400696 0.753108 0.246892 0.275703 0.724297</probabilities>
        </cpt>
        <cpt id="L1_N4">
            <state id="State0"/>
            <state id="State1"/>
            <parents>L0_N3 L0_N5 L0_N2 L0_N13</parents>
            <probabilities>0.867697 0.132303 0.438816 0.561184 0.724362 0.275638 0.545667 0.454333 0.674932 0.325068 0.867847 0.132153 0.359805 0.640195 0.464877 0.535123 0.698709 0.301291 0.168328 0.831672 0.548963 0.451037 0.791280 0.208720 0.488257 0.511743 0.536105 0.463895 0.667081 0.332919 0.323509 0.676491</probabilities>
        </cpt>
        <cpt id="L1_N5">
            <state id="State0"/>
            <state id="State1"/>
            <parents>L0_N7</parents>
            <probabilities>0.231856 0.768144 0.366939 0.633061</probabilities>
        </cpt>
        <cpt id="L1_N6">
            <state id="State0"/>
            <state id="State1"/>
            <parents>L0_N3 L0_N1 L0_N13</parents>
            <probabilities>0.151909 0.848091 0.360977 0.639023 0.843414 0.156586 0.609703 0.390297 0.269927 0.730073 0.123579 0.876421 0.592243 0.407757 0.530054 0.469946</probabilities>
        </cpt>
        <cpt id="L1_N7">
            <state id="State0"/>
            <state id="State1"/>
            <parents>L0_N1 L0_N2 L0_N4</parents>
            <probabilities>0.577142 0.422858 0.539331 0.460669 0.543626 0.456374 0.628002 0.371998 0.818199 0.181801 0.178120 0.821880 0.764320 0.235680 0.243501 0.756499</probabilities>
        </cpt>
        <cpt id="L1_N8">
            <state id="State0"/>
            <state id="State1"/>
            <parents>L0_N11 L0_N9 L0_N8 L0_N17</parents>
            <probabilities>0.736662 0.263338 0.219931 0.780069 0.454503 0.545497 0.889489 0.110511 0.212492 0.787508 0.401046 0.598954 0.441271 0.558729 0.453696 0.546304 0.271149 0.728851 0.459127 0.540873 0.197098 0.802902 0.800334 0.199666 0.120166 0.879834 0.251158 0.748842 0.103205 0.896795 0.207735 0.792265</probabilities>
        </cpt>
        <cpt id="L1_N9">
            <state id="State0"/>
            <state id="State1"/>
            <parents>L0_N14</parents>
            <probabilities>0.172788 0.827212 0.778742 0.221258</probabilities>
        </cpt>
        <cpt id="L1_N10">
            <state id="State0"/>
            <state id="State1"/>
            <parents>L0_N18</parents>
            <probabilities>0.722452 0.277548 0.574167 0.425833</probabilities>
        </cpt>
        <cpt id="L1_N11">
            <state id="State0"/>
            <state id="State1"/>
            <parents>L0_N5</parents>
            <probabilities>0.164903 0.835097 0.271452 0.728548</probabilities>
        </cpt>
        <cpt id="L1_N12">
            <state id="State0"/>
            <state id="State1"/>
            <parents>L0_N11 L0_N8 L0_N16 L0_N6</parents>
            <probabilities>0.818707 0.181293 0.567195 0.432805 0.649087 0.350913 0.126075 0.873925 0.641441 0.358559 0.503201 0.496799 0.316004 0.683996 0.885641 0.114359 0.375147 0.624853 0.499797 0.500203 0.205121 0.794879 0.302193 0.697807 0.706264 0.293736 0.275228 0.724772 0.300981 0.699019 0.197607 0.802393</probabilities>
        </cpt>
        <cpt id="L1_N13">
            <state id="State0"/>
            <state id="State1"/>
            <parents>L0_N11 L0_N6 L0_N15 L0_N5</parents>
            <probabilities>0.381653 0.618347 0.456746 0.543254 0.557546 0.442454 0.165833 0.834167 0.627970 0.372030 0.600472 0.399528 0.164724 0.835276 0.184033 0.815967 0.422621 0.577379 0.831400 0.168600 0.796675 0.203325 0.263506 0.736494 0.508363 0.491637 0.146984 0.853016 0.745614 0.254386 0.281529 0.718471</probabilities>
        </cpt>
        <cpt id="L1_N14">
            <state id="State0"/>
            <state id="State1"/>
            <parents>L0_N13</parents>
            <probabilities>0.505180 0.494820 0.106989 0.893011</probabilities>
        </cpt>
        <cpt id="L1_N15">
            <state id="State0"/>
            <state id="State1"/>
            <parents>L0_N6</parents>
            <probabilities>0.345729 0.654271 0.211355 0.788645</probabilities>
        </cpt>
        <cpt id="L1_N16">
            <state id="State0"/>
            <state id="State1"/>
            <parents>L0_N10</parents>
            <probabilities>0.561524 0.438476 0.451824 0.548176</probabilities>
        </cpt>
        <cpt id="L1_N17">
            <state id="State0"/>
            <state id="State1"/>
            <parents>L0_N4 L0_N18 L0_N13</parents>
            <probabilities>0.352360 0.647640 0.307925 0.692075 0.307241 0.692759 0.149257 0.850743 0.711381 0.288619 0.161985 0.838015 0.639535 0.360465 0.492954 0.507046</probabilities>
        </cpt>
        <cpt id="L1_N18">
            <state id="State0"/>
            <state id="State1"/>
            <parents>L0_N3 L0_N7 L0_N10</parents>
            <probabilities>0.121313 0.878687 0.169957 0.830043 0.260941 0.739059 0.607924 0.392076 0.437117 0.562883 0.309024 0.690976 0.724556 0.275444 0.139661 0.860339</probabilities>
        </cpt>
        <cpt id="L1_N19">
            <state id="State0"/>
            <state id="State1"/>
            <parents>L0_N5</parents>
            <probabilities>0.420722 0.579278 0.811593 0.188407</probabilities>
        </cpt>
        <cpt id="L2_N0">
            <state id="State0"/>
            <state id="State1"/>
            <parents>L1_N1 L1_N3 L1_N13 L1_N12</parents>
            <probabilities>0.387433 0.612567 0.458250 0.541750 0.668216 0.331784 0.318609 0.681391 0.381693 0.618307 0.673949 0.326051 0.593485 0.406515 0.385588 0.614412 0.827306 0.172694 0.127668 0.872332 0.882258 0.117742 0.869880 0.130120 0.253370 0.746630 0.238331 0.761669 0.320653 0.679347 0.560096 0.439904</probabilities>
        </cpt>
        <cpt id="L2_N1">
            <state id="State0"/>
            <state id="State1"/>
            <parents>L1_N19 L1_N12 L1_N7</parents>
            <probabilities>0.659604 0.340396 0.393581 0.606419 0.181901 0.818099 0.396142 0.603858 0.594891 0.405109 0.629479 0.370521 0.478320 0.521680 0.681898 0.318102</probabilities>
        </cpt>
        <cpt id="L2_N2">
            <state id="State0"/>
            <state id="State1"/>
            <parents>L1_N16</parents>
            <probabilities>0.101833 0.898167 0.726814 0.273186</probabilities>
        </cpt>
        <cpt id="L2_N3">
            <state id="State0"/>
            <state id="State1"/>
            <parents>L1_N13 L1_N16 L1_N8</parents>
            <probabilities>0.357912 0.642088 0.322017 0.677983 0.659493 0.340507 0.427934 0.572066 0.627990 0.372010 0.238668 0.761332 0.238724 0.761276 0.815327 0.184673</probabilities>
        </cpt>
        <cpt id="L2_N4">
            <state id="State0"/>
            <state id="State1"/>
            <parents>L1_N3</parents>
            <probabilities>0.471133 0.528867 0.452019 0.547981</probabilities>
        </cpt>
        <cpt id="L2_N5">
            <state id="State0"/>
            <state id="State1"/>
            <parents>L1_N10 L1_N8</parents>
            <probabilities>0.874588 0.125412 0.246347 0.753653 0.670084 0.329916 0.340297 0.659703</probabilities>
        </cpt>
        <cpt id="L2_N6">
            <state id="State0"/>
            <state id="State1"/>
            <parents>L1_N3 L1_N7 L1_N16</parents>
            <probabilities>0.846949 0.153051 0.216757 0.783243 0.663874 0.336126 0.721194 0.278806 0.796557 0.203443 0.240321 0.759679 0.149929 0.850071 0.532697 0.467303</probabilities>
        </cpt>
        <cpt id="L2_N7">
            <state id="State0"/>
            <state id="State1"/>
            <parents>L1_N3 L1_N4</parents>
            <probabilities>0.691775 0.308225 0.456339 0.543661 0.743532 0.256468 0.812699 0.187301</probabilities>
        </cpt>
        <cpt id="L2_N8">
            <state id="State0"/>
            <state id="State1"/>
            <parents>L1_N15 L1_N9 L1_N10 L1_N7</parents>
            <probabilities>0.363420 0.636580 0.120004 0.879996 0.544465 0.455535 0.771156 0.228844 0.109613 0.890387 0.368623 0.631377 0.570776 0.429224 0.124221 0.875779 0.381549 0.618451 0.825516 0.174484 0.583648 0.416352 0.622900 0.377100 0.760782 0.239218 0.836768 0.163232 0.314141 0.685859 0.587052 0.412948</probabilities>
        </cpt>
        <cpt id="L2_N9">
            <state id="State0"/>
            <state id="State1"/>
            <parents>L1_N17 L1_N0 L1_N15 L1_N9</parents>
            <probabilities>0.721147 0.278853 0.276473 0.723527 0.550695 0.449305 0.750922 0.249078 0.354245 0.645755 0.226560 0.773440 0.708588 0.291412 0.854352 0.145648 0.596298 0.403702 0.127604 0.872396 0.129597 0.870403 0.896606 0.103394 0.106190 0.893810 0.753538 0.246462 0.885174 0.114826 0.837821 0.162179</probabilities>
        </cpt>
        <cpt id="L2_N10">
            <state id="State0"/>
            <state id="State1"/>
            <parents>L1_N13 L1_N15 L1_N1 L1_N19</parents>
            <probabilities>0.750355 0.249645 0.207430 0.792570 0.531172 0.468828 0.553149 0.446851 0.318280 0.681720 0.532353 0.467647 0.838723 0.161277 0.233393 0.766607 0.780175 0.219825 0.324779 0.675221 0.579674 0.420326 0.360867 0.639133 0.487388 0.512612 0.319383 0.680617 0.449413 0.550587 0.427087 0.572913</probabilities>
        </cpt>
        <cpt id="L2_N11">
            <state id="State0"/>
            <state id="State1"/>
            <parents>L1_N6 L1_N11 L1_N5</parents>
            <probabilities>0.526243 0.473757 0.725487 0.274513 0.555548 0.444452 0.169971 0.830029 0.681547 0.318453 0.124837 0.875163 0.805292 0.194708 0.100359 0.899641</probabilities>
        </cpt>
        <cpt id="L2_N12">
            <state id="State0"/>
            <state id="State1"/>
            <parents>L1_N13</parents>
            <probabilities>0.620465 0.379535 0.412680 0.587320</probabilities>
        </cpt>
        <cpt id="L2_N13">
            <state id="State0"/>
            <state id="State1"/>
            <parents>L1_N19</parents>
            <probabilities>0.677530 0.322470 0.204702 0.795298</probabilities>
        </cpt>
        <cpt id="L2_N14">
            <state id="State0"/>
            <state id="State1"/>
            <parents>L1_N9 L1_N2 L1_N12 L1_N15</parents>
            <probabilities>0.693252 0.306748 0.396440 0.603560 0.543808 0.456192 0.380149 0.619851 0.105444 0.894556 0.813090 0.186910 0.775661 0.224339 0.645060 0.354940 0.885465 0.114535 0.345219 0.654781 0.342190 0.657810 0.178250 0.821750 0.180688 0.819312 0.169784 0.830216 0.869466 0.130534 0.573584 0.426416</probabilities>
        </cpt>
        <cpt id="L2_N15">
            <state id="State0"/>
            <state id="State1"/>
            <parents>L1_N9 L1_N10</parents>
            <probabilities>0.277438 0.722562 0.115288 0.884712 0.762680 0.237320 0.374089 0.625911</probabilities>
        </cpt>
        <cpt id="L2_N16">
            <state id="State0"/>
            <state id="State1"/>
            <parents>L1_N4 L1_N13 L1_N11</parents>
            <probabilities>0.771020 0.228980 0.864083 0.135917 0.695222 0.304778 0.467212 0.532788 0.808181 0.191819 0.380392 0.619608 0.672577 0.327423 0.330018 0.669982</probabilities>
        </cpt>
        <cpt id="L2_N17">
            <state id="State0"/>
            <state id="State1"/>
            <parents>L1_N7 L1_N4 L1_N9 L1_N0</parents>
            <probabilities>0.135860 0.864140 0.616217 0.383783 0.872392 0.127608 0.679105 0.320895 0.625386 0.374614 0.337363 0.662637 0.485243 0.514757 0.822504 0.177496 0.399440 0.600560 0.822289 0.177711 0.150164 0.849836 0.848009 0.151991 0.797418 0.202582 0.554772 0.445228 0.111430 0.888570 0.535996 0.464004</probabilities>
        </cpt>
        <cpt id="L2_N18">
            <state id="State0"/>
            <state id="State1"/>
            <parents>L1_N5 L1_N1</parents>
            <probabilities>0.249363 0.750637 0.708892 0.291108 0.346955 0.653045 0.620282 0.379718</probabilities>
        </cpt>
        <cpt id="L2_N19">
            <state id="State0"/>
            <state id="State1"/>
            <parents>L1_N5 L1_N6</parents>
            <probabilities>0.203831 0.796169 0.867263 0.132737 0.821229 0.178771 0.771933 0.228067</probabilities>
        </cpt>
        <cpt id="L3_N0">
            <state id="State0"/>
            <state id="State1"/>
            <parents>L2_N15 L2_N2 L2_N16 L2_N14</parents>
            <probabilities>0.641405 0.358595 0.376789 0.623211 0.780755 0.219245 0.752852 0.247148 0.840186 0.159814 0.646542 0.353458 0.297059 0.702941 0.397407 0.602593 0.398606 0.601394 0.478656 0.521344 0.619045 0.380955 0.329907 0.670093 0.467502 0.532498 0.304761 0.695239 0.354980 0.645020 0.560374 0.439626</probabilities>
        </cpt>
        <cpt id="L3_N1">
            <state id="State0"/>
            <state id="State1"/>
            <parents>L2_N15 L2_N6 L2_N14 L2_N19</parents>
            <probabilities>0.448621 0.551379 0.130629 0.869371 0.426263 0.573737 0.235357 0.764643 0.441352 0.558648 0.475250 0.524750 0.530746 0.469254 0.855913 0.144087 0.835903 0.164097 0.436051 0.563949 0.371688 0.628312 0.448310 0.551690 0.575336 0.424664 0.411930 0.588070 0.337906 0.662094 0.735334 0.264666</probabilities>
        </cpt>
        <cpt id="L3_N2">
            <state id="State0"/>
            <state id="State1"/>
            <parents>L2_N18 L2_N6 L2_N11</parents>
            <probabilities>0.883613 0.116387 0.709751 0.290249 0.852959 0.147041 0.134423 0.865577 0.159342 0.840658 0.441812 0.558188 0.732140 0.267860 0.719892 0.280108</probabilities>
        </cpt>
        <cpt id="L3_N3">
            <state id="State0"/>
            <state id="State1"/>
            <parents>L2_N13 L2_N10 L2_N3</parents>
            <probabilities>0.167650 0.832350 0.616577 0.383423 0.853289 0.146711 0.466549 0.533451 0.261559 0.738441 0.612765 0.387235 0.815438 0.184562 0.626417 0.373583</probabilities>
        </cpt>
        <cpt id="L3_N4">
            <state id="State0"/>
            <state id="State1"/>
            <parents>L2_N12 L2_N18 L2_N5 L2_N6</parents>
            <probabilities>0.532352 0.467648 0.516547 0.483453 0.168381 0.831619 0.438037 0.561963 0.378863 0.621137 0.792554 0.207446 0.653246 0.346754 0.802319 0.197681 0.597031 0.402969 0.121896 0.878104 0.637028 0.362972 0.115953 0.884047 0.844796 0.155204 0.380651 0.619349 0.718067 0.281933 0.623285 0.376715</probabilities>
        </cpt>
        <cpt id="L3_N5">
            <state id="State0"/>
            <state id="State1"/>
            <parents>L2_N4 L2_N12</parents>
            <probabilities>0.270958 0.729042 0.248385 0.751615 0.785162 0.214838 0.899400 0.100600</probabilities>
        </cpt>
        <cpt id="L3_N6">
            <state id="State0"/>
            <state id="State1"/>
            <parents>L2_N14</parents>
            <probabilities>0.852702 0.147298 0.831039 0.168961</probabilities>
        </cpt>
        <cpt id="L3_N7">
            <state id="State0"/>
            <state id="State1"/>
            <parents>L2_N1 L2_N18 L2_N3 L2_N6</parents>
            <probabilities>0.817277 0.182723 0.734344 0.265656 0.478173 0.521827 0.348582 0.651418 0.571958 0.428042 0.320284 0.679716 0.541826 0.458174 0.567030 0.432970 0.598196 0.401804 0.374615 0.625385 0.621810 0.378190 0.284872 0.715128 0.165569 0.834431 0.167276 0.832724 0.691413 0.308587 0.346067 0.653933</probabilities>
        </cpt>
        <cpt id="L3_N8">
            <state id="State0"/>
            <state id="State1"/>
            <parents>L2_N10 L2_N7</parents>
            <probabilities>0.422183 0.577817 0.287181 0.712819 0.300998 0.699002 0.136380 0.863620</probabilities>
        </cpt>
        <cpt id="L3_N9">
            <state id="State0"/>
            <state id="State1"/>
            <parents>L2_N13</parents>
            <probabilities>0.759488 0.240512 0.705687 0.294313</probabilities>
        </cpt>
        <cpt id="L3_N10">
            <state id="State0"/>
            <state id="State1"/>
            <parents>L2_N1 L2_N10 L2_N17 L2_N8</parents>
            <probabilities>0.861545 0.138455 0.869456 0.130544 0.452721 0.547279 0.679649 0.320351 0.126163 0.873837 0.398126 0.601874 0.886171 0.113829 0.199523 0.800477 0.702934 0.297066 0.148842 0.851158 0.717120 0.282880 0.677558 0.322442 0.528139 0.471861 0.443351 0.556649 0.109798 0.890202 0.715106 0.284894</probabilities>
        </cpt>
        <cpt id="L3_N11">
            <state id="State0"/>
            <state id="State1"/>
            <parents>L2_N5 L2_N4</parents>
            <probabilities>0.688146 0.311854 0.146650 0.853350 0.265567 0.734433 0.278311 0.721689</probabilities>
        </cpt>
        <cpt id="L3_N12">
            <state id="State0"/>
            <state id="State1"/>
            <parents>L2_N5 L2_N4 L2_N14 L2_N2</parents>
            <probabilities>0.193255 0.806745 0.390022 0.609978 0.582002 0.417998 0.233974 0.766026 0.462217 0.537783 0.145495 0.854505 0.790507 0.209493 0.589021 0.410979 0.511415 0.488585 0.109334 0.890666 0.512583 0.487417 0.492580 0.507420 0.374285 0.625715 0.181762 0.818238 0.404541 0.595459 0.875054 0.124946</probabilities>
        </cpt>
        <cpt id="L3_N13">
            <state id="State0"/>
            <state id="State1"/>
            <parents>L2_N16</parents>
            <probabilities>0.756410 0.243590 0.481216 0.518784</probabilities>
        </cpt>
        <cpt id="L3_N14">
            <state id="State0"/>
            <state id="State1"/>
            <parents>L2_N16 L2_N3</parents>
            <probabilities>0.364903 0.635097 0.691598 0.308402 0.413546 0.586454 0.384656 0.615344</probabilities>
        </cpt>
        <cpt id="L3_N15">
            <state id="State0"/>
            <state id="State1"/>
            <parents>L2_N1 L2_N17 L2_N16 L2_N14</parents>
            <probabilities>0.289138 0.710862 0.661555 0.338445 0.536914 0.463086 0.823190 0.176810 0.363240 0.636760 0.867613 0.132387 0.758910 0.241090 0.713001 0.286999 0.277565 0.722435 0.432836 0.567164 0.194491 0.805509 0.360575 0.639425 0.329738 0.670262 0.444221 0.555779 0.413781 0.586219 0.177018 0.822982</probabilities>
        </cpt>
        <cpt id="L3_N16">
            <state id="State0"/>
            <state id="State1"/>
            <parents>L2_N13 L2_N16 L2_N15</parents>
            <probabilities>0.449279 0.550721 0.128876 0.871124 0.759057 0.240943 0.267306 0.732694 0.653272 0.346728 0.896714 0.103286 0.617637 0.382363 0.392208 0.607792</probabilities>
        </cpt>
        <cpt id="L3_N17">
            <state id="State0"/>
            <state id="State1"/>
            <parents>L2_N0</parents>
            <probabilities>0.553015 0.446985 0.471868 0.528132</probabilities>
        </cpt>
        <cpt id="L3_N18">
            <state id="State0"/>
            <state id="State1"/>
            <parents>L2_N18</parents>
            <probabilities>0.783124 0.216876 0.638873 0.361127</probabilities>
        </cpt>
        <cpt id="L3_N19">
            <state id="State0"/>
            <state id="State1"/>
            <parents>L2_N18</parents>
            <probabilities>0.555024 0.444976 0.344205 0.655795</probabilities>
        </cpt>
        <cpt id="L4_N0">
            <state id="State0"/>
            <state id="State1"/>
            <parents>L3_N16</parents>
            <probabilities>0.709663 0.290337 0.425532 0.574468</probabilities>
        </cpt>
        <cpt id="L4_N1">
            <state id="State0"/>
            <state id="State1"/>
            <parents>L3_N8 L3_N5</parents>
            <probabilities>0.338414 0.661586 0.556258 0.443742 0.497806 0.502194 0.180604 0.819396</probabilities>
        </cpt>
        <cpt id="L4_N2">
            <state id="State0"/>
            <state id="State1"/>
            <parents>L3_N10 L3_N1</parents>
            <probabilities>0.738013 0.261987 0.729806 0.270194 0.374617 0.625383 0.618673 0.381327</probabilities>
        </cpt>
        <cpt id="L4_N3">
            <state id="State0"/>
            <state id="State1"/>
            <parents>L3_N2 L3_N15</parents>
            <probabilities>0.124753 0.875247 0.687522 0.312478 0.334810 0.665190 0.111065 0.888935</probabilities>
        </cpt>
        <cpt id="L4_N4">
            <state id="State0"/>
            <state id="State1"/>
            <parents>L3_N10</parents>
            <probabilities>0.828074 0.171926 0.374403 0.625597</probabilities>
        </cpt>
        <cpt id="L4_N5">
            <state id="State0"/>
            <state id="State1"/>
            <parents>L3_N14 L3_N12</parents>
            <probabilities>0.579641 0.420359 0.894792 0.105208 0.778310 0.221690 0.455501 0.544499</probabilities>
        </cpt>
        <cpt id="L4_N6">
            <state id="State0"/>
            <state id="State1"/>
            <parents>L3_N17 L3_N7 L3_N3 L3_N14</parents>
            <probabilities>0.509353 0.490647 0.386619 0.613381 0.845692 0.154308 0.474654 0.525346 0.129634 0.870366 0.485073 0.514927 0.629871 0.370129 0.145186 0.854814 0.249819 0.750181 0.633844 0.366156 0.398696 0.601304 0.381246 0.618754 0.875971 0.124029 0.269310 0.730690 0.265085 0.734915 0.831575 0.168425</probabilities>
        </cpt>
        <cpt id="L4_N7">
            <state id="State0"/>
            <state id="State1"/>
            <parents>L3_N7 L3_N12</parents>
            <probabilities>0.647025 0.352975 0.469490 0.530510 0.891138 0.108862 0.148045 0.851955</probabilities>
        </cpt>
        <cpt id="L4_N8">
            <state id="State0"/>
            <state id="State1"/>
            <parents>L3_N11</parents>
            <probabilities>0.477684 0.522316 0.110281 0.889719</probabilities>
        </cpt>
        <cpt id="L4_N9">
            <state id="State0"/>
            <state id="State1"/>
            <parents>L3_N15</parents>
            <probabilities>0.448966 0.551034 0.385630 0.614370</probabilities>
        </cpt>
        <cpt id="L4_N10">
            <state id="State0"/>
            <state id="State1"/>
            <parents>L3_N3</parents>
            <probabilities>0.249102 0.750898 0.383262 0.616738</probabilities>
        </cpt>
        <cpt id="L4_N11">
            <state id="State0"/>
            <state id="State1"/>
            <parents>L3_N10 L3_N13</parents>
            <probabilities>0.146237 0.853763 0.216370 0.783630 0.506310 0.493690 0.237641 0.762359</probabilities>
        </cpt>
        <cpt id="L4_N12">
            <state id="State0"/>
            <state id="State1"/>
            <parents>L3_N3</parents>
            <probabilities>0.637254 0.362746 0.441667 0.558333</probabilities>
        </cpt>
        <cpt id="L4_N13">
            <state id="State0"/>
            <state id="State1"/>
            <parents>L3_N7</parents>
            <probabilities>0.155024 0.844976 0.145239 0.854761</probabilities>
        </cpt>
        <cpt id="L4_N14">
            <state id="State0"/>
            <state id="State1"/>
            <parents>L3_N2 L3_N17 L3_N14</parents>
            <probabilities>0.279008 0.720992 0.644065 0.355935 0.816516 0.183484 0.322729 0.677271 0.404308 0.595692 0.728862 0.271138 0.445413 0.554587 0.627017 0.372983</probabilities>
        </cpt>
        <cpt id="L4_N15">
            <state id="State0"/>
            <state id="State1"/>
            <parents>L3_N0</parents>
            <probabilities>0.742052 0.257948 0.503281 0.496719</probabilities>
        </cpt>
        <cpt id="L4_N16">
            <state id="State0"/>
            <state id="State1"/>
            <parents>L3_N4 L3_N6 L3_N0 L3_N13</parents>
            <probabilities>0.321756 0.678244 0.325397 0.674603 0.682440 0.317560 0.230748 0.769252 0.161705 0.838295 0.379290 0.620710 0.292517 0.707483 0.788195 0.211805 0.175295 0.824705 0.798121 0.201879 0.644918 0.355082 0.584492 0.415508 0.135139 0.864861 0.845802 0.154198 0.238400 0.761600 0.421050 0.578950</probabilities>
        </cpt>
        <cpt id="L4_N17">
            <state id="State0"/>
            <state id="State1"/>
            <parents>L3_N10 L3_N19 L3_N14</parents>
            <probabilities>0.467484 0.532516 0.492831 0.507169 0.484921 0.515079 0.348622 0.651378 0.714056 0.285944 0.775239 0.224761 0.797068 0.202932 0.840842 0.159158</probabilities>
        </cpt>
        <cpt id="L4_N18">
            <state id="State0"/>
            <state id="State1"/>
            <parents>L3_N15</parents>
            <probabilities>0.765149 0.234851 0.436623 0.563377</probabilities>
        </cpt>
        <cpt id="L4_N19">
            <state id="State0"/>
            <state id="State1"/>
            <parents>L3_N19 L3_N15 L3_N18 L3_N7</parents>
            <probabilities>0.287999 0.712001 0.617940 0.382060 0.389682 0.610318 0.695450 0.304550 0.237962 0.762038 0.398004 0.601996 0.673166 0.326834 0.101907 0.898093 0.176927 0.823073 0.563082 0.436918 0.837572 0.162428 0.335839 0.664161 0.187035 0.812965 0.548192 0.451808 0.765305 0.234695 0.595877 0.404123</probabilities>
        </cpt>
        <cpt id="L5_N0">
            <state id="State0"/>
            <state id="State1"/>
            <parents>L4_N6 L4_N0</parents>
            <probabilities>0.758077 0.241923 0.840367 0.159633 0.878288 0.121712 0.836861 0.163139</probabilities>
        </cpt>
        <cpt id="L5_N1">
            <state id="State0"/>
            <state id="State1"/>
            <parents>L4_N9</parents>
            <probabilities>0.310828 0.689172 0.830500 0.169500</probabilities>
        </cpt>
        <cpt id="L5_N2">
            <state id="State0"/>
            <state id="State1"/>
            <parents>L4_N11 L4_N18</parents>
            <probabilities>0.190061 0.809939 0.203683 0.796317 0.392577 0.607423 0.778151 0.221849</probabilities>
        </cpt>
        <cpt id="L5_N3">
            <state id="State0"/>
            <state id="State1"/>
            <parents>L4_N3 L4_N15 L4_N10</parents>
            <probabilities>0.272821 0.727179 0.480746 0.519254 0.475351 0.524649 0.583608 0.416392 0.276292 0.723708 0.709320 0.290680 0.165540 0.834460 0.227378 0.772622</probabilities>
        </cpt>
        <cpt id="L5_N4">
            <state id="State0"/>
            <state id="State1"/>
            <parents>L4_N15 L4_N6 L4_N16 L4_N17</parents>
            <probabilities>0.833219 0.166781 0.496143 0.503857 0.622916 0.377084 0.762893 0.237107 0.371662 0.628338 0.442227 0.557773 0.172992 0.827008 0.737991 0.262009 0.239912 0.760088 0.610558 0.389442 0.734549 0.265451 0.741611 0.258389 0.111913 0.888087 0.857031 0.142969 0.488561 0.511439 0.848924 0.151076</probabilities>
        </cpt>
        <cpt id="L5_N5">
            <state id="State0"/>
            <state id="State1"/>
            <parents>L4_N14 L4_N19 L4_N13 L4_N16</parents>
            <probabilities>0.569656 0.430344 0.207817 0.792183 0.205018 0.794982 0.555470 0.444530 0.820364 0.179636 0.632469 0.367531 0.235934 0.764066 0.271079 0.728921 0.294193 0.705807 0.353032 0.646968 0.145352 0.854648 0.526749 0.473251 0.893165 0.106835 0.253206 0.746794 0.834526 0.165474 0.505205 0.494795</probabilities>
        </cpt>
        <cpt id="L5_N6">
            <state id="State0"/>
            <state id="State1"/>
            <parents>L4_N4 L4_N18 L4_N6 L4_N13</parents>
            <probabilities>0.132611 0.867389 0.238228 0.761772 0.666934 0.333066 0.209788 0.790212 0.615988 0.384012 0.220112 0.779888 0.146855 0.853145 0.535753 0.464247 0.822297 0.177703 0.279142 0.720858 0.668331 0.331669 0.148930 0.851070 0.374553 0.625447 0.331856 0.668144 0.244236 0.755764 0.653206 0.346794</probabilities>
        </cpt>
        <cpt id="L5_N7">
            <state id="State0"/>
            <state id="State1"/>
            <parents>L4_N6</parents>
            <probabilities>0.554728 0.445272 0.754199 0.245801</probabilities>
        </cpt>
        <cpt id="L5_N8">
            <state id="State0"/>
            <state id="State1"/>
            <parents>L4_N4 L4_N10</parents>
            <probabilities>0.585808 0.414192 0.313393 0.686607 0.282883 0.717117 0.209741 0.790259</probabilities>
        </cpt>
        <cpt id="L5_N9">
            <state id="State0"/>
            <state id="State1"/>
            <parents>L4_N19 L4_N16</parents>
            <probabilities>0.462792 0.537208 0.455496 0.544504 0.117200 0.882800 0.500021 0.499979</probabilities>
        </cpt>
        <cpt id="L5_N10">
            <state id="State0"/>
            <state id="State1"/>
            <parents>L4_N8</parents>
            <probabilities>0.791058 0.208942 0.178412 0.821588</probabilities>
        </cpt>
        <cpt id="L5_N11">
            <state id="State0"/>
            <state id="State1"/>
            <parents>L4_N0 L4_N15 L4_N14</parents>
            <probabilities>0.224109 0.775891 0.276139 0.723861 0.336164 0.663836 0.847448 0.152552 0.859606 0.140394 0.417257 0.582743 0.746803 0.253197 0.552175 0.447825</probabilities>
        </cpt>
        <cpt id="L5_N12">
            <state id="State0"/>
            <state id="State1"/>
            <parents>L4_N14</parents>
            <probabilities>0.503017 0.496983 0.228986 0.771014</probabilities>
        </cpt>
        <cpt id="L5_N13">
            <state id="State0"/>
            <state id="State1"/>
            <parents>L4_N7</parents>
            <probabilities>0.775407 0.224593 0.157407 0.842593</probabilities>
        </cpt>
        <cpt id="L5_N14">
            <state id="State0"/>
            <state id="State1"/>
            <parents>L4_N3 L4_N16 L4_N4 L4_N2</parents>
            <probabilities>0.776354 0.223646 0.369830 0.630170 0.225124 0.774876 0.209356 0.790644 0.727035 0.272965 0.205172 0.794828 0.192618 0.807382 0.807453 0.192547 0.434392 0.565608 0.375921 0.624079 0.238934 0.761066 0.825816 0.174184 0.647873 0.352127 0.403191 0.596809 0.153041 0.846959 0.886441 0.113559</probabilities>
        </cpt>
        <cpt id="L5_N15">
            <state id="State0"/>
            <state id="State1"/>
            <parents>L4_N9 L4_N10 L4_N18 L4_N8</parents>
            <probabilities>0.477993 0.522007 0.717784 0.282216 0.230256 0.769744 0.899586 0.100414 0.302345 0.697655 0.227733 0.772267 0.881747 0.118253 0.355899 0.644101 0.521294 0.478706 0.765930 0.234070 0.460077 0.539923 0.105061 0.894939 0.834276 0.165724 0.198447 0.801553 0.699006 0.300994 0.156413 0.843587</probabilities>
        </cpt>
        <cpt id="L5_N16">
            <state id="State0"/>
            <state id="State1"/>
            <parents>L4_N13</parents>
            <probabilities>0.651466 0.348534 0.157280 0.842720</probabilities>
        </cpt>
        <cpt id="L5_N17">
            <state id="State0"/>
            <state id="State1"/>
            <parents>L4_N7 L4_N17</parents>
            <probabilities>0.298172 0.701828 0.655538 0.344462 0.112878 0.887122 0.685941 0.314059</probabilities>
        </cpt>
        <cpt id="L5_N18">
            <state id="State0"/>
            <state id="State1"/>
            <parents>L4_N4 L4_N14 L4_N0</parents>
            <probabilities>0.163432 0.836568 0.613922 0.386078 0.264157 0.735843 0.185303 0.814697 0.513661 0.486339 0.138881 0.861119 0.400068 0.599932 0.607162 0.392838</probabilities>
        </cpt>
        <cpt id="L5_N19">
            <state id="State0"/>
            <state id="State1"/>
            <parents>L4_N0 L4_N14 L4_N1 L4_N17</parents>
            <probabilities>0.418894 0.581106 0.589648 0.410352 0.274369 0.725631 0.683935 0.316065 0.861744 0.138256 0.121081 0.878919 0.796105 0.203895 0.422746 0.577254 0.551307 0.448693 0.424903 0.575097 0.795094 0.204906 0.489333 0.510667 0.270080 0.729920 0.358986 0.641014 0.707012 0.292988 0.821102 0.178898</probabilities>
        </cpt>
        <cpt id="L6_N0">
            <state id="State0"/>
            <state id="State1"/>
            <parents>L5_N8 L5_N1 L5_N9 L5_N11</parents>
            <probabilities>0.853529 0.146471 0.190990 0.809010 0.296956 0.703044 0.710816 0.289184 0.138674 0.861326 0.793721 0.206279 0.883191 0.116809 0.721050 0.278950 0.797830 0.202170 0.286115 0.713885 0.325994 0.674006 0.472334 0.527666 0.416685 0.583315 0.555974 0.444026 0.107465 0.892535 0.785121 0.214879</probabilities>
        </cpt>
        <cpt id="L6_N1">
            <state id="State0"/>
            <state id="State1"/>
            <parents>L5_N18</parents>
            <probabilities>0.866437 0.133563 0.582138 0.417862</probabilities>
        </cpt>
        <cpt id="L6_N2">
            <state id="State0"/>
            <state id="State1"/>
            <parents>L5_N11 L5_N14 L5_N15 L5_N4</parents>
            <probabilities>0.768606 0.231394 0.837380 0.162620 0.872487 0.127513 0.518452 0.481548 0.544121 0.455879 0.420276 0.579724 0.668556 0.331444 0.136022 0.863978 0.600053 0.399947 0.655163 0.344837 0.188133 0.811867 0.203220 0.796780 0.757616 0.242384 0.557439 0.442561 0.118167 0.881833 0.148624 0.851376</probabilities>
        </cpt>
        <cpt id="L6_N3">
            <state id="State0"/>
            <state id="State1"/>
            <parents>L5_N13 L5_N0 L5_N16</parents>
            <probabilities>0.759263 0.240737 0.866787 0.133213 0.709130 0.290870 0.155640 0.844360 0.420874 0.579126 0.265848 0.734152 0.140476 0.859524 0.694729 0.305271</probabilities>
        </cpt>
        <cpt id="L6_N4">
            <state id="State0"/>
            <state id="State1"/>
            <parents>L5_N11 L5_N2 L5_N15 L5_N14</parents>
            <probabilities>0.172853 0.827147 0.878032 0.121968 0.268045 0.731955 0.290642 0.709358 0.666153 0.333847 0.110446 0.889554 0.334344 0.665656 0.746078 0.253922 0.240248 0.759752 0.854032 0.145968 0.364990 0.635010 0.123342 0.876658 0.176571 0.823429 0.491595 0.508405 0.681959 0.318041 0.703952 0.296048</probabilities>
        </cpt>
        <cpt id="L6_N5">
            <state id="State0"/>
            <state id="State1"/>
            <parents>L5_N16 L5_N2 L5_N13 L5_N4</parents>
            <probabilities>0.717057 0.282943 0.147276 0.852724 0.819264 0.180736 0.343167 0.656833 0.586027 0.413973 0.600009 0.399991 0.435572 0.564428 0.499092 0.500908 0.143877 0.856123 0.885445 0.114555 0.606691 0.393309 0.503312 0.496688 0.833533 0.166467 0.213717 0.786283 0.806433 0.193567 0.755270 0.244730</probabilities>
        </cpt>
        <cpt id="L6_N6">
            <state id="State0"/>
            <state id="State1"/>
            <parents>L5_N4 L5_N16 L5_N2</parents>
            <probabilities>0.294029 0.705971 0.435291 0.564709 0.729839 0.270161 0.774130 0.225870 0.150173 0.849827 0.614928 0.385072 0.813557 0.186443 0.633994 0.366006</probabilities>
        </cpt>
        <cpt id="L6_N7">
            <state id="State0"/>
            <state id="State1"/>
            <parents>L5_N10 L5_N12</parents>
            <probabilities>0.799281 0.200719 0.505917 0.494083 0.291593 0.708407 0.453245 0.546755</probabilities>
        </cpt>
        <cpt id="L6_N8">
            <state id="State0"/>
            <state id="State1"/>
            <parents>L5_N10 L5_N11 L5_N19</parents>
            <probabilities>0.648487 0.351513 0.602726 0.397274 0.380071 0.619929 0.619647 0.380353 0.558534 0.441466 0.313263 0.686737 0.330632 0.669368 0.145054 0.854946</probabilities>
        </cpt>
        <cpt id="L6_N9">
            <state id="State0"/>
            <state id="State1"/>
            <parents>L5_N4 L5_N14 L5_N7</parents>
            <probabilities>0.550960 0.449040 0.551706 0.448294 0.532093 0.467907 0.400714 0.599286 0.612379 0.387621 0.489626 0.510374 0.306466 0.693534 0.685763 0.314237</probabilities>
        </cpt>
        <cpt id="L6_N10">
            <state id="State0"/>
            <state id="State1"/>
            <parents>L5_N5 L5_N7</parents>
            <probabilities>0.514850 0.485150 0.352127 0.647873 0.613332 0.386668 0.559019 0.440981</probabilities>
        </cpt>
        <cpt id="L6_N11">
            <state id="State0"/>
            <state id="State1"/>
            <parents>L5_N13 L5_N3 L5_N4</parents>
            <probabilities>0.289258 0.710742 0.576509 0.423491 0.201137 0.798863 0.134149 0.865851 0.284483 0.715517 0.239970 0.760030 0.778070 0.221930 0.564035 0.435965</probabilities>
        </cpt>
        <cpt id="L6_N12">
            <state id="State0"/>
            <state id="State1"/>
            <parents>L5_N0 L5_N9</parents>
            <probabilities>0.778236 0.221764 0.117423 0.882577 0.326506 0.673494 0.425202 0.574798</probabilities>
        </cpt>
        <cpt id="L6_N13">
            <state id="State0"/>
            <state id="State1"/>
            <parents>L5_N4 L5_N10 L5_N14 L5_N12</parents>
            <probabilities>0.891667 0.108333 0.446532 0.553468 0.523090 0.476910 0.181369 0.818631 0.230456 0.769544 0.734912 0.265088 0.471725 0.528275 0.796354 0.203646 0.305140 0.694860 0.141264 0.858736 0.743955 0.256045 0.237887 0.762113 0.536972 0.463028 0.783602 0.216398 0.555728 0.444272 0.437311 0.562689</probabilities>
        </cpt>
        <cpt id="L6_N14">
            <state id="State0"/>
            <state id="State1"/>
            <parents>L5_N7</parents>
            <probabilities>0.156993 0.843007 0.697517 0.302483</probabilities>
        </cpt>
        <cpt id="L6_N15">
            <state id="State0"/>
            <state id="State1"/>
            <parents>L5_N9 L5_N17</parents>
            <probabilities>0.134622 0.865378 0.175171 0.824829 0.718403 0.281597 0.150949 0.849051</probabilities>
        </cpt>
        <cpt id="L6_N16">
            <state id="State0"/>
            <state id="State1"/>
            <parents>L5_N11 L5_N1</parents>
            <probabilities>0.823649 0.176351 0.523657 0.476343 0.805950 0.194050 0.258466 0.741534</probabilities>
        </cpt>
        <cpt id="L6_N17">
            <state id="State0"/>
            <state id="State1"/>
            <parents>L5_N8 L5_N14 L5_N13 L5_N16</parents>
            <probabilities>0.671666 0.328334 0.756532 0.243468 0.746999 0.253001 0.213647 0.786353 0.805242 0.194758 0.502633 0.497367 0.691034 0.308966 0.764484 0.235516 0.197010 0.802990 0.655120 0.344880 0.135770 0.864230 0.612719 0.387281 0.359171 0.640829 0.130521 0.869479 0.225481 0.774519 0.598775 0.401225</probabilities>
        </cpt>
        <cpt id="L6_N18">
            <state id="State0"/>
            <state id="State1"/>
            <parents>L5_N19 L5_N8 L5_N13</parents>
            <probabilities>0.810129 0.189871 0.258949 0.741051 0.413850 0.586150 0.758406 0.241594 0.885413 0.114587 0.352980 0.647020 0.443840 0.556160 0.161856 0.838144</probabilities>
        </cpt>
        <cpt id="L6_N19">
            <state id="State0"/>
            <state id="State1"/>
            <parents>L5_N4</parents>
            <probabilities>0.687474 0.312526 0.367205 0.632795</probabilities>
        </cpt>
        <cpt id="L7_N0">
            <state id="State0"/>
            <state id="State1"/>
            <parents>L6_N3 L6_N17 L6_N4</parents>
            <probabilities>0.763944 0.236056 0.241625 0.758375 0.384482 0.615518 0.809215 0.190785 0.356986 0.643014 0.201876 0.798124 0.801879 0.198121 0.722368 0.277632</probabilities>
        </cpt>
        <cpt id="L7_N1">
            <state id="State0"/>
            <state id="State1"/>
            <parents>L6_N5 L6_N7 L6_N12 L6_N3</parents>
            <probabilities>0.314512 0.685488 0.444987 0.555013 0.816695 0.183305 0.835140 0.164860 0.684515 0.315485 0.119316 0.880684 0.619754 0.380246 0.762673 0.237327 0.295685 0.704315 0.800207 0.199793 0.554220 0.445780 0.311505 0.688495 0.293234 0.706766 0.389431 0.610569 0.896445 0.103555 0.239036 0.760964</probabilities>
        </cpt>
        <cpt id="L7_N2">
            <state id="State0"/>
            <state id="State1"/>
            <parents>L6_N16 L6_N19</parents>
            <probabilities>0.388439 0.611561 0.630242 0.369758 0.262373 0.737627 0.365490 0.634510</probabilities>
        </cpt>
        <cpt id="L7_N3">
            <state id="State0"/>
            <state id="State1"/>
            <parents>L6_N12</parents>
            <probabilities>0.825994 0.174006 0.819812 0.180188</probabilities>
        </cpt>
        <cpt id="L7_N4">
            <state id="State0"/>
            <state id="State1"/>
            <parents>L6_N14</parents>
            <probabilities>0.522336 0.477664 0.277127 0.722873</probabilities>
        </cpt>
        <cpt id="L7_N5">
            <state id="State0"/>
            <state id="State1"/>
            <parents>L6_N7 L6_N18 L6_N19 L6_N0</parents>
            <probabilities>0.850730 0.149270 0.602168 0.397832 0.804527 0.195473 0.706408 0.293592 0.830547 0.169453 0.499303 0.500697 0.272077 0.727923 0.202170 0.797830 0.707638 0.292362 0.555620 0.444380 0.352863 0.647137 0.729079 0.270921 0.609819 0.390181 0.434994 0.565006 0.402844 0.597156 0.603524 0.396476</probabilities>
        </cpt>
        <cpt id="L7_N6">
            <state id="State0"/>
            <state id="State1"/>
            <parents>L6_N6 L6_N4 L6_N8</parents>
            <probabilities>0.410026 0.589974 0.703223 0.296777 0.322408 0.677592 0.537617 0.462383 0.684696 0.315304 0.204362 0.795638 0.741185 0.258815 0.458377 0.541623</probabilities>
        </cpt>
        <cpt id="L7_N7">
            <state id="State0"/>
            <state id="State1"/>
            <parents>L6_N0</parents>
            <probabilities>0.793863 0.206137 0.238430 0.761570</probabilities>
        </cpt>
        <cpt id="L7_N8">
            <state id="State0"/>
            <state id="State1"/>
            <parents>L6_N4 L6_N17</parents>
            <probabilities>0.499835 0.500165 0.432561 0.567439 0.770947 0.229053 0.653653 0.346347</probabilities>
        </cpt>
        <cpt id="L7_N9">
            <state id="State0"/>
            <state id="State1"/>
            <parents>L6_N11 L6_N0 L6_N14</parents>
            <probabilities>0.466630 0.533370 0.665131 0.334869 0.604610 0.395390 0.745145 0.254855 0.223367 0.776633 0.882512 0.117488 0.431795 0.568205 0.370096 0.629904</probabilities>
        </cpt>
        <cpt id="L7_N10">
            <state id="State0"/>
            <state id="State1"/>
            <parents>L6_N10 L6_N1 L6_N5 L6_N9</parents>
            <probabilities>0.231718 0.768282 0.571879 0.428121 0.610928 0.389072 0.640531 0.359469 0.431772 0.568228 0.653629 0.346371 0.674692 0.325308 0.503196 0.496804 0.613915 0.386085 0.648949 0.351051 0.259116 0.740884 0.892408 0.107592 0.527522 0.472478 0.457612 0.542388 0.261440 0.738560 0.239939 0.760061</probabilities>
        </cpt>
        <cpt id="L7_N11">
            <state id="State0"/>
            <state id="State1"/>
            <parents>L6_N17 L6_N11 L6_N14</parents>
            <probabilities>0.506874 0.493126 0.564548 0.435452 0.868266 0.131734 0.753921 0.246079 0.757698 0.242302 0.104875 0.895125 0.675555 0.324445 0.644597 0.355403</probabilities>
        </cpt>
        <cpt id="L7_N12">
            <state id="State0"/>
            <state id="State1"/>
            <parents>L6_N5 L6_N19 L6_N13 L6_N14</parents>
            <probabilities>0.660473 0.339527 0.791239 0.208761 0.280000 0.720000 0.485341 0.514659 0.349958 0.650042 0.134463 0.865537 0.614827 0.385173 0.198869 0.801131 0.708704 0.291296 0.223779 0.776221 0.440189 0.559811 0.649209 0.350791 0.848311 0.151689 0.190956 0.809044 0.203388 0.796612 0.283400 0.716600</probabilities>
        </cpt>
        <cpt id="L7_N13">
            <state id="State0"/>
            <state id="State1"/>
            <parents>L6_N11</parents>
            <probabilities>0.781116 0.218884 0.124317 0.875683</probabilities>
        </cpt>
        <cpt id="L7_N14">
            <state id="State0"/>
            <state id="State1"/>
            <parents>L6_N2 L6_N11</parents>
            <probabilities>0.818095 0.181905 0.369164 0.630836 0.598624 0.401376 0.615188 0.384812</probabilities>
        </cpt>
        <cpt id="L7_N15">
            <state id="State0"/>
            <state id="State1"/>
            <parents>L6_N0 L6_N10 L6_N5</parents>
            <probabilities>0.459010 0.540990 0.172955 0.827045 0.745504 0.254496 0.285971 0.714029 0.625388 0.374612 0.442137 0.557863 0.668474 0.331526 0.285464 0.714536</probabilities>
        </cpt>
        <cpt id="L7_N16">
            <state id="State0"/>
            <state id="State1"/>
            <parents>L6_N13 L6_N6</parents>
            <probabilities>0.245237 0.754763 0.354590 0.645410 0.589783 0.410217 0.250435 0.749565</probabilities>
        </cpt>
        <cpt id="L7_N17">
            <state id="State0"/>
            <state id="State1"/>
            <parents>L6_N3 L6_N4 L6_N12 L6_N1</parents>
            <probabilities>0.819737 0.180263 0.258731 0.741269 0.812205 0.187795 0.264613 0.735387 0.239980 0.760020 0.720737 0.279263 0.702883 0.297117 0.692944 0.307056 0.706254 0.293746 0.182882 0.817118 0.178585 0.821415 0.889310 0.110690 0.598775 0.401225 0.453250 0.546750 0.495049 0.504951 0.872527 0.127473</probabilities>
        </cpt>
        <cpt id="L7_N18">
            <state id="State0"/>
            <state id="State1"/>
            <parents>L6_N7 L6_N19 L6_N15 L6_N16</parents>
            <probabilities>0.803535 0.196465 0.626873 0.373127 0.328778 0.671222 0.851127 0.148873 0.180608 0.819392 0.802746 0.197254 0.110091 0.889909 0.848742 0.151258 0.190212 0.809788 0.610154 0.389846 0.622684 0.377316 0.146926 0.853074 0.267595 0.732405 0.635729 0.364271 0.216451 0.783549 0.584213 0.415787</probabilities>
        </cpt>
        <cpt id="L7_N19">
            <state id="State0"/>
            <state id="State1"/>
            <parents>L6_N0</parents>
            <probabilities>0.125494 0.874506 0.864369 0.135631</probabilities>
        </cpt>
        <cpt id="L8_N0">
            <state id="State0"/>
            <state id="State1"/>
            <parents>L7_N7 L7_N10 L7_N15 L7_N5</parents>
            <probabilities>0.212276 0.787724 0.115754 0.884246 0.316414 0.683586 0.120620 0.879380 0.579434 0.420566 0.818604 0.181396 0.884963 0.115037 0.110456 0.889544 0.277795 0.722205 0.472577 0.527423 0.364548 0.635452 0.138035 0.861965 0.638487 0.361513 0.376604 0.623396 0.445387 0.554613 0.397216 0.602784</probabilities>
        </cpt>
        <cpt id="L8_N1">
            <state id="State0"/>
            <state id="State1"/>
            <parents>L7_N5</parents>
            <probabilities>0.722045 0.277955 0.794191 0.205809</probabilities>
        </cpt>
        <cpt id="L8_N2">
            <state id="State0"/>
            <state id="State1"/>
            <parents>L7_N16</parents>
            <probabilities>0.206268 0.793732 0.491017 0.508983</probabilities>
        </cpt>
        <cpt id="L8_N3">
            <state id="State0"/>
            <state id="State1"/>
            <parents>L7_N6 L7_N1 L7_N3 L7_N10</parents>
            <probabilities>0.797771 0.202229 0.460601 0.539399 0.206456 0.793544 0.322588 0.677412 0.510987 0.489013 0.103994 0.896006 0.141182 0.858818 0.546183 0.453817 0.644803 0.355197 0.649745 0.350255 0.661222 0.338778 0.603839 0.396161 0.269796 0.730204 0.152222 0.847778 0.594475 0.405525 0.859075 0.140925</probabilities>
        </cpt>
        <cpt id="L8_N4">
            <state id="State0"/>
            <state id="State1"/>
            <parents>L7_N12 L7_N7 L7_N18</parents>
            <probabilities>0.262129 0.737871 0.434346 0.565654 0.674415 0.325585 0.644217 0.355783 0.145801 0.854199 0.454944 0.545056 0.860355 0.139645 0.633815 0.366185</probabilities>
        </cpt>
        <cpt id="L8_N5">
            <state id="State0"/>
            <state id="State1"/>
            <parents>L7_N3 L7_N13 L7_N18</parents>
            <probabilities>0.619745 0.380255 0.631142 0.368858 0.849977 0.150023 0.878670 0.121330 0.549562 0.450438 0.310394 0.689606 0.263799 0.736201 0.797024 0.202976</probabilities>
        </cpt>
        <cpt id="L8_N6">
            <state id="State0"/>
            <state id="State1"/>
            <parents>L7_N15 L7_N18 L7_N16</parents>
            <probabilities>0.607937 0.392063 0.382492 0.617508 0.521711 0.478289 0.378939 0.621061 0.609586 0.390414 0.677517 0.322483 0.588303 0.411697 0.833313 0.166687</probabilities>
        </cpt>
        <cpt id="L8_N7">
            <state id="State0"/>
            <state id="State1"/>
            <parents>L7_N2 L7_N1 L7_N17</parents>
            <probabilities>0.130776 0.869224 0.248565 0.751435 0.466132 0.533868 0.417300 0.582700 0.808916 0.191084 0.637029 0.362971 0.749372 0.250628 0.874800 0.125200</probabilities>
        </cpt>
        <cpt id="L8_N8">
            <state id="State0"/>
            <state id="State1"/>
            <parents>L7_N5</parents>
            <probabilities>0.822670 0.177330 0.263426 0.736574</probabilities>
        </cpt>
        <cpt id="L8_N9">
            <state id="State0"/>
            <state id="State1"/>
            <parents>L7_N18 L7_N5 L7_N11</parents>
            <probabilities>0.447655 0.552345 0.346900 0.653100 0.148558 0.851442 0.459214 0.540786 0.453645 0.546355 0.793905 0.206095 0.139371 0.860629 0.621272 0.378728</probabilities>
        </cpt>
        <cpt id="L8_N10">
            <state id="State0"/>
            <state id="State1"/>
            <parents>L7_N15 L7_N3 L7_N4 L7_N7</parents>
            <probabilities>0.391718 0.608282 0.227063 0.772937 0.897073 0.102927 0.519677 0.480323 0.637242 0.362758 0.378554 0.621446 0.480072 0.519928 0.464608 0.535392 0.511496 0.488504 0.435280 0.564720 0.485163 0.514837 0.582238 0.417762 0.506130 0.493870 0.328351 0.671649 0.668003 0.331997 0.597386 0.402614</probabilities>
        </cpt>
        <cpt id="L8_N11">
            <state id="State0"/>
            <state id="State1"/>
            <parents>L7_N2 L7_N4</parents>
            <probabilities>0.163075 0.836925 0.591700 0.408300 0.638286 0.361714 0.295177 0.704823</probabilities>
        </cpt>
        <cpt id="L8_N12">
            <state id="State0"/>
            <state id="State1"/>
            <parents>L7_N11 L7_N4 L7_N8</parents>
            <probabilities>0.761735 0.238265 0.656736 0.343264 0.882048 0.117952 0.720815 0.279185 0.707309 0.292691 0.302445 0.697555 0.217985 0.782015 0.214204 0.785796</probabilities>
        </cpt>
        <cpt id="L8_N13">
            <state id="State0"/>
            <state id="State1"/>
            <parents>L7_N18 L7_N17</parents>
            <probabilities>0.401567 0.598433 0.214550 0.785450 0.192312 0.807688 0.266706 0.733294</probabilities>
        </cpt>
        <cpt id="L8_N14">
            <state id="State0"/>
            <state id="State1"/>
            <parents>L7_N1 L7_N14</parents>
            <probabilities>0.810375 0.189625 0.684701 0.315299 0.388344 0.611656 0.356752 0.643248</probabilities>
        </cpt>
        <cpt id="L8_N15">
            <state id="State0"/>
            <state id="State1"/>
            <parents>L7_N2 L7_N7</parents>
            <probabilities>0.835877 0.164123 0.744984 0.255016 0.623799 0.376201 0.498370 0.501630</probabilities>
        </cpt>
        <cpt id="L8_N16">
            <state id="State0"/>
            <state id="State1"/>
            <parents>L7_N8 L7_N12 L7_N3</parents>
            <probabilities>0.851190 0.148810 0.846448 0.153552 0.425509 0.574491 0.863295 0.136705 0.612447 0.387553 0.768833 0.231167 0.839390 0.160610 0.407442 0.592558</probabilities>
        </cpt>
        <cpt id="L8_N17">
            <state id="State0"/>
            <state id="State1"/>
            <parents>L7_N0 L7_N4 L7_N17 L7_N3</parents>
            <probabilities>0.268293 0.731707 0.550466 0.449534 0.121581 0.878419 0.130498 0.869502 0.428842 0.571158 0.379893 0.620107 0.429128 0.570872 0.796909 0.203091 0.879730 0.120270 0.637481 0.362519 0.374808 0.625192 0.186645 0.813355 0.311437 0.688563 0.642475 0.357525 0.385670 0.614330 0.651121 0.348879</probabilities>
        </cpt>
        <cpt id="L8_N18">
            <state id="State0"/>
            <state id="State1"/>
            <parents>L7_N2 L7_N5 L7_N11</parents>
            <probabilities>0.248465 0.751535 0.699263 0.300737 0.811779 0.188221 0.105363 0.894637 0.590290 0.409710 0.699019 0.300981 0.417894 0.582106 0.297756 0.702244</probabilities>
        </cpt>
        <cpt id="L8_N19">
            <state id="State0"/>
            <state id="State1"/>
            <parents>L7_N16 L7_N4 L7_N11 L7_N13</parents>
            <probabilities>0.192417 0.807583 0.429660 0.570340 0.377462 0.622538 0.290419 0.709581 0.860051 0.139949 0.170050 0.829950 0.310911 0.689089 0.437878 0.562122 0.107473 0.892527 0.137567 0.862433 0.517742 0.482258 0.704184 0.295816 0.804228 0.195772 0.100184 0.899816 0.107917 0.892083 0.528669 0.471331</probabilities>
        </cpt>
        <cpt id="L9_N0">
            <state id="State0"/>
            <state id="State1"/>
            <parents>L8_N12 L8_N3</parents>
            <probabilities>0.437948 0.562052 0.369787 0.630213 0.267584 0.732416 0.148234 0.851766</probabilities>
        </cpt>
        <cpt id="L9_N1">
            <state id="State0"/>
            <state id="State1"/>
            <parents>L8_N7</parents>
            <probabilities>0.688532 0.311468 0.474676 0.525324</probabilities>
        </cpt>
        <cpt id="L9_N2">
            <state id="State0"/>
            <state id="State1"/>
            <parents>L8_N10 L8_N4</parents>
            <probabilities>0.839988 0.160012 0.483234 0.516766 0.661563 0.338437 0.289771 0.710229</probabilities>
        </cpt>
        <cpt id="L9_N3">
            <state id="State0"/>
            <state id="State1"/>
            <parents>L8_N6 L8_N8</parents>
            <probabilities>0.640502 0.359498 0.518635 0.481365 0.603445 0.396555 0.488319 0.511681</probabilities>
        </cpt>
        <cpt id="L9_N4">
            <state id="State0"/>
            <state id="State1"/>
            <parents>L8_N10</parents>
            <probabilities>0.535011 0.464989 0.833514 0.166486</probabilities>
        </cpt>
        <cpt id="L9_N5">
            <state id="State0"/>
            <state id="State1"/>
            <parents>L8_N11 L8_N8 L8_N3</parents>
            <probabilities>0.404329 0.595671 0.708580 0.291420 0.684008 0.315992 0.542702 0.457298 0.615411 0.384589 0.592090 0.407910 0.106313 0.893687 0.115354 0.884646</probabilities>
        </cpt>
        <cpt id="L9_N6">
            <state id="State0"/>
            <state id="State1"/>
            <parents>L8_N1</parents>
            <probabilities>0.596447 0.403553 0.194542 0.805458</probabilities>
        </cpt>
        <cpt id="L9_N7">
            <state id="State0"/>
            <state id="State1"/>
            <parents>L8_N3 L8_N11</parents>
            <probabilities>0.351041 0.648959 0.390209 0.609791 0.149630 0.850370 0.888507 0.111493</probabilities>
        </cpt>
        <cpt id="L9_N8">
            <state id="State0"/>
            <state id="State1"/>
            <parents>L8_N2 L8_N10 L8_N9</parents>
            <probabilities>0.345609 0.654391 0.709923 0.290077 0.554269 0.445731 0.505953 0.494047 0.485002 0.514998 0.290331 0.709669 0.129114 0.870886 0.279271 0.720729</probabilities>
        </cpt>
        <cpt id="L9_N9">
            <state id="State0"/>
            <state id="State1"/>
            <parents>L8_N6 L8_N2 L8_N11</parents>
            <probabilities>0.791502 0.208498 0.385708 0.614292 0.151972 0.848028 0.293423 0.706577 0.533142 0.466858 0.508778 0.491222 0.869379 0.130621 0.849629 0.150371</probabilities>
        </cpt>
        <cpt id="L9_N10">
            <state id="State0"/>
            <state id="State1"/>
            <parents>L8_N5 L8_N11 L8_N1 L8_N12</parents>
            <probabilities>0.645660 0.354340 0.347994 0.652006 0.493955 0.506045 0.411836 0.588164 0.798353 0.201647 0.520031 0.479969 0.773297 0.226703 0.566966 0.433034 0.707036 0.292964 0.781009 0.218991 0.683888 0.316112 0.262921 0.737079 0.836022 0.163978 0.325714 0.674286 0.817775 0.182225 0.219746 0.780254</probabilities>
        </cpt>
        <cpt id="L9_N11">
            <state id="State0"/>
            <state id="State1"/>
            <parents>L8_N2 L8_N10</parents>
            <probabilities>0.345973 0.654027 0.817077 0.182923 0.134469 0.865531 0.654029 0.345971</probabilities>
        </cpt>
        <cpt id="L9_N12">
            <state id="State0"/>
            <state id="State1"/>
            <parents>L8_N12 L8_N7 L8_N16</parents>
            <probabilities>0.235942 0.764058 0.167750 0.832250 0.440373 0.559627 0.323657 0.676343 0.518653 0.481347 0.527753 0.472247 0.702677 0.297323 0.179941 0.820059</probabilities>
        </cpt>
        <cpt id="L9_N13">
            <state id="State0"/>
            <state id="State1"/>
            <parents>L8_N12 L8_N3 L8_N5 L8_N14</parents>
            <probabilities>0.417432 0.582568 0.658946 0.341054 0.873341 0.126659 0.327289 0.672711 0.492715 0.507285 0.458247 0.541753 0.175746 0.824254 0.392614 0.607386 0.781496 0.218504 0.638046 0.361954 0.485625 0.514375 0.808441 0.191559 0.679463 0.320537 0.257481 0.742519 0.704849 0.295151 0.888964 0.111036</probabilities>
        </cpt>
        <cpt id="L9_N14">
            <state id="State0"/>
            <state id="State1"/>
            <parents>L8_N18</parents>
            <probabilities>0.571609 0.428391 0.132423 0.867577</probabilities>
        </cpt>
        <cpt id="L9_N15">
            <state id="State0"/>
            <state id="State1"/>
            <parents>L8_N18 L8_N12 L8_N10</parents>
            <probabilities>0.632369 0.367631 0.255786 0.744214 0.371028 0.628972 0.313432 0.686568 0.210710 0.789290 0.267279 0.732721 0.680840 0.319160 0.818470 0.181530</probabilities>
        </cpt>
        <cpt id="L9_N16">
            <state id="State0"/>
            <state id="State1"/>
            <parents>L8_N8 L8_N3 L8_N19</parents>
            <probabilities>0.523601 0.476399 0.116789 0.883211 0.471112 0.528888 0.423092 0.576908 0.874385 0.125615 0.717223 0.282777 0.394563 0.605437 0.581742 0.418258</probabilities>
        </cpt>
        <cpt id="L9_N17">
            <state id="State0"/>
            <state id="State1"/>
            <parents>L8_N10 L8_N2</parents>
            <probabilities>0.510650 0.489350 0.182527 0.817473 0.519612 0.480388 0.821119 0.178881</probabilities>
        </cpt>
        <cpt id="L9_N18">
            <state id="State0"/>
            <state id="State1"/>
            <parents>L8_N13</parents>
            <probabilities>0.798201 0.201799 0.695824 0.304176</probabilities>
        </cpt>
        <cpt id="L9_N19">
            <state id="State0"/>
            <state id="State1"/>
            <parents>L8_N9 L8_N4</parents>
            <probabilities>0.550197 0.449803 0.459963 0.540037 0.755182 0.244818 0.866891 0.133109</probabilities>
        </cpt>
        <cpt id="L10_N0">
            <state id="State0"/>
            <state id="State1"/>
            <parents>L9_N16 L9_N9</parents>
            <probabilities>0.266321 0.733679 0.604993 0.395007 0.305078 0.694922 0.691838 0.308162</probabilities>
        </cpt>
        <cpt id="L10_N1">
            <state id="State0"/>
            <state id="State1"/>
            <parents>L9_N3 L9_N4 L9_N10 L9_N12</parents>
            <probabilities>0.253380 0.746620 0.778268 0.221732 0.440848 0.559152 0.157888 0.842112 0.545531 0.454469 0.862334 0.137666 0.184095 0.815905 0.433782 0.566218 0.255839 0.744161 0.326273 0.673727 0.152577 0.847423 0.566668 0.433332 0.152836 0.847164 0.147110 0.852890 0.304273 0.695727 0.634701 0.365299</probabilities>
        </cpt>
        <cpt id="L10_N2">
            <state id="State0"/>
            <state id="State1"/>
            <parents>L9_N10 L9_N14</parents>
            <probabilities>0.232451 0.767549 0.878174 0.121826 0.681599 0.318401 0.694724 0.305276</probabilities>
        </cpt>
        <cpt id="L10_N3">
            <state id="State0"/>
            <state id="State1"/>
            <parents>L9_N13 L9_N14</parents>
            <probabilities>0.870971 0.129029 0.139892 0.860108 0.760725 0.239275 0.476068 0.523932</probabilities>
        </cpt>
        <cpt id="L10_N4">
            <state id="State0"/>
            <state id="State1"/>
            <parents>L9_N0 L9_N15 L9_N3</parents>
            <probabilities>0.636609 0.363391 0.222599 0.777401 0.473481 0.526519 0.105265 0.894735 0.705406 0.294594 0.214160 0.785840 0.466160 0.533840 0.245963 0.754037</probabilities>
        </cpt>
        <cpt id="L10_N5">
            <state id="State0"/>
            <state id="State1"/>
            <parents>L9_N13 L9_N11 L9_N8</parents>
            <probabilities>0.300743 0.699257 0.543424 0.456576 0.243472 0.756528 0.386995 0.613005 0.132263 0.867737 0.787853 0.212147 0.139536 0.860464 0.530704 0.469296</probabilities>
        </cpt>
        <cpt id="L10_N6">
            <state id="State0"/>
            <state id="State1"/>
            <parents>L9_N6 L9_N17 L9_N13 L9_N11</parents>
            <probabilities>0.449453 0.550547 0.241299 0.758701 0.533089 0.466911 0.697811 0.302189 0.403090 0.596910 0.431681 0.568319 0.738997 0.261003 0.728928 0.271072 0.198130 0.801870 0.823433 0.176567 0.284129 0.715871 0.168204 0.831796 0.302190 0.697810 0.593383 0.406617 0.783649 0.216351 0.307779 0.692221</probabilities>
        </cpt>
        <cpt id="L10_N7">
            <state id="State0"/>
            <state id="State1"/>
            <parents>L9_N19 L9_N18 L9_N12</parents>
            <probabilities>0.114790 0.885210 0.115906 0.884094 0.683147 0.316853 0.879110 0.120890 0.602869 0.397131 0.186305 0.813695 0.815681 0.184319 0.739059 0.260941</probabilities>
        </cpt>
        <cpt id="L10_N8">
            <state id="State0"/>
            <state id="State1"/>
            <parents>L9_N3 L9_N17 L9_N6 L9_N16</parents>
            <probabilities>0.298793 0.701207 0.605428 0.394572 0.285900 0.714100 0.270827 0.729173 0.631391 0.368609 0.828517 0.171483 0.715851 0.284149 0.150139 0.849861 0.476459 0.523541 0.708722 0.291278 0.581003 0.418997 0.233523 0.766477 0.464437 0.535563 0.217720 0.782280 0.376650 0.623350 0.735830 0.264170</probabilities>
        </cpt>
        <cpt id="L10_N9">
            <state id="State0"/>
            <state id="State1"/>
            <parents>L9_N17 L9_N7 L9_N8</parents>
            <probabilities>0.489271 0.510729 0.717914 0.282086 0.354121 0.645879 0.365811 0.634189 0.538813 0.461187 0.782249 0.217751 0.199457 0.800543 0.265322 0.734678</probabilities>
        </cpt>
        <cpt id="L10_N10">
            <state id="State0"/>
            <state id="State1"/>
            <parents>L9_N11</parents>
            <probabilities>0.810640 0.189360 0.783664 0.216336</probabilities>
        </cpt>
        <cpt id="L10_N11">
            <state id="State0"/>
            <state id="State1"/>
            <parents>L9_N3 L9_N7 L9_N17</parents>
            <probabilities>0.673755 0.326245 0.576542 0.423458 0.126046 0.873954 0.516407 0.483593 0.105771 0.894229 0.875187 0.124813 0.558272 0.441728 0.791202 0.208798</probabilities>
        </cpt>
        <cpt id="L10_N12">
            <state id="State0"/>
            <state id="State1"/>
            <parents>L9_N2 L9_N19 L9_N8</parents>
            <probabilities>0.875398 0.124602 0.322695 0.677305 0.786991 0.213009 0.593291 0.406709 0.753441 0.246559 0.723799 0.276201 0.317434 0.682566 0.766469 0.233531</probabilities>
        </cpt>
        <cpt id="L10_N13">
            <state id="State0"/>
            <state id="State1"/>
            <parents>L9_N1 L9_N0</parents>
            <probabilities>0.472416 0.527584 0.180264 0.819736 0.488676 0.511324 0.185321 0.814679</probabilities>
        </cpt>
        <cpt id="L10_N14">
            <state id="State0"/>
            <state id="State1"/>
            <parents>L9_N9 L9_N7 L9_N4 L9_N18</parents>
            <probabilities>0.702262 0.297738 0.344375 0.655625 0.205003 0.794997 0.779445 0.220555 0.540715 0.459285 0.550814 0.449186 0.229984 0.770016 0.406289 0.593711 0.744972 0.255028 0.142877 0.857123 0.842125 0.157875 0.611738 0.388262 0.636117 0.363883 0.758096 0.241904 0.684521 0.315479 0.286254 0.713746</probabilities>
        </cpt>
        <cpt id="L10_N15">
            <state id="State0"/>
            <state id="State1"/>
            <parents>L9_N10 L9_N6 L9_N9</parents>
            <probabilities>0.277986 0.722014 0.335161 0.664839 0.246453 0.753547 0.271955 0.728045 0.668211 0.331789 0.646949 0.353051 0.310867 0.689133 0.135843 0.864157</probabilities>
        </cpt>
        <cpt id="L10_N16">
            <state id="State0"/>
            <state id="State1"/>
            <parents>L9_N16</parents>
            <probabilities>0.607312 0.392688 0.422221 0.577779</probabilities>
        </cpt>
        <cpt id="L10_N17">
            <state id="State0"/>
            <state id="State1"/>
            <parents>L9_N11</parents>
            <probabilities>0.210688 0.789312 0.891497 0.108503</probabilities>
        </cpt>
        <cpt id="L10_N18">
            <state id="State0"/>
            <state id="State1"/>
            <parents>L9_N16 L9_N10 L9_N15</parents>
            <probabilities>0.281732 0.718268 0.243560 0.756440 0.891818 0.108182 0.717613 0.282387 0.665007 0.334993 0.254053 0.745947 0.804852 0.195148 0.296818 0.703182</probabilities>
        </cpt>
        <cpt id="L10_N19">
            <state id="State0"/>
            <state id="State1"/>
            <parents>L9_N11 L9_N13 L9_N14 L9_N18</parents>
            <probabilities>0.207119 0.792881 0.304966 0.695034 0.875294 0.124706 0.389833 0.610167 0.851256 0.148744 0.134528 0.865472 0.691588 0.308412 0.791601 0.208399 0.617966 0.382034 0.732894 0.267106 0.464402 0.535598 0.191853 0.808147 0.872970 0.127030 0.721779 0.278221 0.301978 0.698022 0.118839 0.881161</probabilities>
        </cpt>
        <cpt id="L11_N0">
            <state id="State0"/>
            <state id="State1"/>
            <parents>L10_N5 L10_N19 L10_N7</parents>
            <probabilities>0.531554 0.468446 0.664605 0.335395 0.385403 0.614597 0.586476 0.413524 0.734719 0.265281 0.697508 0.302492 0.324789 0.675211 0.674892 0.325108</probabilities>
        </cpt>
        <cpt id="L11_N1">
            <state id="State0"/>
            <state id="State1"/>
            <parents>L10_N12 L10_N9 L10_N15</parents>
            <probabilities>0.819902 0.180098 0.261830 0.738170 0.169923 0.830077 0.670878 0.329122 0.523618 0.476382 0.312027 0.687973 0.455567 0.544433 0.768931 0.231069</probabilities>
        </cpt>
        <cpt id="L11_N2">
            <state id="State0"/>
            <state id="State1"/>
            <parents>L10_N10</parents>
            <probabilities>0.625070 0.374930 0.291580 0.708420</probabilities>
        </cpt>
        <cpt id="L11_N3">
            <state id="State0"/>
            <state id="State1"/>
            <parents>L10_N3 L10_N12</parents>
            <probabilities>0.821856 0.178144 0.685896 0.314104 0.531106 0.468894 0.707736 0.292264</probabilities>
        </cpt>
        <cpt id="L11_N4">
            <state id="State0"/>
            <state id="State1"/>
            <parents>L10_N3 L10_N14</parents>
            <probabilities>0.549320 0.450680 0.422198 0.577802 0.223040 0.776960 0.146147 0.853853</probabilities>
        </cpt>
        <cpt id="L11_N5">
            <state id="State0"/>
            <state id="State1"/>
            <parents>L10_N19 L10_N0</parents>
            <probabilities>0.848563 0.151437 0.729372 0.270628 0.725979 0.274021 0.122586 0.877414</probabilities>
        </cpt>
        <cpt id="L11_N6">
            <state id="State0"/>
            <state id="State1"/>
            <parents>L10_N4 L10_N0 L10_N10 L10_N15</parents>
            <probabilities>0.609225 0.390775 0.756003 0.243997 0.523847 0.476153 0.113449 0.886551 0.712073 0.287927 0.469274 0.530726 0.420793 0.579207 0.378790 0.621210 0.782007 0.217993 0.736468 0.263532 0.699618 0.300382 0.694860 0.305140 0.549499 0.450501 0.863789 0.136211 0.431168 0.568832 0.680339 0.319661</probabilities>
        </cpt>
        <cpt id="L11_N7">
            <state id="State0"/>
            <state id="State1"/>
            <parents>L10_N1 L10_N14 L10_N2</parents>
            <probabilities>0.354079 0.645921 0.766518 0.233482 0.101892 0.898108 0.478878 0.521122 0.349293 0.650707 0.830130 0.169870 0.679142 0.320858 0.614437 0.385563</probabilities>
        </cpt>
        <cpt id="L11_N8">
            <state id="State0"/>
            <state id="State1"/>
            <parents>L10_N3 L10_N19</parents>
            <probabilities>0.318233 0.681767 0.399721 0.600279 0.117400 0.882600 0.674286 0.325714</probabilities>
        </cpt>
        <cpt id="L11_N9">
            <state id="State0"/>
            <state id="State1"/>
            <parents>L10_N1 L10_N8 L10_N16</parents>
            <probabilities>0.740645 0.259355 0.228362 0.771638 0.350458 0.649542 0.830145 0.169855 0.412038 0.587962 0.570197 0.429803 0.105230 0.894770 0.767842 0.232158</probabilities>
        </cpt>
        <cpt id="L11_N10">
            <state id="State0"/>
            <state id="State1"/>
            <parents>L10_N18 L10_N8 L10_N11</parents>
            <probabilities>0.358578 0.641422 0.425999 0.574001 0.370083 0.629917 0.892255 0.107745 0.729481 0.270519 0.237511 0.762489 0.235384 0.764616 0.241559 0.758441</probabilities>
        </cpt>
        <cpt id="L11_N11">
            <state id="State0"/>
            <state id="State1"/>
            <parents>L10_N10</parents>
            <probabilities>0.246154 0.753846 0.614248 0.385752</probabilities>
        </cpt>
        <cpt id="L11_N12">
            <state id="State0"/>
            <state id="State1"/>
            <parents>L10_N4 L10_N18</parents>
            <probabilities>0.453109 0.546891 0.524498 0.475502 0.839038 0.160962 0.102618 0.897382</probabilities>
        </cpt>
        <cpt id="L11_N13">
            <state id="State0"/>
            <state id="State1"/>
            <parents>L10_N2 L10_N4 L10_N3</parents>
            <probabilities>0.658332 0.341668 0.158472 0.841528 0.278988 0.721012 0.682342 0.317658 0.281530 0.718470 0.877872 0.122128 0.718039 0.281961 0.300277 0.699723</probabilities>
        </cpt>
        <cpt id="L11_N14">
            <state id="State0"/>
            <state id="State1"/>
            <parents>L10_N1 L10_N5 L10_N15</parents>
            <probabilities>0.363647 0.636353 0.370459 0.629541 0.315234 0.684766 0.537692 0.462308 0.563871 0.436129 0.221802 0.778198 0.534867 0.465133 0.318629 0.681371</probabilities>
        </cpt>
        <cpt id="L11_N15">
            <state id="State0"/>
            <state id="State1"/>
            <parents>L10_N18 L10_N6</parents>
            <probabilities>0.462521 0.537479 0.885134 0.114866 0.122317 0.877683 0.759474 0.240526</probabilities>
        </cpt>
        <cpt id="L11_N16">
            <state id="State0"/>
            <state id="State1"/>
            <parents>L10_N5 L10_N11 L10_N10 L10_N19</parents>
            <probabilities>0.800273 0.199727 0.596256 0.403744 0.481762 0.518238 0.128795 0.871205 0.825915 0.174085 0.493513 0.506487 0.382438 0.617562 0.748473 0.251527 0.210449 0.789551 0.204431 0.795569 0.696548 0.303452 0.839386 0.160614 0.338048 0.661952 0.272930 0.727070 0.405518 0.594482 0.437156 0.562844</probabilities>
        </cpt>
        <cpt id="L11_N17">
            <state id="State0"/>
            <state id="State1"/>
            <parents>L10_N8</parents>
            <probabilities>0.160523 0.839477 0.277802 0.722198</probabilities>
        </cpt>
        <cpt id="L11_N18">
            <state id="State0"/>
            <state id="State1"/>
            <parents>L10_N13</parents>
            <probabilities>0.498567 0.501433 0.649359 0.350641</probabilities>
        </cpt>
        <cpt id="L11_N19">
            <state id="State0"/>
            <state id="State1"/>
            <parents>L10_N15</parents>
            <probabilities>0.415556 0.584444 0.340465 0.659535</probabilities>
        </cpt>
        <cpt id="L12_N0">
            <state id="State0"/>
            <state id="State1"/>
            <parents>L11_N12 L11_N5 L11_N10 L11_N8</parents>
            <probabilities>0.602040 0.397960 0.843536 0.156464 0.639319 0.360681 0.728929 0.271071 0.294551 0.705449 0.618501 0.381499 0.674442 0.325558 0.139890 0.860110 0.266525 0.733475 0.813946 0.186054 0.250314 0.749686 0.676159 0.323841 0.429355 0.570645 0.850025 0.149975 0.347049 0.652951 0.663349 0.336651</probabilities>
        </cpt>
        <cpt id="L12_N1">
            <state id="State0"/>
            <state id="State1"/>
            <parents>L11_N5 L11_N11 L11_N16 L11_N19</parents>
            <probabilities>0.688501 0.311499 0.323736 0.676264 0.453954 0.546046 0.394001 0.605999 0.593175 0.406825 0.553468 0.446532 0.409077 0.590923 0.353865 0.646135 0.245975 0.754025 0.329079 0.670921 0.626792 0.373208 0.441053 0.558947 0.128076 0.871924 0.560202 0.439798 0.853950 0.146050 0.607647 0.392353</probabilities>
        </cpt>
        <cpt id="L12_N2">
            <state id="State0"/>
            <state id="State1"/>
            <parents>L11_N11 L11_N19</parents>
            <probabilities>0.761987 0.238013 0.727778 0.272222 0.537486 0.462514 0.325188 0.674812</probabilities>
        </cpt>
        <cpt id="L12_N3">
            <state id="State0"/>
            <state id="State1"/>
            <parents>L11_N3 L11_N1 L11_N0 L11_N12</parents>
            <probabilities>0.870704 0.129296 0.689589 0.310411 0.789725 0.210275 0.797503 0.202497 0.609803 0.390197 0.199834 0.800166 0.421041 0.578959 0.167381 0.832619 0.788994 0.211006 0.689743 0.310257 0.563704 0.436296 0.899448 0.100552 0.790200 0.209800 0.111833 0.888167 0.521915 0.478085 0.287891 0.712109</probabilities>
        </cpt>
        <cpt id="L12_N4">
            <state id="State0"/>
            <state id="State1"/>
            <parents>L11_N4 L11_N1 L11_N17</parents>
            <probabilities>0.371934 0.628066 0.771743 0.228257 0.607593 0.392407 0.229817 0.770183 0.893786 0.106214 0.347834 0.652166 0.333593 0.666407 0.133307 0.866693</probabilities>
        </cpt>
        <cpt id="L12_N5">
            <state id="State0"/>
            <state id="State1"/>
            <parents>L11_N11</parents>
            <probabilities>0.520205 0.479795 0.649193 0.350807</probabilities>
        </cpt>
        <cpt id="L12_N6">
            <state id="State0"/>
            <state id="State1"/>
            <parents>L11_N2 L11_N19</parents>
            <probabilities>0.627086 0.372914 0.368723 0.631277 0.585073 0.414927 0.257587 0.742413</probabilities>
        </cpt>
        <cpt id="L12_N7">
            <state id="State0"/>
            <state id="State1"/>
            <parents>L11_N7</parents>
            <probabilities>0.187999 0.812001 0.820786 0.179214</probabilities>
        </cpt>
        <cpt id="L12_N8">
            <state id="State0"/>
            <state id="State1"/>
            <parents>L11_N13</parents>
            <probabilities>0.742385 0.257615 0.382596 0.617404</probabilities>
        </cpt>
        <cpt id="L12_N9">
            <state id="State0"/>
            <state id="State1"/>
            <parents>L11_N14 L11_N2 L11_N0 L11_N3</parents>
            <probabilities>0.535176 0.464824 0.625665 0.374335 0.757609 0.242391 0.284778 0.715222 0.239095 0.760905 0.713649 0.286351 0.278980 0.721020 0.412069 0.587931 0.312004 0.687996 0.388489 0.611511 0.164133 0.835867 0.130033 0.869967 0.836327 0.163673 0.311033 0.688967 0.407403 0.592597 0.766295 0.233705</probabilities>
        </cpt>
        <cpt id="L12_N10">
            <state id="State0"/>
            <state id="State1"/>
            <parents>L11_N13 L11_N15 L11_N11</parents>
            <probabilities>0.132588 0.867412 0.739995 0.260005 0.196285 0.803715 0.241586 0.758414 0.555552 0.444448 0.723716 0.276284 0.462118 0.537882 0.186811 0.813189</probabilities>
        </cpt>
        <cpt id="L12_N11">
            <state id="State0"/>
            <state id="State1"/>
            <parents>L11_N18 L11_N2 L11_N13 L11_N6</parents>
            <probabilities>0.228540 0.771460 0.671363 0.328637 0.169294 0.830706 0.187540 0.812460 0.854581 0.145419 0.373882 0.626118 0.186055 0.813945 0.100533 0.899467 0.597512 0.402488 0.106006 0.893994 0.158235 0.841765 0.551571 0.448429 0.414616 0.585384 0.894919 0.105081 0.189757 0.810243 0.726274 0.273726</probabilities>
        </cpt>
        <cpt id="L12_N12">
            <state id="State0"/>
            <state id="State1"/>
            <parents>L11_N15 L11_N19 L11_N3</parents>
            <probabilities>0.394834 0.605166 0.197492 0.802508 0.393081 0.606919 0.348468 0.651532 0.545648 0.454352 0.893546 0.106454 0.436309 0.563691 0.109787 0.890213</probabilities>
        </cpt>
        <cpt id="L12_N13">
            <state id="State0"/>
            <state id="State1"/>
            <parents>L11_N16 L11_N13 L11_N12 L11_N14</parents>
            <probabilities>0.538794 0.461206 0.187181 0.812819 0.606046 0.393954 0.881928 0.118072 0.400557 0.599443 0.588466 0.411534 0.767561 0.232439 0.722535 0.277465 0.517038 0.482962 0.425747 0.574253 0.267292 0.732708 0.828397 0.171603 0.718551 0.281449 0.871251 0.128749 0.899982 0.100018 0.442791 0.557209</probabilities>
        </cpt>
        <cpt id="L12_N14">
            <state id="State0"/>
            <state id="State1"/>
            <parents>L11_N9 L11_N11 L11_N14 L11_N2</parents>
            <probabilities>0.818430 0.181570 0.868718 0.131282 0.677558 0.322442 0.732980 0.267020 0.717506 0.282494 0.576994 0.423006 0.897366 0.102634 0.641852 0.358148 0.853614 0.146386 0.138241 0.861759 0.523562 0.476438 0.184254 0.815746 0.389796 0.610204 0.596215 0.403785 0.712697 0.287303 0.540048 0.459952</probabilities>
        </cpt>
        <cpt id="L12_N15">
            <state id="State0"/>
            <state id="State1"/>
            <parents>L11_N18</parents>
            <probabilities>0.229835 0.770165 0.232625 0.767375</probabilities>
        </cpt>
        <cpt id="L12_N16">
            <state id="State0"/>
            <state id="State1"/>
            <parents>L11_N3 L11_N7</parents>
            <probabilities>0.889714 0.110286 0.474446 0.525554 0.439460 0.560540 0.465094 0.534906</probabilities>
        </cpt>
        <cpt id="L12_N17">
            <state id="State0"/>
            <state id="State1"/>
            <parents>L11_N10</parents>
            <probabilities>0.789918 0.210082 0.704860 0.295140</probabilities>
        </cpt>
        <cpt id="L12_N18">
            <state id="State0"/>
            <state id="State1"/>
            <parents>L11_N18 L11_N0 L11_N16</parents>
            <probabilities>0.820769 0.179231 0.548236 0.451764 0.744557 0.255443 0.659262 0.340738 0.236990 0.763010 0.306411 0.693589 0.442034 0.557966 0.209326 0.790674</probabilities>
        </cpt>
        <cpt id="L12_N19">
            <state id="State0"/>
            <state id="State1"/>
            <parents>L11_N0</parents>
            <probabilities>0.779813 0.220187 0.104830 0.895170</probabilities>
        </cpt>
        <cpt id="L13_N0">
            <state id="State0"/>
            <state id="State1"/>
            <parents>L12_N5 L12_N3 L12_N17</parents>
            <probabilities>0.295376 0.704624 0.134596 0.865404 0.138302 0.861698 0.344229 0.655771 0.423235 0.576765 0.167794 0.832206 0.366188 0.633812 0.117932 0.882068</probabilities>
        </cpt>
        <cpt id="L13_N1">
            <state id="State0"/>
            <state id="State1"/>
            <parents>L12_N19 L12_N4 L12_N8 L12_N17</parents>
            <probabilities>0.219166 0.780834 0.598519 0.401481 0.364901 0.635099 0.261624 0.738376 0.877319 0.122681 0.244653 0.755347 0.191321 0.808679 0.107431 0.892569 0.556658 0.443342 0.222122 0.777878 0.289517 0.710483 0.647497 0.352503 0.656190 0.343810 0.322622 0.677378 0.852106 0.147894 0.780346 0.219654</probabilities>
        </cpt>
        <cpt id="L13_N2">
            <state id="State0"/>
            <state id="State1"/>
            <parents>L12_N11 L12_N5</parents>
            <probabilities>0.366751 0.633249 0.560170 0.439830 0.881585 0.118415 0.109228 0.890772</probabilities>
        </cpt>
        <cpt id="L13_N3">
            <state id="State0"/>
            <state id="State1"/>
            <parents>L12_N15</parents>
            <probabilities>0.455017 0.544983 0.311498 0.688502</probabilities>
        </cpt>
        <cpt id="L13_N4">
            <state id="State0"/>
            <state id="State1"/>
            <parents>L12_N18 L12_N14 L12_N10</parents>
            <probabilities>0.678130 0.321870 0.866270 0.133730 0.332162 0.667838 0.327273 0.672727 0.679788 0.320212 0.872483 0.127517 0.501133 0.498867 0.544621 0.455379</probabilities>
        </cpt>
        <cpt id="L13_N5">
            <state id="State0"/>
            <state id="State1"/>
            <parents>L12_N6 L12_N18 L12_N5</parents>
            <probabilities>0.617285 0.382715 0.295382 0.704618 0.667736 0.332264 0.870186 0.129814 0.508677 0.491323 0.484751 0.515249 0.423323 0.576677 0.515326 0.484674</probabilities>
        </cpt>
        <cpt id="L13_N6">
            <state id="State0"/>
            <state id="State1"/>
            <parents>L12_N11 L12_N14 L12_N12</parents>
            <probabilities>0.454448 0.545552 0.877637 0.122363 0.668930 0.331070 0.277592 0.722408 0.557617 0.442383 0.874789 0.125211 0.541433 0.458567 0.446464 0.553536</probabilities>
        </cpt>
        <cpt id="L13_N7">
            <state id="State0"/>
            <state id="State1"/>
            <parents>L12_N12 L12_N2 L12_N9</parents>
            <probabilities>0.142518 0.857482 0.699962 0.300038 0.662149 0.337851 0.312975 0.687025 0.839666 0.160334 0.283381 0.716619 0.629382 0.370618 0.299629 0.700371</probabilities>
        </cpt>
        <cpt id="L13_N8">
            <state id="State0"/>
            <state id="State1"/>
            <parents>L12_N5 L12_N17</parents>
            <probabilities>0.599322 0.400678 0.667686 0.332314 0.855791 0.144209 0.578080 0.421920</probabilities>
        </cpt>
        <cpt id="L13_N9">
            <state id="State0"/>
            <state id="State1"/>
            <parents>L12_N7 L12_N10</parents>
            <probabilities>0.501247 0.498753 0.206868 0.793132 0.393242 0.606758 0.656749 0.343251</probabilities>
        </cpt>
        <cpt id="L13_N10">
            <state id="State0"/>
            <state id="State1"/>
            <parents>L12_N10 L12_N8</parents>
            <probabilities>0.441817 0.558183 0.305714 0.694286 0.434993 0.565007 0.380510 0.619490</probabilities>
        </cpt>
        <cpt id="L13_N11">
            <state id="State0"/>
            <state id="State1"/>
            <parents>L12_N18</parents>
            <probabilities>0.149165 0.850835 0.273476 0.726524</probabilities>
        </cpt>
        <cpt id="L13_N12">
            <state id="State0"/>
            <state id="State1"/>
            <parents>L12_N9 L12_N8 L12_N19 L12_N6</parents>
            <probabilities>0.592829 0.407171 0.658358 0.341642 0.383319 0.616681 0.643506 0.356494 0.473898 0.526102 0.114382 0.885618 0.295594 0.704406 0.338310 0.661690 0.399861 0.600139 0.457531 0.542469 0.609104 0.390896 0.873877 0.126123 0.227849 0.772151 0.684534 0.315466 0.391958 0.608042 0.624876 0.375124</probabilities>
        </cpt>
        <cpt id="L13_N13">
            <state id="State0"/>
            <state id="State1"/>
            <parents>L12_N9 L12_N12 L12_N14 L12_N16</parents>
            <probabilities>0.715587 0.284413 0.404481 0.595519 0.571374 0.428626 0.385819 0.614181 0.627032 0.372968 0.495311 0.504689 0.550141 0.449859 0.239645 0.760355 0.752959 0.247041 0.632364 0.367636 0.554010 0.445990 0.445806 0.554194 0.316401 0.683599 0.882296 0.117704 0.846122 0.153878 0.763759 0.236241</probabilities>
        </cpt>
        <cpt id="L13_N14">
            <state id="State0"/>
            <state id="State1"/>
            <parents>L12_N9 L12_N13 L12_N2 L12_N19</parents>
            <probabilities>0.223232 0.776768 0.419905 0.580095 0.617841 0.382159 0.535088 0.464912 0.493701 0.506299 0.569096 0.430904 0.740474 0.259526 0.256664 0.743336 0.200385 0.799615 0.117886 0.882114 0.186621 0.813379 0.330790 0.669210 0.191108 0.808892 0.690478 0.309522 0.841890 0.158110 0.165299 0.834701</probabilities>
        </cpt>
        <cpt id="L13_N15">
            <state id="State0"/>
            <state id="State1"/>
            <parents>L12_N2 L12_N9</parents>
            <probabilities>0.471545 0.528455 0.858729 0.141271 0.379981 0.620019 0.426309 0.573691</probabilities>
        </cpt>
        <cpt id="L13_N16">
            <state id="State0"/>
            <state id="State1"/>
            <parents>L12_N10 L12_N16 L12_N15 L12_N1</parents>
            <probabilities>0.355899 0.644101 0.301271 0.698729 0.122858 0.877142 0.507998 0.492002 0.388606 0.611394 0.119663 0.880337 0.290831 0.709169 0.237071 0.762929 0.676966 0.323034 0.213712 0.786288 0.861947 0.138053 0.702829 0.297171 0.336209 0.663791 0.274193 0.725807 0.249433 0.750567 0.587661 0.412339</probabilities>
        </cpt>
        <cpt id="L13_N17">
            <state id="State0"/>
            <state id="State1"/>
            <parents>L12_N0 L12_N9 L12_N19</parents>
            <probabilities>0.305955 0.694045 0.863803 0.136197 0.598590 0.401410 0.812082 0.187918 0.201982 0.798018 0.790348 0.209652 0.694861 0.305139 0.606012 0.393988</probabilities>
        </cpt>
        <cpt id="L13_N18">
            <state id="State0"/>
            <state id="State1"/>
            <parents>L12_N0 L12_N7 L12_N18 L12_N10</parents>
            <probabilities>0.551157 0.448843 0.586904 0.413096 0.766256 0.233744 0.409042 0.590958 0.145042 0.854958 0.139529 0.860471 0.871892 0.128108 0.562463 0.437537 0.647461 0.352539 0.273118 0.726882 0.862199 0.137801 0.728433 0.271567 0.182370 0.817630 0.704807 0.295193 0.569959 0.430041 0.447308 0.552692</probabilities>
        </cpt>
        <cpt id="L13_N19">
            <state id="State0"/>
            <state id="State1"/>
            <parents>L12_N12 L12_N10 L12_N16</parents>
            <probabilities>0.800913 0.199087 0.373085 0.626915 0.416527 0.583473 0.529471 0.470529 0.687349 0.312651 0.738155 0.261845 0.468350 0.531650 0.138305 0.861695</probabilities>
        </cpt>
        <cpt id="L14_N0">
            <state id="State0"/>
            <state id="State1"/>
            <parents>L13_N15 L13_N5 L13_N17</parents>
            <probabilities>0.121277 0.878723 0.205829 0.794171 0.255570 0.744430 0.566866 0.433134 0.677405 0.322595 0.301640 0.698360 0.627246 0.372754 0.807713 0.192287</probabilities>
        </cpt>
        <cpt id="L14_N1">
            <state id="State0"/>
            <state id="State1"/>
            <parents>L13_N18 L13_N4 L13_N19</parents>
            <probabilities>0.635315 0.364685 0.820883 0.179117 0.221083 0.778917 0.558776 0.441224 0.225031 0.774969 0.176827 0.823173 0.728473 0.271527 0.273668 0.726332</probabilities>
        </cpt>
        <cpt id="L14_N2">
            <state id="State0"/>
            <state id="State1"/>
            <parents>L13_N7 L13_N11 L13_N9 L13_N16</parents>
            <probabilities>0.258615 0.741385 0.293175 0.706825 0.508473 0.491527 0.186047 0.813953 0.124501 0.875499 0.366228 0.633772 0.136006 0.863994 0.366333 0.633667 0.149683 0.850317 0.559822 0.440178 0.721148 0.278852 0.356848 0.643152 0.692094 0.307906 0.223472 0.776528 0.578791 0.421209 0.602319 0.397681</probabilities>
        </cpt>
        <cpt id="L14_N3">
            <state id="State0"/>
            <state id="State1"/>
            <parents>L13_N6 L13_N4 L13_N17 L13_N15</parents>
            <probabilities>0.439425 0.560575 0.809481 0.190519 0.100038 0.899962 0.517027 0.482973 0.583930 0.416070 0.248284 0.751716 0.449770 0.550230 0.211429 0.788571 0.587495 0.412505 0.448432 0.551568 0.175768 0.824232 0.736121 0.263879 0.610865 0.389135 0.711590 0.288410 0.863332 0.136668 0.601054 0.398946</probabilities>
        </cpt>
        <cpt id="L14_N4">
            <state id="State0"/>
            <state id="State1"/>
            <parents>L13_N17</parents>
            <probabilities>0.738404 0.261596 0.576390 0.423610</probabilities>
        </cpt>
        <cpt id="L14_N5">
            <state id="State0"/>
            <state id="State1"/>
            <parents>L13_N15 L13_N18 L13_N10</parents>
            <probabilities>0.880936 0.119064 0.143258 0.856742 0.584378 0.415622 0.446386 0.553614 0.692751 0.307249 0.515302 0.484698 0.567016 0.432984 0.266776 0.733224</probabilities>
        </cpt>
        <cpt id="L14_N6">
            <state id="State0"/>
            <state id="State1"/>
            <parents>L13_N13 L13_N16 L13_N19</parents>
            <probabilities>0.349643 0.650357 0.208868 0.791132 0.170517 0.829483 0.187405 0.812595 0.640993 0.359007 0.789062 0.210938 0.524833 0.475167 0.131051 0.868949</probabilities>
        </cpt>
        <cpt id="L14_N7">
            <state id="State0"/>
            <state id="State1"/>
            <parents>L13_N6 L13_N5 L13_N9 L13_N14</parents>
            <probabilities>0.487684 0.512316 0.145705 0.854295 0.722902 0.277098 0.399496 0.600504 0.573020 0.426980 0.557110 0.442890 0.407579 0.592421 0.478102 0.521898 0.872796 0.127204 0.241434 0.758566 0.298865 0.701135 0.593325 0.406675 0.534664 0.465336 0.661153 0.338847 0.103719 0.896281 0.714171 0.285829</probabilities>
        </cpt>
        <cpt id="L14_N8">
            <state id="State0"/>
            <state id="State1"/>
            <parents>L13_N5 L13_N4</parents>
            <probabilities>0.578855 0.421145 0.140680 0.859320 0.453041 0.546959 0.176402 0.823598</probabilities>
        </cpt>
        <cpt id="L14_N9">
            <state id="State0"/>
            <state id="State1"/>
            <parents>L13_N15 L13_N7 L13_N19 L13_N5</parents>
            <probabilities>0.383972 0.616028 0.432082 0.567918 0.596274 0.403726 0.319606 0.680394 0.256467 0.743533 0.848691 0.151309 0.509124 0.490876 0.294887 0.705113 0.158680 0.841320 0.782758 0.217242 0.811291 0.188709 0.395728 0.604272 0.826129 0.173871 0.744758 0.255242 0.554791 0.445209 0.857738 0.142262</probabilities>
        </cpt>
        <cpt id="L14_N10">
            <state id="State0"/>
            <state id="State1"/>
            <parents>L13_N7 L13_N0</parents>
            <probabilities>0.711906 0.288094 0.819537 0.180463 0.388021 0.611979 0.334757 0.665243</probabilities>
        </cpt>
        <cpt id="L14_N11">
            <state id="State0"/>
            <state id="State1"/>
            <parents>L13_N10 L13_N11</parents>
            <probabilities>0.817675 0.182325 0.854429 0.145571 0.569253 0.430747 0.665125 0.334875</probabilities>
        </cpt>
        <cpt id="L14_N12">
            <state id="State0"/>
            <state id="State1"/>
            <parents>L13_N12</parents>
            <probabilities>0.414791 0.585209 0.169263 0.830737</probabilities>
        </cpt>
        <cpt id="L14_N13">
            <state id="State0"/>
            <state id="State1"/>
            <parents>L13_N15 L13_N9</parents>
            <probabilities>0.491765 0.508235 0.376369 0.623631 0.345934 0.654066 0.815391 0.184609</probabilities>
        </cpt>
        <cpt id="L14_N14">
            <state id="State0"/>
            <state id="State1"/>
            <parents>L13_N19 L13_N6 L13_N18 L13_N5</parents>
            <probabilities>0.356568 0.643432 0.144947 0.855053 0.510212 0.489788 0.160487 0.839513 0.837702 0.162298 0.117096 0.882904 0.125419 0.874581 0.681214 0.318786 0.730592 0.269408 0.644184 0.355816 0.729955 0.270045 0.408416 0.591584 0.855484 0.144516 0.835921 0.164079 0.537196 0.462804 0.850268 0.149732</probabilities>
        </cpt>
        <cpt id="L14_N15">
            <state id="State0"/>
            <state id="State1"/>
            <parents>L13_N16 L13_N9 L13_N0 L13_N13</parents>
            <probabilities>0.731428 0.268572 0.774214 0.225786 0.167969 0.832031 0.431488 0.568512 0.424338 0.575662 0.254329 0.745671 0.255883 0.744117 0.225026 0.774974 0.651621 0.348379 0.590081 0.409919 0.365749 0.634251 0.322285 0.677715 0.879986 0.120014 0.742589 0.257411 0.120221 0.879779 0.882376 0.117624</probabilities>
        </cpt>
        <cpt id="L14_N16">
            <state id="State0"/>
            <state id="State1"/>
            <parents>L13_N18 L13_N14 L13_N0 L13_N1</parents>
            <probabilities>0.320516 0.679484 0.752950 0.247050 0.652325 0.347675 0.148363 0.851637 0.252304 0.747696 0.536555 0.463445 0.481865 0.518135 0.601590 0.398410 0.722099 0.277901 0.437187 0.562813 0.523184 0.476816 0.147086 0.852914 0.335817 0.664183 0.815877 0.184123 0.420143 0.579857 0.252937 0.747063</probabilities>
        </cpt>
        <cpt id="L14_N17">
            <state id="State0"/>
            <state id="State1"/>
            <parents>L13_N12 L13_N5</parents>
            <probabilities>0.314978 0.685022 0.877881 0.122119 0.216583 0.783417 0.251841 0.748159</probabilities>
        </cpt>
        <cpt id="L14_N18">
            <state id="State0"/>
            <state id="State1"/>
            <parents>L13_N19</parents>
            <probabilities>0.177866 0.822134 0.840954 0.159046</probabilities>
        </cpt>
        <cpt id="L14_N19">
            <state id="State0"/>
            <state id="State1"/>
            <parents>L13_N12 L13_N15</parents>
            <probabilities>0.663009 0.336991 0.779777 0.220223 0.151370 0.848630 0.698507 0.301493</probabilities>
        </cpt>
        <cpt id="L15_N0">
            <state id="State0"/>
            <state id="State1"/>
            <parents>L14_N6 L14_N17 L14_N5 L14_N4</parents>
            <probabilities>0.635556 0.364444 0.458567 0.541433 0.481989 0.518011 0.355838 0.644162 0.668185 0.331815 0.176778 0.823222 0.531949 0.468051 0.411921 0.588079 0.303375 0.696625 0.861359 0.138641 0.608860 0.391140 0.537844 0.462156 0.478664 0.521336 0.319061 0.680939 0.365549 0.634451 0.882778 0.117222</probabilities>
        </cpt>
        <cpt id="L15_N1">
            <state id="State0"/>
            <state id="State1"/>
            <parents>L14_N3 L14_N2</parents>
            <probabilities>0.427982 0.572018 0.476511 0.523489 0.555282 0.444718 0.324196 0.675804</probabilities>
        </cpt>
        <cpt id="L15_N2">
            <state id="State0"/>
            <state id="State1"/>
            <parents>L14_N7 L14_N12 L14_N9</parents>
            <probabilities>0.556910 0.443090 0.143884 0.856116 0.894309 0.105691 0.719660 0.280340 0.132641 0.867359 0.731469 0.268531 0.469975 0.530025 0.570111 0.429889</probabilities>
        </cpt>
        <cpt id="L15_N3">
            <state id="State0"/>
            <state id="State1"/>
            <parents>L14_N13 L14_N16</parents>
            <probabilities>0.455460 0.544540 0.309977 0.690023 0.693824 0.306176 0.441322 0.558678</probabilities>
        </cpt>
        <cpt id="L15_N4">
            <state id="State0"/>
            <state id="State1"/>
            <parents>L14_N16 L14_N12 L14_N19</parents>
            <probabilities>0.195410 0.804590 0.865144 0.134856 0.337529 0.662471 0.728749 0.271251 0.144759 0.855241 0.841140 0.158860 0.147893 0.852107 0.714796 0.285204</probabilities>
        </cpt>
        <cpt id="L15_N5">
            <state id="State0"/>
            <state id="State1"/>
            <parents>L14_N9 L14_N3 L14_N1</parents>
            <probabilities>0.449621 0.550379 0.592884 0.407116 0.824693 0.175307 0.204111 0.795889 0.155458 0.844542 0.595550 0.404450 0.859914 0.140086 0.487975 0.512025</probabilities>
        </cpt>
        <cpt id="L15_N6">
            <state id="State0"/>
            <state id="State1"/>
            <parents>L14_N9 L14_N11</parents>
            <probabilities>0.621875 0.378125 0.694844 0.305156 0.316642 0.683358 0.590965 0.409035</probabilities>
        </cpt>
        <cpt id="L15_N7">
            <state id="State0"/>
            <state id="State1"/>
