<?xml version="1.0" encoding="ISO-8859-1"?>
<smile version="1.0" id="BenchmarkNetwork" numsamples="10000" discsamples="10000">
    <nodes>
        <cpt id="L0_N0">
            <state id="State0"/>
            <state id="State1"/>
            <probabilities>0.785868 0.214132</probabilities>
        </cpt>
        <cpt id="L0_N1">
            <state id="State0"/>
            <state id="State1"/>
            <probabilities>0.586235 0.413765</probabilities>
        </cpt>
        <cpt id="L1_N0">
            <state id="State0"/>
            <state id="State1"/>
            <parents>L0_N0</parents>
            <probabilities>0.663657 0.336343 0.232293 0.767707</probabilities>
        </cpt>
        <cpt id="L1_N1">
            <state id="State0"/>
            <state id="State1"/>
            <parents>L0_N0 L0_N1</parents>
            <probabilities>0.277427 0.722573 0.729863 0.270137 0.150661 0.849339 0.122597 0.877403</probabilities>
        </cpt>
        <cpt id="L2_N0">
            <state id="State0"/>
            <state id="State1"/>
            <parents>L1_N0 L1_N1</parents>
            <probabilities>0.318831 0.681169 0.606179 0.393821 0.375683 0.624317 0.809533 0.190467</probabilities>
        </cpt>
        <cpt id="L2_N1">
            <state id="State0"/>
            <state id="State1"/>
            <parents>L1_N1 L1_N0</parents>
            <probabilities>0.331175 0.668825 0.712926 0.287074 0.235377 0.764623 0.207965 0.792035</probabilities>
        </cpt>
    </nodes>
</smile>
